-0.003836906946694585
0.03380061302264986
0.014086413308145126
0.05433060943420384
0.07454141431083486
0.02616067917798129
0.04943724854679807
0.08748804539225324
-0.0824780493506588
0.06044711260071492
-0.06666048411686838
0.020763356360016416
-0.0011883481053018424
0.020138364929553704
-0.0637815391393486
0.017757116775564602
0.050425643759203304
0.03832324767673537
0.04561806262437973
0.07348804657782068
-0.0013166869589947283
-0.08484620750611446
0.05280567387305443
0.027365859379443497
0.031206289581286156
-0.017764394632669697
0.03213680235558833
0.030789322698210275
-0.019337721331277646
0.06749957995109926
0.047405875133324754
0.08511048413620237
0.04608019566284852
0.002205393473353967
-0.0030293581222382016
0.07742441895415611
0.03093151633349847
-0.0721674726848059
0.008868918973098133
0.09243302641927192
0.0776063708906376
0.07333192346470352
0.024501503301998337
0.05616172046622586
0.016833318781724504
0.0525819129427155
0.030882819461449634
-0.099750998235724
0.015381280990419716
0.08251307581387096
0.07365065225566667
-0.01764292657591003
-0.06519938597582417
0.033158453399727145
0.03464534010400411
0.09074162887586867
-0.0143320042666219
-0.06511736912068211
0.07256610481192949
0.01575306184450656
0.051102830178164305
0.09687139444111123
0.05840295124240849
-0.030866709691828365
0.05517065694393147
-0.005962160934099361
0.018130780814424388
0.09999940471022689
0.04242035832241481
0.04582303509170363
-0.08006921479101439
0.07481078486779302
-0.023358651147219897
-0.06992353443917501
0.07691530756223375
-0.05383512832824271
0.08582611491825995
0.050755734385115214
0.06305237512630729
-0.09849533144949431
0.033945487936228286
0.03593521856818929
0.03209248885335961
0.040076283220456116
-0.048415565108572665
0.05431910488247246
0.08130320578310732
0.07281856731976619
0.0017263971055496569
0.03832993936894072
0.021173281515092804
0.037854699804960396
0.020200788892403426
0.03526129590372387
0.02125942544605125
-0.047756052508304024
0.01959159375098686
0.07145564428511167
0.014774212397855549
0.05105534885103949
0.09325870524379584
0.011799116554955455
0.0717367105387085
0.015839699389345277
0.07254823305730107
-0.0822471295469343
0.017521718622320784
0.04608725321602403
-0.06212124052295741
0.0060587183591137295
0.08635937149869133
0.012281991328999917
-0.03526668534908939
0.023710306652434968
-0.040095665129295896
-0.018407987054644623
-0.09950496339849141
-0.07133795597284148
0.02110682168806341
0.09917203388853335
0.06478874811272689
0.0019608114814811256
-0.005401287189824397
0.01691925904916647
0.05049260179284157
0.03271783427647815
-0.0448603317314904
0.08938423720574667
0.041473082835554315
0.022522033002440434
0.008360097750935436
0.04989625811464116
0.07331739467622933
0.027072656669977907
0.05508314608040413
-0.05616318152627376
0.0401507523150052
-0.05503482006796288
-0.039647134258678114
0.0973760358571221
0.026139892648963242
0.03252100763976254
0.09005320487510701
-0.050186768487474005
0.07457751475526786
0.05400581971198834
0.02047620552067357
0.08603955124682386
-0.021329272914038355
0.061999819451460964
-0.04932664814237811
-0.09796281607814508
0.016068655275767854
0.014698893493377885
0.020685802034300246
0.02312615917010434
0.003920184038483973
0.01675644855214689
-2.786738024597307E-4
0.027017493204571308
-0.005175121925388354
-0.05309646270572898
0.07295426696850613
0.0419352855752165
0.041776265309827115
0.08928591868470287
0.0786053050466834
-0.052609862332825434
-0.0031550829448407786
0.09531479869177839
0.05686661944110652
0.04720275621819861
-0.07975117138152645
0.06776120061073818
0.09194400290357507
0.07049322124928556
0.06888986530432095
-0.04257303927275884
-0.0333225723998441
0.058054988710214084
0.059334041645658975
-0.07794240237190353
0.029188591575618844
0.07423546531004557
0.05900911346142099
0.013209159158403705
0.07091708805901725
0.004621054865910718
0.0812306695215908
-0.04411969275398231
0.09201761718248377
-0.039657989721089644
0.05111885620600637
0.0506200489169176
0.07588995081600103
-0.06515527472464516
-0.04584427879410341
0.07402820468479804
0.04117068555565376
-0.06270384350852254
0.03661737374889043
0.04792403086598551
0.030554766489427038
0.09105110079976678
-0.09603450416843007
-0.06628699184925821
0.06289886555858837
0.054370134054707975
0.03137952786457571
0.05703447121328528
0.0562764397369121
-0.010472019497194757
0.0015792773625754736
-0.03658333531958853
0.036159219977884766
0.07510987958142346
0.044917737064233715
-0.0842335619596518
-0.026964740652276484
0.06212277268078065
0.007807480676447889
-0.05929717462673748
0.03866228648197739
-0.03001180515096405
-0.08490475347623076
-0.026388201517135876
-0.017164430246688137
0.0652554874532442
0.006113127721770306
0.047409077853353826
-0.09924626916353489
-0.032773359974496985
0.07294033974045941
-0.027963867520365254
-0.022264129216354345
0.0563534068852482
0.05739736661402253
0.06887624034786458
0.017566368279414504
0.08632365926906632
-0.01818723288213417
-0.08701100375335202
0.042527514226749524
0.048157830003452806
0.01318593732611889
0.07166554305871944
0.01705584129908347
-0.08894193803299691
0.06039822781866022
0.01648471868074522
0.06790027768915047
-0.07438965296682991
-0.013040397777811255
0.07468320653107438
0.06346928210652458
-0.05026795798079496
0.060106546399453675
0.059533749187256096
0.04892894724490632
-0.019146282010092636
0.07868270316887452
0.019775763024044365
0.011651958621150496
-0.07801955004926384
0.0929351898496012
-0.027523335324157613
0.04088554288606899
0.05855062784138773
0.037713916782774304
-0.019697600612147453
-0.05680856861637037
-0.05282842947108112
0.09038788781128804
0.0017797326600347968
0.08259714390018319
0.08380742677152961
0.04313332640925521
0.05455937416217449
0.05631137651558937
0.061023673249228416
0.00877592381996195
0.06136553127240929
0.0160367810467673
0.07378385754400449
0.0956322517726513
0.07243882930624343
0.030551214967840856
0.010623094165382777
0.053365831698008015
0.003785178858270122
0.026112790998803065
0.048052494369632825
-0.08595503229026115
-0.0893007506314136
0.00998368131613156
0.013778098707455666
0.0031424367172273038
0.00967930642386347
0.022929218654108297
-0.06598437973605455
0.0672403003425773
0.0779676715659948
0.04844982822860497
0.04200443961284589
-0.09134940342562264
0.04462385869181057
0.05333510104810249
0.07592131671759983
0.04865609296774451
0.007401791199011534
-0.008231219681328394
0.018648995401006965
0.07199045987956554
0.059924177609429474
0.05719203418017671
0.016566230227173698
0.09078391377211253
0.009661179522329477
0.0922399499477404
0.019643164117554707
-0.017455292944279166
-0.03630235923347323
-0.028496938195064214
0.013267979798835192
0.011873692531150226
0.06382438748414654
-0.043517008156386455
0.02020161248789973
0.0034914306487350277
-0.0881905654641959
-0.026862505517467633
0.01983313196786192
0.011403516452523701
0.035091268070687076
0.048182185726204196
0.05849554727324732
-0.03902958723765654
0.06749463375312945
0.05807049679470602
0.018148440107623467
0.002182585217125707
-0.03330892219328159
0.09838897274615627
0.032126076130105485
0.09917988040656858
0.036931971743804526
0.08859334268442356
-0.03735850240703169
0.08762189894519684
0.05823050917644593
0.0685465905199833
0.04359853110451076
-0.04430420180325676
0.054323341688867155
0.08794195758223938
0.0734699767747066
0.06526063290153139
0.08936381595845619
0.07260015746785228
0.06320454982848805
0.03967431912015876
0.030329307860649413
-0.02410622907195764
0.04682409783498048
0.09213408358215294
0.045449306614415874
0.057101304111780965
0.018349206367957158
0.01917148827757169
0.059053100156582716
0.04256031950998068
0.09329503566652805
0.03666929829716814
0.03937067618101481
0.05594683697200184
-0.034261201338603664
0.08957892439548432
0.045588482277671566
-0.05523540179008717
0.021903124670599572
-0.005255775574315544
0.02872461542142077
0.015883502638953356
0.028178660312819237
0.02145074257922097
0.05095736123757297
0.005976518383959684
0.021428057439250373
-0.06739538252072555
0.04552875344654733
-0.04694565134517498
0.08781643022845545
0.04098006282042255
0.026553587083734842
0.011546206270278678
0.01604777803846616
0.028135593213976573
0.0936051797707643
0.008985711150949954
0.0332862568611943
0.07420203264496517
0.09865822179318814
-0.06625032709230758
-0.012614460754568693
0.08815015970451598
0.04999927840633825
0.08408649607471408
-0.052694746133130244
0.018716329714814003
-0.025080045977189144
0.06540138511833563
0.015424397750675778
-0.0949401559899404
-0.048446477291044565
0.08424935108760939
0.06180276552894931
0.02630041035986322
-0.009674367906943745
0.002932361962898755
0.02862659583760796
0.02528825924891734
-0.007740248714273465
0.09247226982982626
-0.015606029907371866
-0.06176416218116301
-0.0057235780232366
0.01218844418776198
0.06901047264747212
0.027717984155272768
0.02027031955496479
0.0017814596999596033
0.027894649557387657
0.012438825112442306
0.046584180186726276
0.08378986096007948
0.08559891278876788
0.01842186794327283
0.05735417444967306
0.0629979088851371
0.06630560882792749
0.031168237378649932
0.053447224913782676
0.04611267401447827
0.04025638748574373
0.042090467434019646
0.021490779769497495
0.013534032967200349
0.06656846931759325
0.09668720320987051
0.051808594979684985
-0.023817872191201753
0.02354941112995565
-0.0013076686512468183
0.0371976363220059
0.08068159269172401
0.018809520203133215
0.016365125870963795
0.019967705802447513
0.08085907230054964
0.061890489944888244
0.019921316137198775
0.09691872493681097
0.03837805623121601
0.08652789534817712
-0.09440190707373118
-0.07839687971208942
-0.07314593197487332
-0.024255305402858016
0.0906835567970222
0.08380718631513809
0.03849893883931682
-0.08201810129785421
0.09672911098015247
0.07056277140538281
0.09714859108443238
0.09886385035414738
0.030243807901125824
0.05634380613120207
0.041053326155164105
0.09838145656736802
-0.02552479690775547
0.020952400130524892
0.07481378086028528
0.04617507535308199
0.05231155743635321
0.06199372054105226
-0.05123175506961515
0.021761706406750236
-0.06650929176656409
0.06833992231960687
0.007022206430369771
0.0560986420974752
-0.06940341928712983
0.08963766606114004
0.08148357971007883
0.0179033587991156
0.09967137373963067
-0.06936296720180979
0.05451467802903351
0.023694999128510183
-0.010484160999292239
0.03562399853573339
0.06395338308556794
-0.010594498611422157
0.041461241046438085
0.015982324431508238
0.020537594784873894
0.013682737386012375
0.024121237538541146
-0.059635428179234146
0.08277835927464627
-0.06110686510042304
0.07161766953447615
0.06452425130903902
0.030457426466707876
-0.053352202542939105
0.05226445117185155
0.04053862788873505
0.09877152749079743
0.0660817136047224
0.0984311149266108
0.022359962227105387
0.0292208601552246
0.03253276940158384
0.022380871159276505
-0.016084785527285206
0.09525295235006126
-0.020655876131254053
0.05357883543040709
0.05662580481796467
0.007824452417879643
0.007323754324641635
0.06324899332072914
0.030650842398625144
0.04699482982162195
-0.005036221605289132
-0.09992328497601607
0.051078676866908895
0.01812552516788353
0.09483517384491949
0.009222122764213414
-0.007556769466242744
0.0579407682295352
0.010215018279400315
0.09120961830223809
0.08927177351851293
0.06439124845414634
0.02973298817236189
0.013823334393659917
0.05764620128299089
0.002148676332356478
0.04990123998370502
0.07688680305326343
0.07794847274252675
0.04222440973025385
0.06453684610643876
-0.0846177810982688
0.040080004256097285
0.06982515986901605
0.012695767453167528
-0.07887562690861039
0.07778671652326591
0.015373300830942821
0.019526847993351665
-0.06491129908910237
-0.010833970172515264
-0.05116415777629455
0.04361890499555757
-0.02263410329559086
-0.07654127957442132
-0.012712648551602326
0.09243870198396273
0.08868314610096939
-0.08207484797866058
0.06383607553517168
-0.09907582280572752
0.026450614555794588
1.252584751651048E-4
-0.06067816279516024
-0.006635233691341905
0.023058324254179655
0.08463960815016289
0.0426405931767635
0.06359718755573712
0.0681246478538394
0.07729829380827569
-0.08480825845910112
-0.0017629109041917002
-0.010435011006150019
0.08380984854175572
0.06246100223975476
0.018287079273969067
0.041872855369212064
0.03957123586061401
-0.005543975854475247
0.07510813416766957
0.03031015833756423
0.03911617881416482
0.038001226636175
0.029217981881858285
-0.08327640781671661
0.052554679516787245
0.04140224476716403
-0.08701366862708969
-0.0472623227084828
0.09665836267467554
0.0575423988089305
0.058704377883848025
0.03935133035835969
0.009801782815864662
0.05181286892650308
0.03806394489955481
0.024214849802102284
0.09796647284266854
0.003209143216602539
-0.08150330098344394
-0.06115419437498317
0.007246151250105054
-0.022215483753738968
0.004208575813551371
0.06719958174590751
0.04609624141752694
0.01923556428198707
-0.041945634863961585
0.03161837483436333
0.038403493152234125
0.011603799229777848
0.08329267532204052
0.09767512301288009
0.05294072659874391
-0.008173206663978375
-0.06403952288778525
0.08584851753424033
-0.03392337843353016
0.05308342894261017
0.06955791482902879
5.928320288592359E-4
0.06437226333859111
0.03486277700598714
0.003454856780474261
-0.05272816501444353
-0.07094090439647083
0.04240464209577491
-0.008848737521165967
-0.06801103143930184
-0.0785295815006686
0.06707908535213297
-0.01269539970909675
0.03865545765430092
0.0064862092879996724
0.06704897325425349
0.06011839729141236
0.039994928078064124
0.045174218607800215
0.06349645035080945
-0.04476351627337655
-0.03468065924013612
0.041766524149689344
-0.0819962261757819
-0.0510114167442495
-0.009253223483556935
-0.05204230738120285
-0.03558184005498717
0.04477374927293293
0.02522169051456699
-0.033499361536797945
0.017533127837111445
0.07506039610934531
0.0910947258912782
0.026954515673224738
-0.017236719176476692
0.09820731884368952
0.08488193612868478
-0.006965390998785265
-0.05429542654304601
-0.012775960475739992
0.08965893919744838
0.01496111142435562
0.0648034654700394
0.020763758417721476
0.08136026718491432
0.005532720157114368
-0.055293768384504
-0.012063545242460796
-0.06591631240937632
0.08156558832433691
0.05723731732523782
0.04698376586350664
0.06702779664883335
-0.09527205229098579
0.045596103108452524
-0.05300583998344182
-0.0190740481663947
0.08982546699468272
0.06627048365196445
0.05068561512104661
-0.01225877534152732
0.009558437140005427
0.0695990376307136
0.00949401146936163
0.05656648914500437
-0.05684913286393157
0.010509503071292586
0.0642108528500086
-0.06633082238547178
0.0720588309572795
-0.04069209772641643
-0.07320804336683448
0.07558108273612499
-0.09909137202304427
0.03441013102618709
0.08999408126651448
0.04244796093458292
0.015904543340969232
0.06748138396891243
0.08850287273426805
0.007252042642542936
-0.08860648966814949
0.007462234783409474
0.08191538294759348
0.01565192404120544
-0.03011227186632487
0.09190260765868097
0.046268581019708294
0.030907354385853403
-0.03098229833590528
0.024715004131237936
0.09512819412825399
0.03894948850172583
0.04078397265671205
0.08045109699512137
0.009669266469071305
-0.04531453380783004
-0.012566078670899955
0.08203251862580616
0.0795601211205908
0.06143368634619836
-0.04756874673839906
0.05190314081801345
0.04423587274553384
0.018322447747627646
-0.0034904024544740314
-0.06648134802440839
0.01724381553866003
0.09078700040788587
-0.025844652661225112
-0.037798837927361835
0.033696425184322115
0.04435036505062892
-0.03535224117903411
-0.019330606557131175
-0.08738678572689572
-0.027798638989220262
0.06698718339942603
0.04745897254963094
-0.0910741052811565
-0.07649640737619107
0.04779817321317126
0.04513494141574276
-0.09704657557207669
-0.008382858282950795
0.07199465474513472
-0.013583034755003859
0.01668628857366765
0.00399053705034659
-0.027283909421096264
0.0763600892617782
-0.09433360973498747
0.08430014782070028
0.0023446634853574178
0.005474616451287759
0.08993477260522642
0.044761315218989545
-0.048579830220683504
0.018672803037773883
-0.006969780603825512
-0.05453742581733392
0.037336492983475744
0.01813285490284293
-0.02216277892767797
0.08668948121209494
-0.05414164443949043
0.03968348298809332
0.03346626798931249
0.04069806162824463
0.07363943998093392
0.007763144746690695
0.0699574070908284
-0.08352487740021614
0.05884465300535685
0.04263719517235301
0.04069691546168719
-0.01642286911730184
-0.05767078495082834
0.047820825282966106
0.090289200485515
0.08071824301579528
-0.011930610440887834
0.013534788406541043
0.044595238563901324
0.07763339293184612
0.0359946648285282
0.09829480579298744
0.07751925397583853
0.09271326590315418
-0.0024815908532550557
0.08369179237279395
0.08199141780806465
0.07863430598224871
-0.03479692619906498
0.0389283268661158
0.047605569831311256
-0.03548651795319212
-0.052146203352649724
0.07421676102298852
-0.050394933334579485
0.056611405091917144
0.06205687005196417
0.06671898783023486
0.052546723767222164
-0.06840143250338036
0.0036381300870156896
0.03644187079703545
0.01587110707280523
0.06132646359584945
-0.012241271365943954
-0.023053179512492084
0.09608482944212796
0.03431177995743975
-0.001985436813301808
0.04632376364057447
0.05282066978824382
0.04281910262921307
-0.04920399289533052
0.047272437072009565
0.006174213811166521
0.0917893767054073
0.04724013413605768
-0.019672195767712772
0.03797893927759771
0.0636430812800533
0.08040233851014039
0.016647710154431325
0.011567462481798074
0.05122631890528964
0.033751018551495815
-0.08073401981977868
0.03466868314433394
-0.042809799545360024
0.08285859710565924
-0.05880517010567253
-0.052486170987468064
0.09064299990944402
0.052604671807877035
0.004225447971204083
0.03494842429883835
0.009921627220467771
0.07092774856325326
0.005244956364339859
0.07140993132809431
-0.043144198404637846
0.08323054188996526
0.07647624715301696
-0.05414674191047401
0.08686164973930394
0.021361162671404435
0.060568830525530526
0.03189576995437449
0.0623668578648669
-0.0752197903135059
0.09520286028008998
-0.057910165774113204
0.013453338922472718
-0.05970644428830416
-0.036857372636892996
0.020256046536922076
0.002053445181971675
0.04083786011175389
0.07222093493715726
0.017113220778328025
0.021039824374329108
-0.02001473168812891
0.06677661619993644
0.0745369968320107
-0.02747203605103353
0.07872566793480346
-0.07394929438520145
-0.03819330866055007
0.04734592834775189
0.07767039672495984
0.07347542034190183
0.08438190896938233
0.08629219998937043
-0.0823131283035631
0.03924265813121014
0.0871046022603836
-0.037096352299943625
0.00965967815638459
0.08648691668243999
0.016297489648956484
0.017479086409335737
0.015152262532221433
0.08566885075617547
0.08055766775711107
0.0834124320419731
0.09225751884329339
0.021735106929104103
-0.06415293225660387
0.007812347487610602
0.04261057675177107
0.06979777920347086
0.051441279677756246
-0.08334577799924953
0.08038817715938054
0.09597498229862839
0.013823891412201306
0.01613115608196833
0.06507505086672691
0.05233489623733795
0.0018246946296296696
0.08037689561069947
-0.026284327286563602
0.06830682439557278
0.026297460999650052
0.0955707785873802
0.03329888008423987
0.04294455658570559
0.04042952741848818
0.004130896213335775
0.09688767352166539
-0.09454564360269457
0.08119571825357047
0.05152721702565333
-0.04288767507618453
-0.02750257869267958
-0.047393193204229724
0.027752038819161023
0.018712139846940937
0.039835159828338934
0.018627171359506256
0.01257272882890613
-0.021921162369026276
0.009177225507073936
0.046327462002853564
-0.043988651002249676
0.09812008299906083
0.017087643012861878
0.034784249273286466
0.09741021415846188
0.041852150907964514
0.09158795708437958
0.026677551111954828
0.0041237868130503536
0.07096768195564612
-0.09624337113527229
0.0339293203777051
0.024158611459716053
-0.09587651515596811
0.04899769294548406
0.0936865154751636
0.06972210745065444
-0.04995294467315461
0.057731713481792124
0.09701910691587326
0.003584405015420955
-0.010416346043990402
-0.057757978049545
0.05107153812126211
0.05933058189193999
0.014977940440953338
0.08049642789204611
0.01761208120237151
0.055424131252463316
0.007299121425283439
0.006641954643096387
-0.021643147552959888
0.07312283672280917
0.07981865412013622
0.04509286755109562
-0.0940599542400956
0.07013568008284929
0.06167564185816837
-0.014497932884322898
-0.09138376114274753
-0.08234672663725404
0.07902934471767467
-0.0514551744244357
-0.07400767811841981
0.031723534607262266
0.07374552389886616
0.01619619648901581
0.007106504193069282
-0.0016702808990449458
-0.08684237603092962
-0.01992018254744024
-2.7899909402159806E-4
0.08579812565937547
-0.0498535415383267
0.019807899293032866
-0.095483580139131
0.026400034352805496
-0.03552326041495574
-0.05204453443644514
0.013533191099789524
0.06109432705170345
-0.014027038456623134
-0.08436906988312834
0.04597942890729789
-0.03807649684742832
-0.01980423307656483
0.0936264105018165
0.006690340673647682
0.01312509315796144
0.09657974523268723
0.06371863235489156
0.038975031956172856
0.005662190677393347
0.09284242825161804
0.040978000727624
0.042792635463270334
-0.08831059197742291
-0.087936897861296
0.028017384374167537
0.09891145812439395
0.023167213974571443
0.04720344871188864
0.03492080823104429
-0.06970878194393065
0.019971107811268846
0.0031644336970307885
0.06973323235185513
0.036113823560823904
0.007854647719747448
-0.0695680716937984
-0.08034536933185388
0.012796987819486627
-0.0032352234909559657
-0.06385714530323669
0.07525637526884085
0.024679334011122364
0.07982611279959478
-0.031079483628895607
-0.0755313274277519
0.006033542525458596
0.022325358497060646
0.062019364155339596
0.038738495794286204
-0.05671591042620088
0.05594436726105684
0.03554264224165535
-0.08670428668474292
-0.0158522953405658
-0.006928928387324354
0.053794245532849505
-0.004540388591166122
0.05588979192480159
0.023894009787592638
0.022570693705381048
0.010359696632849247
0.0977098795148102
0.05770277410114685
-0.010474085718004192
0.03965744996529194
0.056924422445197104
0.04193663525029376
0.060045807336542883
0.07136096611879891
-0.03197346182949716
0.0237458383337585
0.06589628294685657
-0.09797625335602454
-0.06350135401304559
0.006498220591422105
-0.07601050518137084
0.02204340189570074
0.07942065417446129
0.025003100530549244
-0.03377402016571544
-0.07384995288467083
0.02354251539789383
0.03193352841623151
0.034340264776899915
0.0586909921437207
0.03689103506599739
0.07903205842320776
0.07476720366725984
0.05383222866945514
0.03466584813239193
0.06745020664934642
-0.05109677245917631
9.868650573452015E-4
0.018612915757083487
0.01694598014633128
0.09974541756849203
0.004824458294316797
0.07996410256768954
0.014751787694955665
0.07463689983069077
0.043680147626601995
0.0425310708663742
-0.08961648587490467
0.0952961773707606
0.09675893206349903
-0.008485095930326467
0.0994450578766844
0.04143820940544385
0.03792704159924362
0.09946800962374858
-0.02376842550942601
-0.025723334773317716
0.08203488477092441
0.06111810766660364
0.0026931691375539357
0.09590696858925227
0.06407331306279956
0.0892956462178428
-0.09583343912610356
0.013492011952132621
0.08109312968110768
-0.058207863726362837
0.06392531863031276
0.044212572077543394
0.01933677035785071
-0.09621048445814438
0.09236224816940253
-0.08172211146629968
0.07473608485012823
0.0635894996798613
0.011020110358231666
0.0505128737401265
0.08892151427760156
0.015313878038867731
0.04921653761825423
0.0766558235466768
0.008165645927163082
0.041510750485568126
0.030549536679180478
0.038871096412151696
0.07177301759030691
-0.057375581126690514
0.0013000622501640607
0.09319590272757564
0.0055771664551624855
0.09443066653044971
-0.08932939673775123
0.08612885268030007
-0.07341622692090029
0.09166214260627023
-0.06552488686474225
-0.07091722306587017
0.06003018747237829
-0.07462820060284178
0.04375344476732759
-0.003124507717063768
0.07351110810257427
0.07239489682465505
0.020543824612843126
-0.03174873468658264
0.08082611813074161
-0.05018670833691903
0.05867168761834474
0.07296719328698084
0.0027655205972675484
-0.042500433351582434
0.054847299584289105
0.08471886828791814
0.06881573252898587
0.09218392983222568
0.013612204903320949
0.01575394070409021
-0.021573797443732445
0.08421714110607928
0.08816955602630289
-0.001306628673273677
-0.034997212393471255
-0.08718468969274079
0.04253356119897289
0.08947902215005904
0.028988177190491488
0.08601735675553795
-0.002104964625893796
-0.05707474835954785
-0.07633389252690526
0.08862851188650106
0.09103380086761678
0.04363025079907201
-0.03708451338739996
-0.09641279767162368
0.04177222915588233
0.06354524661983155
0.0833453166428195
0.05025830317340721
-0.01012133346394023
-0.07551904971674417
0.04234636343996456
0.06976765724850306
0.06002235329113481
0.08793484642611571
0.09523238822782132
-0.09195037916274888
-0.08871045038920392
-0.061274378202732925
0.09903638569885542
0.06439726777523838
0.007807812860780167
-0.09330250415071191
0.007667313705642512
0.07980956864822919
0.00595515819242759
-0.07630815674875631
0.07243171047133487
0.02278461299897383
0.09655323823992618
0.028814033999577215
-0.0884129217960506
0.08914751522715852
0.029248015803877953
-0.08651946277250713
0.04325767614548989
0.06579825265752787
0.020898916177992777
0.03627983194818185
-0.06600197517662412
0.025128554460193825
0.02042742699041117
0.06073885807377785
0.06888528006104838
0.004675556455212879
-0.05111052426457138
-0.0669941328175871
-0.033084377791969335
-0.07853990352218596
0.06596745538413368
0.06614762154258508
-0.04314869609309002
0.07096774897597902
-0.09962140626942369
0.036717041221618146
0.043672989393140654
0.012891454102631178
-0.06486797895996207
-0.03037112793970649
0.022265140296347796
0.06561042886640472
0.0301306523451767
0.04389536268572439
0.00785312241167875
-0.04659086669382726
0.0020363322815437346
0.027596611424318185
0.07431886690008899
3.1551131112103614E-4
0.02504738788052066
0.041169501481062326
-0.05424639846181006
0.047032162643951325
-0.036096308142397185
0.0488783098642433
0.029388873543486488
0.03420702275754062
0.06179672794629554
0.011775755459789317
-0.02660280234973987
0.0380665004605551
0.01646041649400383
-0.05983728418984354
0.02959911463934875
-0.07601239067561429
-0.05945960553200335
0.0356857839898104
-0.01919362091386395
0.07066202761273291
0.07863182645545619
0.026746911965778053
-0.025113051184961363
-0.06623306526563158
0.06335888263272288
0.01589148394068804
0.006558216411414283
-0.03404795352135505
-0.09862928974028086
0.010248763239711953
0.08744383582585741
-0.07089563430384883
-0.035780737567834536
0.09192713500722657
-0.06554665371499688
-0.025156366888869436
0.06402609630370434
0.05445286628648427
0.0011035067852434577
-0.006082115567244251
-0.07304326453105586
0.0787570892941096
0.04899274600383188
0.06342385738070849
0.050896839954422846
-0.08435508446754929
0.09065720960205306
0.007962973924092745
0.05865024676221117
0.025318438124325188
0.09410494048525161
0.03789522896825276
0.09948916534231522
-0.06339082622528798
0.012530738008177417
-0.095279040563869
0.044395904729934016
-0.07477465928569697
0.07680143665244607
-0.029564385876258717
-0.09036743067786557
-0.029883391887936525
-0.05237930033237442
-0.02552480897272326
0.006641402561420873
-0.06554925805601633
0.057503076572446465
0.043647431322538344
-0.04068265718635299
-0.054493634320349496
-0.08312689289293017
-0.07636231789996924
0.03682606674552216
0.08204187759221834
2.1414497965470403E-4
-0.08641103182927504
0.05660756774637141
-0.08383234637377496
0.007959414863914036
0.09821976331068563
-0.06935372381375181
-0.09513403181702529
0.09946625201630271
-0.03167902903417513
-0.06171097962006832
-0.005886470317689851
0.060958280813578986
0.06509518231644207
0.09815309705632927
-0.051970683207345686
0.007643667650061525
0.0453722128824143
-0.006902852169324014
0.04158779731857465
0.05889873971976667
0.02771059303978679
-0.035565564029530164
0.05780371803260681
-0.099174776629476
-0.046269551047569885
0.0764403029245195
-0.01521544630700572
0.07019524688262266
0.0993903500983247
-0.02662108306404723
-0.02256648869018671
0.09786197514873562
0.018787219014495732
-0.0796871703428226
0.08734005164906128
0.031199511283096754
-0.011085883039952851
0.05273100300784456
-0.08999443377412843
0.07307401576983624
9.270238274848158E-4
0.01706219762020779
0.028181867707523678
0.0942763595827997
0.033408361526743424
0.030795524261461843
0.022023313409487988
-0.0673649380025623
0.006087963214556541
0.05327117477552751
-0.07463512556650295
-0.06833546535165316
-0.09559468119884679
-0.0803747489398123
0.09323933537793799
-0.038989297452810066
0.009771199513764664
-0.015715769196482585
0.053563187952832436
0.019798096008155047
-0.06325287588471326
0.09732948123928192
0.0460287830871538
-0.004530139339128478
0.07732984215669769
0.06444858813323212
-0.046844267450627926
-0.043795683476460255
0.008504494747781921
0.0213990127059058
0.07810759107224557
0.06634531746942357
0.02793316775465579
0.020248664214845627
0.0033485292925271165
0.09956050099020555
0.007582646518803013
-0.024663372580192633
-0.01106441945584076
0.06250353581418697
0.06249068528047244
0.08947287435854623
0.06610989234136597
0.017163790574935875
0.09829548078444028
-0.005758931817874416
0.07334776053496214
-0.08472805310072314
-0.08321887890160054
0.07530331061975487
0.0011622725377921916
0.04042973587629148
0.020787505713400406
0.032273659258007015
0.04621019826892486
-0.0033092077152387517
0.09317083232845383
-0.029435195654321622
0.09193241887666176
-0.027874083888851542
0.03048098903162988
-0.03896470000098623
0.06451501875230292
0.024936864962971053
-0.06683961606718844
-0.01575683560801959
0.0354880994282919
0.06392610698854154
-0.06874217690675787
-0.031198168001526444
0.07714420375613407
0.09472619569273433
0.012072787607820407
-0.06955041476901316
0.08788392691881783
0.07303286235315928
0.09625458868288703
0.044262850748502114
0.09531886175661583
0.08029334182874348
0.08522639731357448
0.03143019860227861
0.026393450982492905
0.062436317559723065
-0.05761953401174526
0.05240187006700109
0.07066814281161418
0.05219272216012982
0.05217881537017205
0.05496820148601406
-0.04331821031404817
0.03146757850796414
0.06932729543281671
0.08307192425221416
0.06028210087851471
0.025929899588851224
-0.09741969937536252
0.024761760379457612
0.09448016798676168
0.09671529076708332
-0.002640062706670568
0.09372392184515946
-0.08578887128536414
-0.039453654584950336
-0.06722954474053269
0.040963156897893205
0.08489415874130876
-0.09540107770480968
0.029258459791827618
0.0014019203895464516
-0.08466239378993756
0.04518216807514325
0.014294518441820114
0.00241298003503293
-0.052859746610090054
0.08297841317984309
0.054091307496559576
0.015400736738570495
0.01748268685998998
-0.03753282981858479
0.04509399393617783
0.07396666942779337
-0.0689272539840717
0.0011136003525379357
0.08416578286915247
0.07159737771648272
0.012286567598043599
0.0016617665283546468
0.05378354106261102
0.07032557322469613
0.0338199819551116
0.0735549277437561
0.0379508058059187
0.07578404221492413
0.004385931851911301
-0.06930705171151995
0.07308019199083873
-0.099740308559227
0.046970684480134
-0.05773977203216549
-0.09388570029113223
0.01730704829101566
0.0462770465086125
0.025145109349271222
0.052333214352035945
0.045493647554205374
-0.013883317829541289
-0.032444537372718796
0.0633763185829897
0.05989110401935813
-0.06499265043143596
0.00610960307020858
0.06723911107060151
-0.033762683460492104
-0.08337746041185504
-0.06712491518560479
-0.05581652436068724
0.08975163001644429
0.011541248574768057
0.06204278893962528
0.004955708765776057
-0.08068366172744021
0.046057604800262136
-0.02847064336198049
-0.0191862011882242
0.04529281706268812
-0.011917873799096965
0.06788491554616286
0.09967878159604099
-0.07155000761137731
0.023653026382425196
0.05810108788522275
0.029751189821004498
-0.054129267397924265
0.0034458575357598775
0.010987584826220281
-0.05943950737010425
-0.09442458534590226
0.06667344269145861
-0.09025265449395328
0.09811093001974458
0.05141354498393358
0.06887921592295551
-0.047532628402021264
0.08786817590113263
0.08013878708043948
0.004502719028300184
0.09786127304542944
0.08278238878562194
0.001989668589770316
0.03016646784412577
-0.09941363552063479
-0.027332462256072845
0.06789725369791977
0.07539521462189325
0.02273161899686818
0.020511520955013976
0.09250189799031788
-0.060701895808007444
0.061319125920027334
0.09101561896379912
-0.015548543731767478
0.03828449248375965
0.022145524357801274
0.023012398360366518
0.0013417426583322012
-0.0692971901870738
-0.04803265271848172
0.019236693602791774
0.00475882552699243
0.03562664447861319
0.07994894290028326
0.014158463666074164
0.08952734971783796
0.0904476851480786
0.052307717000803056
0.06997948810398322
0.010186619359184287
0.050918202168476534
0.09768662151203594
0.05918521228393753
-0.06399077379503872
0.06412306210699084
-0.012415772812934808
0.06373018613299
0.00562301374994667
0.08469954476274993
0.06420981845380569
0.0035020204707432723
0.0534180660094731
0.07071680033560149
-0.016356569421049003
0.053379672195051436
0.03410522122538964
0.08797774677772169
-0.039882736946874636
0.09487751641385275
0.0935158893856187
0.08840725997423399
-0.09075562861228571
0.04506135243700443
0.052367514497132756
0.03387277668029781
0.08308789819923995
0.006182774013066467
0.030746989439870004
0.04284393453193078
-0.060253221741542975
-0.04583954298608989
0.0788159129290113
0.009267715326857356
2.57904729966868E-4
-0.03647849121667028
-0.09052619154750635
-0.012593640448347945
0.04032385983980319
0.029448787155009648
0.05910210731858265
0.0011347709061157035
0.08412894506651272
0.09195526105473542
0.0681370990753539
0.09713955004092895
-0.012307118231432046
0.01210511537701403
0.0666463395193434
-0.03184690293431512
0.014038543767417741
0.04580163829471359
-0.010724640736356802
0.00310917044213925
-0.06048521406434521
-0.02442606329198775
0.08454420984345101
0.026053477502404776
0.07065161908998865
-0.0015250815638823134
-0.007238681170031153
-0.004000185329667089
0.03587031291456466
-0.04066503001759148
0.004985333201863437
-0.0544947375422016
0.03386857745858923
-0.0669348444775413
-0.03668843627837734
0.06374142607174563
-0.011130726931923712
-0.003951765959190778
0.0844511071136439
0.04429987914415193
0.014642152891212817
0.012307899161941138
0.05786106463783999
0.03807669890371712
0.00888887578383879
-0.05339265715854129
0.06289743283907523
-0.022623876187010006
0.07028920971679964
0.06790861840189877
0.02487010791150479
0.011848777323437351
-0.0360787067760978
0.06361421965482264
0.017534292954438258
-0.0817958168094891
-0.02797150785021857
0.055749898935006315
-0.09325574957048388
-0.07312208245379898
0.05739703857449949
-0.067375064421343
0.05487138872339817
0.08010309623115733
0.085606957732309
0.022497774789192237
-0.04736344525240794
0.0703254454575988
-0.038899749265809476
0.07492787853288874
0.022264896999178233
-0.060161033793286904
0.054653810484233456
0.028762314952405665
0.06938865040609707
0.00601466510903291
-0.022654741973464565
-0.09312193165766892
0.006284621656385367
0.04098527044124284
0.07941830639463365
-0.015695096714829965
-0.06416041140892745
0.052695664970931255
0.05746284539411933
0.031945695058122614
0.0031609899549460557
-0.05793400842958576
0.09184529182533113
0.002266091933515721
-0.06965979268812304
-0.07305049934210064
0.05274635102770736
0.07388854066368955
0.04315217322713599
-0.01757903377127379
-0.00840978857350079
0.040562128231764166
0.05124387259152291
0.036413817824848316
0.09927722455607652
0.06757157414861137
0.03937184868778962
-0.06301828747085725
0.007128882169358253
0.00892847793977565
0.07957558387638203
0.09985169802990593
-0.0105758355510258
0.04343066462609227
0.03160181776273224
0.0502915284994678
0.015484745047168944
0.03006486273628023
0.03438275271737806
0.05010006892453542
-0.036719201318156106
0.021980953096321545
0.09670447871469601
-0.09239904092476496
0.09436413251961623
0.0426308919789031
0.09748726930923202
0.04153014799789703
0.01592957584580583
0.07164765432492542
0.056127636961411514
0.041069282782937366
0.04365300857645732
0.003176396858948924
0.057836113430216995
-0.053900864649736036
-0.0994662809601502
-0.006150710179954555
0.07852205450016164
0.0375730424477948
0.04445822416865766
0.016236171557057227
0.0344918479277139
0.01740800460869195
-0.056396899971555434
0.003959368147765985
-0.06386903387882772
0.08383133336690285
0.09950204538548324
0.038430907742914355
0.09512655836763684
2.0192945669311735E-4
-0.04347622451666195
0.08653476450395656
0.049178490812652464
-0.09735226328074367
0.03989393784063722
-0.04610640944960786
-0.030762476818162576
0.029482090674517958
0.0184106603102369
0.07064817783570129
0.09902353629951671
-0.0975797227628589
0.06987390934488363
0.0055914502939301974
0.015447467343674817
0.052148885946485396
0.027164046255149177
0.09376923663687042
0.051319789046302744
-0.06400442005973492
-0.014899321951983999
0.03804924321215483
0.02824362203524497
0.08914648487561566
-0.023518513113192363
-0.010475409221706575
-0.00768388316372004
0.0021125345537807982
0.0965033480491653
-0.005278394130042635
0.08922825785610614
0.04580121209547236
0.05815597927578331
-0.02083596782154802
0.029644937350742584
0.07759299777374487
-0.023383974056100418
-0.020002424364186505
0.08160086483336396
0.016825322515896662
0.02916680646017908
0.06076392618932372
-0.04583824108247431
0.04974311579363663
0.06571432197937113
-0.0657619539569636
0.034550416612153356
0.026360263896591907
0.03840132150868772
0.0037086139262553497
-0.047656768631838285
0.06545362865020052
0.08162644647788697
0.022629214509525153
-0.07664063724335887
0.0975708641831933
0.08873101184357429
0.03230090212564746
-0.09239244934815251
0.04391767566419444
-0.08751162138881842
-0.08590204051566322
0.0718354220842253
0.07062044035533982
0.02709014919890096
0.055098472526714376
0.0990955278965894
0.006460675337910754
-0.05476972587418913
0.09560016646990505
0.018893755429971418
0.015554430692315685
0.030053902922031167
-0.022963403776639107
0.019710406883715267
0.08883007301116108
-0.06377691459184456
0.023973031884442983
0.007265538570562585
0.03571180309110186
0.08058261877458703
-0.04451099723605522
0.09319127481898393
0.05387577244021893
-0.05082341423992335
0.06713800571143563
0.06100320674500004
-0.08299325145924077
-0.02110026119456397
0.02037621095301477
-0.09677757977864197
0.0790857496256514
-0.03695003413449474
-0.04874736890806581
-0.04911974307785721
0.08327270281380664
0.02707389875860619
0.01928282460788701
0.028241028793077272
0.0688912669376125
-0.06704423461935519
0.09362125573636379
0.07283059086908933
-0.07496442281677777
-0.05850289963757679
0.0775824418142092
0.024009724711974365
0.05231084134914274
-0.007776522567443309
0.06612491337422927
0.043796632332794266
0.05148591108237685
-0.04075075771577777
0.02847803944373306
-0.05052382469284073
0.09387432268606133
0.024815162887354247
0.07038176435356464
0.01495804185325103
0.0278424995338018
0.08172955668411822
-0.016064136925357894
0.07669120959271436
0.016771208727055245
-0.025531226535062373
0.03236408722280515
0.04070978511342907
0.032940201528696283
0.03380375808225755
-0.08413903602347907
0.009286522615708184
0.08814165912337263
-0.09904710784944028
0.03160525223833133
0.01170921469983062
0.0015122671932429471
0.057909133967636695
-0.08905633931996763
-0.04757997210280712
0.05415498792161755
0.06635061611218016
0.07704915435232337
-0.046494379252987425
-0.09024547975113573
-0.09208091092826323
0.010991826420705592
0.05921370485446717
0.04141433033496414
-0.06822929228159066
0.061028883367624354
0.03305545502026011
0.09721605105488396
0.009789009005394478
0.027281866045059583
0.08699486800784376
0.07809740415861632
-0.018710051547557754
0.059698679852610514
0.037974103433940115
0.04114697569768641
0.05220598231313017
0.04048531326658267
0.02573135177299224
0.028642169285248598
0.07243798665143691
0.09395919697538141
0.07815394037269896
0.010551390214911596
0.05008002881500126
0.04595732182012205
-0.016527534835077212
0.06896153973872976
0.0849005362482054
-0.03474825713061197
0.02129299364441982
0.07200137874987347
0.05961931431647277
0.021730046741561385
-0.07600240798130627
0.06532080905320806
-0.08554749377963965
-0.011949381036659476
0.05718219379372749
-0.0809136520154313
0.028238333630270396
-0.035083631841320725
0.0498469070981844
0.04827557934407725
0.06325046317468805
0.039285345984229836
-0.09156761460679048
0.03893952677821802
-0.023826333016762083
-0.05926454756965144
0.0705374701451836
0.06512385926081068
-0.0791640127020831
0.018948580981327595
0.01897600881685743
0.018270580038761114
0.08572548017988477
0.09092536065880863
0.0031093902847965788
0.029951510210048243
-0.07100089800038668
0.022328233827347513
-0.02348439394170833
-0.026480993276607245
0.04645844902928306
-0.0703082378169756
-0.062828476685761
0.09069495335535732
0.016087527975902738
0.005518910195871113
0.044335194779364345
0.052655357587732377
-0.044739727776957484
0.07768898943890726
-0.0797130735078129
0.03938833986199494
0.08276862056665035
0.029750377997914856
0.027517886903282135
0.08622597959418823
-0.030170150399750434
-0.08259695335606279
0.015391589441878906
0.0185867797674778
-0.02288071767703255
-0.07093763633254131
0.08462037160670541
0.042504426439446935
0.036783289356251386
-0.062236571782751895
0.01302231118459167
0.028533037145125006
0.044431157129897064
-0.08819958789648222
-0.09814538671148976
0.00413115388319496
0.052462548567081185
-0.08506925426772782
0.028421012584610966
0.035921517856375706
0.03851842431265756
0.037296927402664104
-0.007748903054483544
-0.03189429883434358
0.016473444588153294
0.0031672907067953754
0.03516166176044133
-0.08484973075761815
-0.03767250405287113
0.08008574846410862
0.09886588203318178
0.024165037779863757
0.03155842672872472
0.09637928676746615
0.06497262975290297
5.284231922684929E-4
0.03803820653502091
-0.09708933309232341
0.027387684920498978
0.058045811396041064
0.08068278415442681
0.09147342915866885
0.09282247958103573
-0.0586599410451081
0.07546891586232127
-0.036974670029424714
0.005271050688052087
0.07936558897990015
0.047897801004900264
0.06798198212522402
-0.02114507859507775
-0.04791836538776525
0.07340489789489815
0.09269926724205113
0.008352683419267079
-0.05320424298018828
0.004635466483661116
0.034634947796230664
0.0826256504662112
0.007437313503008594
0.023052160259734847
-0.017043731592684574
0.06273077202644597
0.0665657581477607
0.053303765979713286
0.039419633715709335
0.06376773998438834
-0.022667881711131738
-0.026490854734794872
-0.06422316152676576
-0.045439768313905025
0.08023936921920835
0.05454718214573798
0.09612039235840958
0.011622879087564347
0.09969492984722961
0.06286594004775198
0.03414119275159605
0.03992792332969258
-0.04220578360650625
0.03849696983540296
-0.06557842373665469
0.09060890980893804
-0.06939766925392728
0.006576397607510137
0.002418523527537894
0.054286135731422186
-0.05645837209859582
0.06885369350812182
0.05209242420975979
0.06517621813923052
0.00788028766785609
0.02020752178461803
0.06406356019250506
0.06665055083302135
0.0912286106823939
0.05397177641226708
0.09351463909612645
0.00770054041071884
0.02101686291595921
0.03448217521232205
-0.02666416449690577
0.023552917237462126
-0.07604609688640204
-0.07751990000472966
0.06532322807476854
0.010604079451273382
0.08635588892127147
0.07342187709763279
0.08696943411859917
0.050733912267117154
0.035902578854881656
0.0691345505420112
0.007090391165988072
0.018761168403984937
-0.03157088651716382
0.07405250591832449
0.09191798132334081
0.06527682930194947
0.05088033800589381
0.04767993024630959
0.03459508075499801
0.09170509825517648
-0.001979781517907467
0.05503915780440993
0.02035068754237014
0.0641735733340087
0.06055251831611083
0.05969490199222974
-0.07490313911647063
-0.022189813700487435
0.0669606520913314
-0.09031701852344429
0.031807915499428296
0.051710185614151305
0.04584256467767861
-0.03184560876476751
0.09959801755524961
-0.044129866653303255
0.07812591713511938
0.024471587406223683
0.09481469707108345
-0.06748488400546382
0.007336092603311889
0.015949467391141628
0.07379189311140405
0.03249108675117543
-0.03997077431924424
0.09907242965799531
0.08651650101457431
-0.014367492609613328
0.09207550633795158
0.013500151196700588
-0.003989467743382866
0.08635593875183784
-0.012103584467812178
-0.05139190017419146
0.029809938223382737
0.056363260576058644
0.03513218871987345
0.01770129214856389
-0.02151901616956234
0.04605806622733746
-0.07985731075015032
0.051299615697460055
-0.025213210691174437
0.0456878414792124
0.017156502911374882
0.04358348479612481
-0.06499717044605499
0.06794327436695302
-0.0037562711356114026
0.062452144847905317
-0.05768730632837292
-0.00864809229522448
0.008461797707967109
0.02709446350786643
0.07731578119516033
0.03279634941775392
0.02005180737817014
0.056849883071757396
0.0012852827823592317
-0.06224602857745483
0.05294345821157784
-0.07456160252128426
0.07208751683484019
0.03831553643532851
0.08873520774523869
0.028316714138248156
0.005890162790526884
0.01216010530750887
-0.05835801597999931
0.017186652361425886
0.048796769248042576
0.04140892459135126
0.06390115555218026
0.06867492775998987
0.055823156889766384
-0.06863457726430035
-0.07868496634631428
-0.029297379089152017
0.014829452391494344
0.02559770798475991
0.04933172850973952
-0.028213993822399835
0.05959558062845666
0.09340962252054291
0.026546754830321595
-0.061334428313378375
0.09211365714098094
0.08281529131625123
-0.02602127325403511
-0.0768283677900115
0.009812905944185712
0.09030640175645921
0.030716572048191615
0.07162352723709722
-0.05991435252521317
0.0854439531154399
0.05746212469298004
-0.05204372167269036
-0.0851625039801404
0.08379273129132697
0.0050780972243890665
-0.0744133063031868
0.054100354256551714
0.033997662997216155
-0.08309379788375093
-0.0711195442477898
0.029164951515901205
0.07010557267497652
0.06950412095474104
-0.09063986532123072
0.09512742908793398
-0.09518751058875431
-0.024577100151771045
-0.01687209151973927
0.04859998581789862
0.06924958748478713
0.020477892677509935
0.07525743036280316
0.08940319156411167
0.024676467446219236
0.004538307192532551
0.08233193656079363
0.013090541644136075
-0.031802259355322104
0.06140744811137877
-0.007453108296827701
0.07185550355906259
0.05665730909333713
0.05328207119859746
0.09582040968590175
0.009582859192448612
-0.05404344602774802
0.08835308825767066
-0.061470549902163066
0.030966770932410626
-0.05218671399656725
-0.09004328694055334
-0.03291794078980477
0.043060006531237566
0.09862225637952851
0.07582374061541783
0.08367878107236917
-0.061276396491589606
0.06543266011665438
0.0585629148892762
0.025540560349440078
-0.09387290727361057
-0.016217475662987174
0.052091524596476646
-0.06351777503775036
-0.08821690293548937
0.07925461604570888
-0.012104452527258502
-0.002267002418931241
-0.015027427973796428
0.0723501768648071
0.08692828977974279
0.06882081032754517
0.056893152068589525
-0.01769215052826334
0.008757199942742058
0.02707405246307984
-0.008300674795831853
-0.018125877716732186
-0.014979353882611554
0.029036598935753832
0.047812430358884855
0.0012712751436358555
-0.05334513848625157
0.04330911276660612
0.007096362424802161
0.03171656853990759
0.008718307050430099
-0.004892249724180481
0.06859878990469528
0.02045434206488203
0.04177323170293254
0.09330161790012034
0.03431109815434566
0.026765032086940976
-0.09444703456590056
-0.040642967999946024
0.09753989095287222
-0.03515402966778039
0.07146235091340133
0.011899355638540332
0.023419244263143305
0.02978749627625918
0.04084854328858445
0.028117890060917028
0.08570362034416734
0.09467120500488124
0.08336123750584826
0.02871453402623589
0.005573087056702286
-0.0708033745044194
0.012764121922112862
-0.012113716094465099
0.07208980028956455
-0.08719554851989357
0.0653673828341203
0.020298932439497097
-0.044149780670247524
0.010506790183658785
0.0508837731508969
0.003216395496440108
0.05525927266515285
-0.059235556415563204
0.0693834533703602
0.047915431928982455
0.01758851120930567
0.06029717742999288
0.03654639921555086
-0.08398936051203157
-0.003270222522670979
0.020506846689126654
0.054533563216923875
0.028606711159899822
0.0635988489720804
-0.04909004825258669
-0.029240902719539608
-0.04613626593105954
-0.026656437803668775
0.0857009622710799
0.06157595003895769
0.022978542824207943
0.02201451118570813
0.08072804261058653
0.021081258449244855
-0.038674693394612554
0.06964124993412721
0.0440380012563481
0.03000964230830641
-0.05064191118866771
0.05204777930756446
0.06097756236561547
0.05320232389293025
0.08798294392468667
-0.014219105487047759
0.09834674407807203
0.0010741614244758196
0.025720016638478255
0.06730035112926555
0.08454436331914408
-0.09261185616056139
0.08597314598784528
-0.07011674311096594
-0.04784717167913765
0.05353338013257722
0.014469356350825788
0.08809787285427595
0.06465487620384919
0.026238282307461613
0.09640272363723165
-0.011674893949312981
-0.08321172433160876
-0.07513519930704428
0.07282560452395487
0.06749854904245395
-0.0052268437197452305
0.011230355898498273
0.0474458385629796
0.03819908995150473
0.030889129483901767
1.792844775883179E-4
0.030254867675318847
0.058466057673422445
-0.010094604509331681
-0.09192490003118996
0.013858612779538385
0.026283864560802284
0.08263344260377634
0.06363891179273157
0.07015123251416791
0.03884323323383787
0.06031814453758208
-0.023919366387653365
-0.02000041834465008
0.011526855183583581
0.06437913069770151
0.08152518740427497
0.04909479479280793
0.04586513982175358
0.05062055049972944
0.09508820382196573
0.07797418605792297
0.04215956015410069
0.03394251149508784
0.050172224594227016
0.08009205084399437
0.04837326556332133
0.09906147622546924
0.07847888097721761
0.046429256184711276
0.010581828500403387
-0.07456348521128403
0.005900051734648776
0.08714836195401279
0.06707510099039654
0.04523449430561027
-0.07800842130629684
0.02809695541868082
-0.06778537662634299
0.08255333956871255
0.06349964531082938
0.08865130649667408
0.06484170692047622
0.015358638242744513
-0.0822323875320041
0.0021315443214971197
-0.08720733253208672
-0.07150028963183788
-0.035730274413876606
0.06787319613809165
0.03022260899811527
0.07359368447850606
0.002968709424672214
-0.005723155448620759
0.0214970266050572
0.08794984715207185
0.08885520020888471
-3.2254817753916976E-4
-0.07394831188218226
-0.09819584379186533
0.09180012959952796
-0.08492241074931406
0.018702782562950243
0.06848431799558899
-0.07512420754542315
0.06911218910965097
-0.04204173571460032
0.03323539033481321
-0.08008449571302415
0.04628555526267045
0.09507939498843823
0.05393750713854692
-0.08809460766939305
0.021912825928413093
0.08569761101552487
0.0219040544417409
0.06048804449201148
0.001089877600447417
-0.02122032603361844
0.037379554597329695
-0.06394431858911093
0.042824306437381277
0.053896167421378705
0.04848364838638489
0.01605734715382584
0.03452569881449272
0.028133032885727244
0.049168940534190575
-0.08805491636300523
0.08264568178211651
-0.038977272202372196
-0.080808193902486
0.04387900442321849
0.09521629827967262
0.07388188373795915
-0.05885843534851257
-0.02822919302603341
0.08051675941641648
0.07861976843665294
-0.01035480109558809
0.020816668294924887
0.047990065127198056
0.017064854093852583
0.023255434516707627
-0.07061030582710134
-0.034938434382848146
0.05432617285028665
0.01735132022358539
0.013313090373531691
0.030114987573454433
0.06102729364259307
-0.004785684858764058
-0.02498212767491005
0.018046465233681322
0.027440123082132117
-0.05839618991874608
-0.009254262614205713
-0.02517007275520705
-0.06466438448184417
0.09959119954708381
0.04931794481477644
0.08596530967544247
0.026327356793881734
0.0065661540265784385
-0.09189651353084219
0.0681198832867686
0.03282290995901915
0.08431367550691946
0.06899836972096898
0.062120722461476346
0.08252692882951185
0.06377666574172597
0.014678529276785465
-0.02019306561791684
0.09599870416364878
0.022418285686612333
-0.028321603519655333
0.011557758707299456
-0.00725797628107587
0.0963218211919254
0.0856565163506976
-0.0031520558032319262
-0.09779618886363896
0.07899941050506223
-0.01728479704417417
0.089335494112253
-0.0874350992252746
-0.04908623405648757
-0.009700765486693241
-0.03523357835327845
0.08260755130458894
0.012035969417889689
0.05643825627306079
0.08419323983579899
0.08242171964072945
0.01602949269600322
-0.09321649779530507
-0.016685325502818038
0.0684825629146735
0.052871704540082026
0.0653231491712146
0.06302653805940095
0.09339314427081233
0.09605734258002266
0.0874365929670248
0.09086313792204473
0.06913451129041318
0.07752049115446596
0.055230212715529164
0.006283588037603552
-0.09871188339360025
0.08419092826515936
0.017556123404487825
-0.015561448126499483
0.07579597633966159
-0.04855154954706859
0.09383580976827324
0.07696039594404577
0.06394894482286559
0.06869475372170475
0.016830160449280374
-0.023403807974598262
-0.04422984132130865
1.8717084155497887E-4
0.08144382470415137
-0.0025515501020417775
0.08289430961082891
-0.04184519703998548
0.01658681242260586
0.05822314397045064
0.08684138124937685
-0.007997589959852267
0.09291745914200047
-0.032496552538158974
0.01367748327914331
0.08601810843124241
0.057495655020546876
0.04233349406139847
0.046248201157565616
0.085000648165337
-0.002070265174620181
0.07585396034087918
0.04112374469728586
0.009116097962421993
0.014332439132491243
0.00832217851854336
0.01823895239355021
0.06422193383220015
0.005103800288746865
0.06904738191216567
0.08309994903922874
0.0013264071187406024
-0.05852150786766314
0.043207657437826175
0.039908242241614766
0.04218506381958123
0.07041145827188344
0.03863484825005267
-0.010858291702280226
-0.06958999778633243
-0.0473656103358057
-0.09930421484650077
-0.05063217191559827
0.035528623338104276
-0.09303184456127046
0.05945162528520451
-0.01844895235856739
0.049473018704934146
-0.08048446107093853
-0.06628192111924383
0.09740592279032595
0.013058509848423647
-0.06430036338018356
-0.06720884326766725
0.01712449167913295
-0.08208433782848767
-0.016459048783443037
6.824582041074362E-4
-0.07393148933743784
0.08889685621308996
0.04592697169095872
0.08403326959221599
0.012566827602823169
0.0925014606677094
0.0042341138256563465
8.907048354667435E-4
0.09928659178861435
0.09529599717517162
-0.04427422330857645
-0.08375179694980199
-0.04376397948319431
-0.02101365120879599
0.05155364947048513
0.0864535336222487
0.08382800559299483
0.006663013697272194
-0.002035494968341267
0.028020731930490123
0.08597785421793247
0.05374301024977696
-0.06507862653767359
0.004633417711220639
0.09122974566540687
0.0915370540501691
0.07097335957714351
0.09901281835197084
0.0739542507421802
0.060551096247323605
0.007580905280710537
-0.0500615492482991
0.04055802032216424
0.005835323206564491
-0.04014520021410927
-0.040935336388358
0.034392580261728894
-0.007147927120096945
0.013846085139287312
0.03413598277071503
0.037097244266787066
0.023779408546651767
0.048513332598130926
0.026102164560989904
-0.026451292591488762
0.033427035274068984
0.027317813354633735
0.08987594437451407
0.024060564761966247
0.05900143633330615
0.036141490423181544
-0.08622655970253604
0.05420955262860197
-0.06453874139582508
0.058037423721490566
-0.04653339442238773
-0.006148135570748087
0.02131201274730772
-0.027451262522178596
0.047952104516261695
0.09537766484024993
0.03081458918998839
0.08981158925687735
0.07948233517955713
0.006928492201943123
0.03873866971857423
0.03434739747638968
-0.06870316607137081
0.07980815223241472
0.04054958603059566
0.010886554901826148
0.019414667147746673
0.09969420109289334
0.0028182508419393043
0.07090710631265765
-0.01515633762802289
0.05590072979088456
0.04828416639150174
0.08194583581722228
-4.553031057418361E-4
0.05875828715305831
0.004917764764779509
-0.058526210741399735
0.026379035118358263
-0.06532027596141426
0.006589863405599264
0.08743852133590074
-0.04047630960256662
0.08975614557945338
0.05860724534965983
0.08208525632346145
0.0906491589702296
0.05894128436752871
0.088205517773874
0.053760573551487834
0.057388182226863566
0.039626791132359285
0.07215044940349791
0.06451989112601816
0.044303111015541324
0.01592003018552153
0.06098076135207803
-0.0703615452986479
0.05762814005091135
0.05002378765307128
0.039478472716551305
-0.04686338189114455
0.07262343467440954
0.00218197753575565
0.026404620422467606
0.007965004496825842
-0.07853501454556748
0.09637914500113925
0.06494369010666787
-0.049825875883095026
0.012024141916859396
0.015595231433134724
0.014938160559665709
-0.05019397790803179
0.06939539847456869
0.07559969800982486
0.006592639229358016
0.09002967967811168
-0.0337205595701902
-0.020491704591476007
0.0597362674979138
3.714938101268689E-4
0.03450730224625592
-0.03443320911938362
0.01128987786558941
0.07298633284548828
0.08218684905230522
0.011308147779484481
-0.03209789072714697
-0.051892232278848115
0.090627782736519
-0.037161918951894454
0.03855623272164849
0.01194387622765887
0.08752661703411874
0.06913350885192049
0.07982036898222375
0.091495381091165
0.04531032581864017
0.039691520195202584
0.0049979308050874666
0.03823634420711383
0.03995312311183882
0.058577392207554646
0.0071102388351562545
-0.04293730449168641
0.014322792020110248
-0.08938073493779038
-0.07210103807812679
-0.0804248535630954
0.009540370104722098
0.02924905989009871
0.02776988092609295
0.031093661203399015
0.051818679410240265
0.008984785559221511
0.008202521994180215
-0.07680066728853588
0.028464481291504473
0.020470707493751697
0.030605105292435875
0.01322600525144374
0.09100794244415472
0.04097322633487649
0.0016269103062761942
0.006672694757487899
-0.018688350995365463
-0.042961963271316475
0.0104954070001929
0.009927124360624803
0.03310983255400249
0.05910752009490963
-0.08200759278115215
-0.04499156863789254
-0.07391028207874702
-0.0842612232131617
-0.061816836481892026
0.018071910823302964
0.09729779946518236
0.00804508692263528
0.060347337461450656
0.07088014710741888
0.07255809476225669
0.06154147026601792
0.09123202479618786
0.060205485025288386
0.03590425063552516
0.01705880491611346
0.004774275563030131
0.07489607780710927
0.0757839220886958
-0.06461656280558375
-0.03872965905539569
0.09344897755358711
0.09463276717567515
0.02987124996661153
-0.006090153332271517
-0.07044584366987311
0.07359109104601286
0.03418845358752695
-0.0020667820330584202
0.008631129080366784
0.018905087232196555
0.03391688372417814
0.06374196329596024
0.02637944226171518
0.07365702068946156
0.09102308544368767
0.06938647476684329
0.08449833134894033
0.05720311161593
0.0793526482624766
0.054378683199891864
-0.04397827022435445
0.08070700386855248
0.02626607219000021
0.00258997968750746
-0.06305659820357581
0.04010125836345341
0.09703455673763364
-0.0361740454771521
0.054458216370544155
-0.022461213801097085
-0.009894410473409235
0.07122144319910037
0.07445549300085008
-0.06607810032263653
-0.08371435540865593
0.08449709768788272
-0.07222701990885425
-0.06190661171771592
0.008372884783040713
-0.04210873563045644
0.06808876004314979
-0.016552886926026036
-0.0020120354372145377
0.09606871463881747
0.013542994432290206
0.010136307533396408
0.005687111589833538
0.010437337006106509
-0.07465146423810944
0.029145284686764722
0.05357047840638021
0.04404309446155316
0.04351507759581885
-0.07195325532485378
0.04811979856039028
0.056059230185097675
-0.04207791294733492
0.06976837115432516
-0.06262868526429985
0.038487083592219445
0.034259212611152945
0.06520057385452749
-4.291075017366641E-5
0.0860115697194391
0.09484737305327434
0.07906744430779061
-0.005698514424222673
0.05638127609783672
0.08132612775692466
0.030679495461980844
0.07397541111300304
0.06672655627605648
0.07226935394022299
-0.09714964611151354
-0.029370737689716514
-0.013357170188488685
-0.0743553762852021
-0.08502940577004743
0.058096399024781475
0.048243133746064565
0.03974168733308708
0.023553663256385915
-0.04338837134866562
0.07195532769533719
0.025599133305348742
0.0063657277057733025
0.08207001207183937
-0.019413008035634935
0.004754464647765272
0.005052596542108406
0.0791563591739674
-0.03676099432846375
-0.03888071682947894
-0.019185190387103923
-0.027939674324031147
0.09362736904240235
0.08369246472732744
0.057257701802949756
0.022893224347903515
0.03762600452383369
0.07701759761296575
0.004909161742297746
-0.044223398799892386
0.050787698759488215
0.01301771576207611
0.02676446341450589
0.082803823271275
0.06232725067415451
0.09011974574575968
-0.07794231597894041
-0.06398366765509758
-0.017953712498349192
0.04613963722823633
-0.09546497954542738
0.001367074832355153
0.05245764543943732
0.01949207008564162
0.002220468467760639
0.017495160916907018
-0.09839853604886531
0.029993866609704767
0.08135270576342057
0.008268499663611206
0.009513664933787025
0.0471367154697889
0.07317609763315394
0.0831115932841866
0.09085503929166949
0.05745632595774863
0.08059875313174714
-0.07876553279831616
-0.01923215191293498
0.02714831026800807
5.540911881946331E-4
0.06580587368341731
0.028081113382162265
-0.0730253331521232
-0.0683171057013148
0.08326019852749253
-0.021592792763803048
0.0695523897039414
-0.07340459840742328
0.08996392120824098
0.05979380470543261
0.05561363232841035
-0.018338098450683446
0.08483810607189016
-0.02199292930791384
0.09237228478753923
-9.910243001744617E-4
0.05274722493187051
0.04041130296962117
0.022353206887617855
0.018259084609416915
-0.008927350578617807
-0.00680409777469855
0.06886878876814173
0.07859651687528668
0.04064075656151664
-0.013643213501910612
-0.007019549136934644
0.06099831684963902
-0.09940102463026124
-0.0757954600374045
0.06576320307358052
0.06464548589291563
0.043837960420992944
-0.08960937683280111
0.03291268883740647
0.03285486364912174
0.040763371773941126
-0.018947757458444847
0.044476639938971246
0.03684677399943542
-0.06950930564590667
0.013847336775527866
-0.0366314568170646
0.03566553732419456
-0.06711903518324053
-0.09230388203598736
0.015072565612567174
-0.04928671192116983
0.056709645434073974
0.08007047851618149
0.06520006702153949
-0.04750695325495591
0.03223127409983492
0.0518956014707844
0.01685089370341665
0.01811366227356824
0.04938331420594222
-0.06913651019493752
0.061462566616209774
0.00554653381598913
0.02265330439706796
-0.01407344033130313
0.0583597654885219
0.0923571494179363
0.08813993957443222
0.06791951678435804
0.09732970553213344
-0.040598814001628354
0.007988498393569646
-0.031003143992706983
0.06042704567025575
0.0688555610638854
0.04305080057440289
0.07904063728877689
-0.005589415261520944
-0.014416358561547313
-0.08357614064249906
-0.06968927349316756
-0.058752782064301644
0.05245982793868953
0.04345266572330603
-0.03494486545607971
0.03991962377038927
0.034099818200434256
0.07964455561583522
-0.07013052969755161
0.06965382445042959
-0.03449229376759051
0.0786565654581311
0.06721628681918262
0.08511598428218337
0.0890057767164805
0.042276909265996004
0.024943511062248874
0.027251361436074456
0.018875537904141107
0.010969838247456357
0.021660119514662082
-0.04163879018993606
0.045190374749373735
0.02061286071787384
-0.039474814639272604
-0.021607984462693325
-0.030035436572922375
3.484730029533756E-4
-0.013206036329155887
0.017325560135185797
0.07719100985239802
0.07704702076306902
-0.049222183564974764
9.161072264752546E-4
0.010117650261101202
0.08408281904148052
0.09954635419652116
0.04252809722162196
0.062031817395967165
-0.058241581040333064
0.013925044391665031
2.262043403316455E-4
0.06708397706558814
0.03969219425063475
0.06185465642131849
-0.09396455371929803
0.07815926042732388
0.012094339687041503
0.024121469201242057
0.04519912262726661
0.07188307496309276
0.009678269981898538
-0.05892678851408929
0.0829487910936334
0.014298455686162614
0.07625464905116153
0.018865448437603627
0.053270415110046404
-0.07397943585112327
0.0819169361457811
0.005034488302997159
-0.04623008076033571
0.08069018505850381
0.016151188210231093
-0.07983143257609034
0.0038160329233527662
-0.07642770876807775
-0.07753956134701806
0.06075498553070538
0.08672108773920145
-0.09348056452111661
-0.0029127040842172047
0.08393464488694385
-0.08464319234502385
0.0988959681042281
0.058679789370547325
0.05081685776286257
-0.06299185848199428
-0.020628035250183682
0.09378136439571153
0.06877072180846405
0.09805158945865017
0.06520990727357043
0.01676625039565187
-0.05423512535971738
-0.002414222701971197
-0.0917816448042793
-0.001122118734025332
0.07438607443945067
-0.03668163254351911
0.06155395864797325
0.04225995111836242
-0.0838303230525678
0.037479946841530803
0.008287686589413715
-0.012363932456908588
-0.004299827964184669
-0.06056250883393149
-0.0946913094846704
0.06328745451646606
-0.035411623678602275
0.07578964074643652
-0.0684228936865793
-0.09954960390679725
-0.05575554368293634
0.05961088835014386
-0.05738964599937885
0.06768605609777928
0.06682006467615348
-0.051821227879944955
0.097013518836186
0.08641124169540787
-0.018309720401632867
0.07278202177138574
-0.03901815029083501
-0.09715860266874068
-0.0647846785717694
-0.03154151038059812
0.06080176501524073
0.04272963590382289
0.038924621935585796
-0.03586351102765084
0.07111585587635555
0.02479493543938066
0.05248010364146907
0.01949200554255691
0.0642522207202153
0.03934678201001013
0.06441049691750184
-0.0726290000677842
-0.02250287005089896
0.026056302861439257
0.09797821994878755
0.009330256002690746
-0.010304273251222351
0.07134754109896174
-0.05339968550448109
-0.01593196586735486
0.08370024303271142
0.034764561156283125
0.013173457089114785
0.09158876689132248
0.06848295125232248
0.09413557607301681
0.050139832783881955
0.018909574883780686
0.051092592844644014
0.044936560334281256
0.08377673717416267
0.049892142765823544
-0.07771296167782188
0.009846379149980766
0.009474848263591074
0.030232348238574652
0.0750108563797535
0.07376871800168847
0.012631380682579088
-0.048203455493291296
0.050305330638024254
-0.09340451876856626
0.035159450081525184
0.0554256125624312
-0.06764519066739397
-0.03752829364013144
-0.028636659493829097
0.029369067404154403
-0.07675619927899338
0.06155650705010268
0.07850990021848295
0.07485811574717627
0.06532838073439096
0.09940470518427996
-0.01265957873693685
-0.014106026508325403
0.017597611190808243
0.07617554169063659
0.0773088931502881
0.05818104768249349
0.0720868967425353
-0.0523576639391145
0.038209518318556956
0.039815268859341446
0.022392241609329733
0.013994305276580118
-0.044550737088608544
0.0047427545748946615
-0.08596763167319464
0.018940523336516954
0.026840111252853044
-0.04157229594652294
0.004744785962237624
0.09735909049032981
0.030336471343183458
0.08910766070068077
-0.08912054780824223
-0.07827651399936927
-0.03601895700477965
0.001937907473517561
-0.03165759524854568
0.09764020463210898
-0.03773122813182819
0.02814853979837323
0.049070017448590686
0.028543820439804246
-0.09334544608569638
0.0024763559538969887
0.05395977711344402
0.07629006825673629
-0.05709490828195405
0.009396042299890411
0.008217781702373694
0.011713203286930082
0.004673103395142972
-0.052998006075387245
0.09765181849794058
-0.0679674822032516
0.085903937980742
-0.08492119268193071
-0.08991335058554481
0.060424000755743834
0.038028194649440045
0.08447540726902236
0.09059170015896639
0.03372810588714775
-0.03581792288861975
0.05713855708923865
0.04299307893153129
0.013116058661661475
0.07591346656493159
0.08443979783713548
0.06084574719974889
-0.03649083403582666
0.014882064021050037
0.02952813793716627
0.05269824216649707
0.051117835031724596
0.06942017672189069
0.06185389032278346
0.07429979604326598
0.01801881820437254
-0.07996809401176466
0.020166441174407537
0.09950639165367442
0.07686345007141188
-0.08925590902352135
-0.07637183518240964
0.08125726828270208
0.03882314454491498
0.033244649767972034
0.07639531219919621
0.05407649655863672
0.08934689685473138
0.06033492021642478
-0.014708122512999355
0.08520760474239919
0.07267040427391111
-0.04714380582582502
0.09060419493332791
-0.024070765404160782
0.009026432797092629
0.02606316211763085
0.0971309806819404
0.08006409483100538
0.014460750956411639
0.07292822401072846
-0.059389487530805064
0.08816345820713711
0.043244885386885645
0.0028385273766561026
0.06650758142975904
-0.07178923198217908
-0.01795729407477574
0.021897162843254936
0.07663600493030343
0.0889057678011668
0.03782828613953154
0.06586679051502109
0.07200516747816385
-0.04133432821225243
-0.04060995428599892
0.06541751028412174
-0.007168983788078703
-0.05093960001945091
0.053059464809806944
-0.03142977105354604
-0.028260506452887107
0.07859155380511254
0.06360951934478104
-0.09501366446788087
0.07244209352979564
0.038399572683702005
-0.00286612697112687
-0.018769123835929505
-0.06031638127018887
-0.0981040622444191
-0.021810187102295556
0.09412893246042367
-0.08170382856999692
-0.0076966203844818365
0.04316805216462796
-0.016693346221996447
0.03545494280333655
0.02539056004649945
0.05801801556970357
0.042745907143402206
0.021091798442792048
0.07286448727982889
0.06236233039814898
-0.015663674944759204
0.0627441050510037
0.05916410786132603
0.050091436346201085
0.0373554651157931
0.021602825523561367
-0.007672188060573917
-0.0476956511350633
0.07235776349393575
0.07915960122430415
0.08125929397046633
0.08076895164427297
0.05958181061780285
-0.07344932180995423
0.018933650164998594
0.06333414581442456
-0.09096189361671525
-0.05716010365693854
0.06194323730525439
0.0693267793622801
-0.07667924363068811
0.02375880898979396
0.0014213818158022168
0.02146394510368821
0.054669125470701824
-0.09371040886220314
0.07045089524876658
-0.0022788102148692813
0.008737471471678818
0.02656271363748569
-0.040237530887933644
0.006821172198085493
0.066684211990936
-0.008543130636820787
-0.09135769099428061
0.04429429587976064
-0.08463891065353757
0.002565833138328019
0.06538163469437391
-0.044129715006803655
0.0036377933171376914
-0.08442624620398131
0.05814310326893529
-0.024870746240890806
-0.06115712678330728
-0.05838868360789021
0.08885080919746605
0.0855011630767106
-0.011163880744771398
0.09675945187228252
-0.06718099583045375
0.09227754816225506
0.016814767535230007
0.0820630318978412
0.07628281645561985
-0.0535866120578089
-0.0104885130637873
0.0476673058851568
0.09794317390017623
0.08686438684052
-0.019497401078303653
0.03161840302725605
0.017698031025268235
0.06572715563573722
0.01376193050484234
-0.08280362883008771
0.001564892182660954
0.07613207995571716
-0.024592916446969593
-0.008899657388396667
0.058947191721643866
-0.06548795433172569
0.003517583643193725
0.08377446784732864
0.040749923274821576
0.02917261598284565
-0.024599369770142293
0.09933462608560972
0.017351251273122204
0.0025938106185536686
0.0980906049774429
0.03913319216470593
0.07216403853561698
0.08756421520013002
0.05780342186119092
0.08805097590964442
0.0019382249218859865
0.08523959219519292
0.08648389502992829
0.02977205790323642
0.0727241535925367
-0.04330967897459725
0.04383340733122351
0.001107441529050776
-0.04493905664478671
0.019299459063506955
0.08000327561081041
0.03697883332854701
-0.025366337502052638
-0.02871427518963532
0.02369957093192361
0.003886967446928652
0.0537729184095449
0.0446403718172487
8.926324011307718E-4
0.001806162084592014
0.02814953205589879
0.005242372756625924
0.05437690631635966
0.02563087980996842
0.04982454789348964
-0.05882355151717855
0.059789039132593536
0.05673444870004024
0.011053229419244692
0.03884323366425532
-0.06205822994027874
0.071734703945533
0.05878721235481349
0.07467790223642304
0.07987655501377278
0.06306094227247211
0.015661247496683656
-0.08243408899121635
0.009753928155352712
0.06494726958456926
-0.04391565983612738
0.015647255048432798
0.040023243562140126
0.09426542752143469
0.0904146361653855
0.019559535992802662
0.052657870716194155
0.07018260605814852
0.08878543130895677
0.08442028087750791
-0.003026466791426985
-0.06097965956738046
-0.09427720073329002
-0.091550038181878
0.037348899980866324
-0.05531548745920639
0.09013099209363057
0.07513200298840567
0.0030005237347256603
0.07739051780347589
0.03330714836299489
0.011643486371889805
0.022001756050641363
-0.0018135937414818087
0.09978844853736135
-0.05440728648366379
0.018281020879379148
0.01681954386802026
0.019317452539247923
-0.09040773120422921
-0.022805610138810092
-0.055170723463354075
0.09362298181662643
0.053308786119086404
0.09158572175088833
0.0643697281864902
0.0014651819856277004
0.013748888681578073
-0.014028507005940244
0.09878308159325752
0.043070522837267866
0.06119290786435183
-0.08906601459294697
0.0857289604793117
0.09713001823867176
-0.03711191434361412
-0.07715237137608066
6.3911493838191E-4
-0.041461279870951745
-0.06249508278824237
0.008347160744902049
-0.08756779851937314
-0.08610927112043969
-0.03378364520047668
-0.05242725611459422
0.0490349259609599
-0.030819972075875918
0.01697767245499676
-0.0686290515414039
-0.04891341244599178
0.006810261633363013
0.07544220025143464
0.038661119109209025
0.02907718335410639
0.085852057304703
-0.041241800467986915
0.060675628433599554
0.09382359730977549
-0.06340359349294505
0.08536972311280619
0.03219926869896822
-0.07214772837438783
0.07740040918677218
0.09216362266724132
0.022070478470126595
-0.02646968730389629
0.02505205539575195
0.07546272314723743
-0.05540771666900022
0.06304013508492357
0.021326194847385294
0.03961215361651821
0.02615801628653691
-0.09603115974503657
-0.09480160487491604
0.033443160567952185
0.06428357339514218
0.07996738820262567
0.0743246790201566
0.09574205744070174
0.0049246799504892025
-0.05853995415852238
-0.05132579835244293
-0.03984378137115891
-0.09043650190364999
-0.0019281470501685966
0.06552524509235019
-0.05474928946590039
4.433452671326471E-4
0.036628764623872684
0.0978758451315507
-0.06971420668711323
0.04563359408828763
-0.010508684818966912
0.09401678663901564
-0.050292197599815805
0.0169848014674632
0.04493142971876932
0.09136973516053859
0.025675640608387784
0.019538525534089468
0.015508972351272021
0.02884015378767127
-0.09760991670464915
0.016643301400464897
-0.08124626544527941
0.09999817656925852
-0.09985072712884296
-0.012173485754330346
-0.09527158221045495
0.044159496846414875
0.017527257963324522
-0.012597777067728966
0.02888109017628565
0.031236523031865
0.024523914320258147
0.005198717746904821
-0.07860872680768745
0.04847165638404463
-0.05297306303849163
0.06149239956129912
0.07884167301250403
0.045531385281547876
0.060846788753803865
-0.04652278658940311
0.07877379150046893
-0.09889162373604561
0.03409283470876914
0.01249275915792876
-0.08715731275158713
-0.018567419089117507
-0.07565277126227272
0.05699009376095038
0.07406998713433882
0.09072767231378492
0.052153924766166454
0.010040863564015234
0.02260334930156517
0.03891837618748192
-0.06897861678476136
-4.3342998813875044E-4
0.03647803855400189
0.07674055555625764
0.04004362576599205
-0.018075511644855033
0.06258920302552429
0.01862291041760561
0.01574702305977345
0.08797896851958711
0.04426332341179656
0.07376154438081117
0.09914080759353502
0.01794040903919293
-0.0012356235620783196
0.05742755886781373
0.0831229621025823
0.05340590112746249
0.014699620352574536
-0.00474413702926775
-0.03888785919776502
-0.025178889599291626
0.015986754016815694
-0.039767926306919
0.07653406050645303
0.03058794470311038
0.01708680370273187
0.028000613969691224
0.04802463829031467
0.09121451151348628
0.07971281810223982
0.04908995911413869
0.011291157775586397
0.04466506339075654
-0.009730898062750973
-0.028436510905775605
-0.08311744297601081
-0.09740329884794449
-0.06320114409974323
0.07745929747070099
0.05610096096381623
0.06896099477717202
0.028680851195391183
-0.07181868168806477
0.0066206801569023005
0.04135120588747576
-0.053694902945585
0.018257360357773866
-0.028450677905736604
0.025639418739460185
0.010291195649663964
0.04727424380299544
0.09813313506153967
0.00488754296551322
0.022163246115553634
-0.040810353945058504
-0.06878298465885004
0.05454994211542452
0.0019333316600548128
-0.029652205561610315
0.04106207852746799
0.045718738812286025
0.05952206547251904
0.0974786815813454
0.011572557109984116
-0.069868703564699
0.03161789131787396
0.04314006425527797
0.09545553482985947
0.09517438272412698
-0.017314122193972187
0.09315533338787485
-0.03713332773345132
-0.044470964088017685
0.08961195419702706
0.0757691802504728
-0.024488404641760303
0.09829708302684387
-0.08641462336414428
0.009222935422772569
0.0458512353586259
0.017203854503092322
0.037020666405326114
0.09998512795412953
0.08602151942856495
0.08504112950554585
0.02490495664064314
0.096794267210246
0.009505522526770727
0.008803286887602443
0.059962302177599264
0.09776433263612702
0.07449117657824658
-0.0012016984866551617
0.032816132336818266
0.021129910560290704
-0.05145838212074676
-0.034011910516433444
0.08466549572603368
-0.05616162923383395
-0.048603497180258526
0.02862740567245531
0.008320917356633928
0.06742361199131594
0.07724595138788887
0.016631982539534296
-0.08049891871816843
0.02757434015041299
-0.028244847335080536
0.041451796131736635
0.07608262836980731
0.088616435193902
0.03106242461877462
-0.04448936802057259
-0.09968525575204275
0.006479363641439459
-0.014256514658443298
-0.07048495822190926
0.06407433231256454
-0.023040082024535016
0.08235444051001584
0.023485701626020206
0.05567165236532545
0.07630905355929268
0.0703995477873311
0.015229577127464047
0.09985863050674743
0.07396373774817452
0.09322526530574088
0.02320292353406765
0.07864416162030904
-0.07962191098951762
-0.09511619362159805
0.04610797925273516
-0.08390465249158466
0.048501440980224575
0.003375210523890629
0.034961302546265505
0.01442782303780886
-0.0207949470503396
-0.017262318535881088
0.07073031967298038
0.09123020959248362
0.07720136042526038
0.04193560762931256
0.09545770485879557
0.05136318447790145
-0.08224912384995615
-0.0766307327357815
0.012297628435879338
0.07682248743294978
0.06074766478974708
0.02361662184269181
-0.08912257847762545
-0.01612846065358249
0.03731819019719035
0.08512345143231817
-0.013533783252417136
0.07812659778215189
0.011244746794973073
-0.09138282310986945
0.06873683394827707
0.0030506511509124506
0.09087351592215098
-0.05302247151241343
0.059167007762901014
0.054069957247817046
0.0026416704298149046
-0.00741704870252341
0.04235982623623635
-0.004111612546527865
0.08592314274365423
0.06754774505843536
0.013244058220278632
0.06484841943330141
0.00889173599341797
0.047128899917869144
-0.08878864186099651
0.032918817674298606
-0.017333410878826033
0.03446958748782547
0.06914203455297618
0.08207507317760243
0.09939827483615679
-0.06733922470185436
-0.08366435020230813
0.04270837411966341
0.037408499274635604
0.021341676769398327
0.020092125341611644
0.030190654075422124
0.03680772747311267
-0.04813911032468708
0.045102224089369786
0.024789615533690842
-0.019690157114938364
0.060018184893392085
0.09250534642772465
0.07723702568740756
0.030497211995780177
0.0022535061926013816
-0.0995713109902539
0.04162285009458794
0.09841440487892592
0.009212353948986202
0.08485310116490871
-0.04918832083240148
0.05981241737191406
0.08570948243647764
-0.0069428302326371705
-0.0723581106645404
-0.03226389962797363
0.0201175020709191
0.0015636473937917367
0.06698348230465997
0.04729396681814657
0.08171498630470614
-0.07521466757936832
0.07710980115900715
-0.009065544720512075
-0.02392719605912054
-0.06516587793592958
0.08977046152851986
0.002471083862381998
0.024565793445193662
0.046247957811198476
-0.05529798121635549
-0.044209688177005865
0.08903005597449443
0.014119144296717692
-0.03610487264026105
-0.010490186382272462
0.04794723112747298
-0.0445035608914488
0.008079543184929677
0.09958815523013409
0.05694001687519443
0.025121653802348903
0.09943737480413836
0.0627353588363321
0.034796891968645965
-0.04056344200585956
-0.08564236069297734
-0.010205885300667447
-0.0883712290395074
0.017007832931236463
0.01594034064015816
-0.06684852483833642
0.0018515871622700186
-0.015526160455188412
-0.021828136813056037
-0.020994538863904552
0.09038636675980202
0.04376195454714596
0.06653655796227886
0.07454959596395216
0.08213997477915858
0.02792149895983362
-0.0954952697319334
-0.08813478249435079
0.09850543640137085
0.07199832215365704
0.07913946368421815
0.048436541847863945
0.005865791011052987
0.04508642307248106
0.09128218400961186
0.06945017320781582
0.04003251574353495
0.07012473451678386
-0.08637280401486822
-0.05869186229945779
-0.035632541774810414
0.015720168818708538
0.029288367163064738
0.020152673060454013
-0.08687965110227241
-0.05380447191611744
0.04584127233569327
0.0035098258455002473
-0.025502807332021024
-0.05430046818704028
0.07003793485264223
0.022616184170897613
0.05652348146539252
-0.060329542086050375
-0.06039515170305938
-0.06857218091549949
0.09726034458588165
0.09205022905307411
0.005814388956795022
0.07889240963583655
0.009789363907736784
-0.07583078310634159
-0.09098175412912705
0.0783133706307613
0.07885608824392998
-0.06509097465214374
-0.07725669006751054
0.05735160170572692
-0.0962519513054587
0.00847863264699003
0.08972052931051783
-0.02424596024921298
0.024134085576090675
-0.08952530123354323
0.02744759752167758
0.04702948123164469
0.06256440393924848
-0.021312687660603527
-0.04379285766751465
0.031215498471882097
0.013789021612151509
0.01616630842782482
0.09459278033909702
-0.032545788436709674
0.08297357038958827
0.07805297987702109
-0.0031261677384159248
-0.0943272009014827
0.04405255367205657
0.07913188134973845
-0.05845627847954473
-0.037217987556360826
0.008315819054843118
0.09673190899715253
0.08819234338336743
0.009832211012218997
0.04067700823182571
-0.07999396401367423
0.005338111746088045
0.02812724448214754
-0.011737421152817049
0.06352828342303019
0.05644976417189562
0.058909060403377456
0.05154778107143004
0.07581273599122929
0.03629172340154552
0.08397306000346172
0.04792002637496609
0.02606108946784344
0.09055865260831361
0.08307430539268668
0.03669663791207323
0.036646096524676514
-0.034207605981401684
0.025580887462957502
-0.08357930092417434
0.09557916991557946
-0.04830227831925812
0.06135023656166935
0.008715376026011135
0.03548270456122968
-0.09188454832073734
-0.06075947762235248
0.007532841835848542
0.059716183042792165
-0.04089898571878156
0.012692781054237032
0.0022721348634962835
0.07382186066413951
0.0959923170715467
0.08849806353467357
-0.02354952061273695
0.05452775755910658
-0.06684799884437068
0.013248528812851115
0.04070164528757092
7.302240408993826E-4
-0.08730622667891239
-0.07991417667379808
0.06669870712680076
0.06184069975987186
0.05728481081877043
-0.07391265933973165
0.0076187682650783045
-0.027900454435006536
0.02868620352275661
-0.004049880383462379
0.01853596981287224
0.00966592512502977
0.023889279360544385
-0.0047574624071656385
0.053106362528128115
0.016398986478097163
0.02029846478561989
0.05914547130330222
-0.024944909475923982
-0.08435415837884554
0.0012234580010869744
0.015780184692921473
-0.0884674221786605
0.06783258057764269
-0.05435578098663776
0.015167989326280634
0.09935278068578601
-0.042397624035035934
-0.06327832918325935
0.08938536374366468
-0.00116541371792947
0.04494107598395547
0.0013317052542359264
-0.0792725003316952
0.02633542071834094
-0.018846128789342012
0.007355645515905326
0.06447323821733728
-0.020151741506414106
-0.02222127370119399
0.07082431769268507
0.053213823740079436
-0.05100463747173731
0.07935120996524705
0.07445538590292455
0.0085749442321999
-0.06357332291871522
-0.04708772944856366
0.019153646025871746
-0.06141624766015047
0.03195523726360722
0.01436955697357134
0.008902163888518971
-0.06272264541165332
-0.04636664576799284
-0.08312655974408123
-0.08316021033728009
0.09657389308302147
0.0032394333061582375
-0.006227233058360884
0.05165699606825827
0.01894785646990657
-0.07694058300859816
-0.05740309567324942
0.06123774845758531
-0.0830121831918728
-0.08117137796095278
-0.07721370092861932
0.06456074163667738
0.04208020004184024
0.0333610519515643
-0.028242465202118927
-1.474157974517415E-4
-0.06990312865185606
-0.0938966053068542
0.0044984602393022405
0.09962062907268554
0.01433122323117958
0.03783725339780375
-0.02121905227910352
0.010638120078051483
-0.08588133291404307
0.013954170275617087
-0.021288223388987268
0.08328348588125897
-0.08063554256989207
-0.023699166932383886
0.06630518372103647
0.037877299205863024
-0.09297312933572205
0.08035485994640512
-0.06037531859865438
0.06939779347756653
0.007249652287263736
-0.017003720481991627
0.09840094899181462
0.05362800784141239
-0.04444288797406351
0.07263581565398824
-0.07901831883876917
-0.04157575019507168
0.017087043151263887
-0.020765994879746258
0.05723975557306174
0.05083313055955019
0.053794271976271874
-0.07618246183607111
0.07039966498183287
0.0298510582737313
0.037061344374140825
0.0395240074599926
0.09037517255740077
0.01400390591952766
0.06958434116023621
0.020861965505976035
0.04377119358999765
-0.02364389893047608
-0.09128659267381461
0.005924159147024155
-0.08763252221230465
0.017619779985816958
0.0035058220607348256
-0.04020658138638675
-0.03122654652207882
-0.07957223927695811
-0.08801401795649366
-0.07729942171061474
0.06538771235664559
0.07355214402815219
0.05907469752221317
-0.011221051796029627
0.09716997719511047
-0.045850000988380185
0.012334262169182292
0.014957517935678954
0.03469090896312696
0.09054017069268683
-0.006525932982488103
0.09378419898072901
-0.04050016555283336
-0.03408511002562771
0.001523989301435491
-0.09933615419355071
-0.028161428402069033
-0.010392345337997044
0.011527237416908295
0.004747819483936794
-0.05309195666969807
0.011267019857453556
0.060398371226096675
0.09461879188894481
0.04000702096736214
0.06617994956492487
5.051513117984852E-4
0.019670131358362847
0.04240108336023968
0.04617999084841945
0.06756384555316067
0.08172413540633272
0.0993291621947612
0.08880988914464064
0.02628171146309702
0.0861868172839726
-0.017540378410767707
-0.0022062868035120087
0.005889004648439125
0.004402746632315602
0.061619755489621675
0.08464418747685215
-0.027140251953608127
0.07630963059554255
-0.06332363481635354
0.00830721157522929
0.055514843007089476
-0.08666259702261787
-0.00769305872134636
-0.0850030560284879
0.07513019875736843
-0.027078500409666792
0.04067759462868703
0.07096548163507196
0.07350790278900984
0.006586897687690857
0.002856645853741152
0.01643309513272373
-0.06678393819846286
2.9579365965017035E-4
0.056933425224172496
0.08410624005419257
0.05787866801803329
0.016657221810306766
-0.04963869800503184
0.007327825772800764
0.09491731543050996
0.07285787552613246
0.09883316067253983
-0.06731985952401529
0.09188196778173996
0.049158171970464626
-0.02440829097908566
-0.03876837713348667
0.03558231126865111
0.04162779089318175
-0.03180719603485445
-0.08236641354614513
0.04040896701273952
0.0661071424841238
-0.08177309937076328
0.09033134689556149
-0.060533297066002016
-0.05824230383217402
0.07997913303189808
0.08858708675652852
-0.08361907448998335
0.08820062656259939
0.019803457200293834
0.04777246875828009
-0.024939661334095073
-0.08434817995911478
0.07799227999347119
-0.03999924766820819
0.08516242107953048
0.022455802576702044
0.03412927648647096
-0.0685326283842485
0.06492320789307018
0.09761531142798563
-0.09594754815048917
0.0013465063196221871
0.01587514688282858
0.05590289099286119
0.030443111689117675
0.015410745839158274
-1.595718962369569E-4
0.05001907811937334
0.07567614630786787
-0.0806258527488011
0.06137063872037746
0.0761090943947349
0.013911439211994017
0.06774836515226793
0.008988372398072056
-0.09269189662494072
0.07526762339217857
0.020230360533186137
0.025295892340775894
0.06735911727359209
0.08781208092006093
0.07003278646006794
0.057416408087157894
-0.04379700572797879
-0.09741337277602473
0.007055847717486768
-0.047739544659630186
0.07995082146340218
-0.03916973026257361
0.03767069323390343
0.09251612413774057
-0.0709911405634816
-5.98972188501426E-4
0.04569159183377902
0.053885189038972076
-0.017103584376651215
-0.07276357488436554
0.09045393533819537
-0.055459364721450646
0.035405619823382056
-0.022490132101395083
0.019210593654077027
0.09411957610286589
0.048648058789701215
0.004704211302176811
4.057082657779182E-4
0.09705893862228648
0.04037036162837862
-0.09436331915230528
0.0211211031798018
0.07731434673850329
0.03804700863997415
0.013989603365419517
0.06884451094422517
-0.04371966489329442
0.08871284554912309
0.05368447047992947
0.05495516767651826
0.02074636802147968
-0.05325263969215199
-0.07679444219610532
0.042095078093784655
0.07727006780759993
0.07948584011001095
0.024406349396657284
0.03892209182433165
0.0869626709410379
0.045688981758337965
-0.0631473843681251
0.015055600769444247
-0.03180750534100164
0.04329857406884555
-0.07858655919191451
-0.07350008661120958
-0.07964458259384727
0.09747000217536658
0.09264731614872074
0.08721511538415166
0.031223069401883546
0.07264727039086075
0.04739092789281213
0.027765124301319805
-0.0938492643913592
0.08083886675605001
0.08406079587258947
0.05141703202843617
0.018852334121413905
-0.08391050744528522
0.05139727935984595
0.06365483493443841
-0.09243536639902203
0.02294040768662592
-0.012276450640241146
0.02801879333504967
-0.08861741764939746
0.041788796273713846
0.03986109779920627
-0.003402211634988425
0.03392893202485339
0.09742879402645016
0.09853964358542264
0.009830467317239688
0.04027801632722408
0.012100163100497718
-0.020017330560137478
0.04204308953864283
0.09458036302051773
0.023320723486685013
0.060385130639573875
0.021889196560469476
0.02792668544491847
0.03143656164716718
0.0710833388074194
0.057148093560056845
0.08479195523881153
0.0028645983474009373
0.07691246520471787
0.026622866925639393
0.06811958433725912
0.05634049360194526
0.021606075306055975
-0.052156299291081586
-0.0731349603412039
0.047699324775789725
0.04353440711882903
0.09017830353736572
0.08779351901452095
0.010589291777027596
0.0569294579215045
-0.018818517976268323
0.05635019547219727
0.06735204998723929
9.426070003980408E-4
-0.023138449137858952
0.07313131677933463
0.024866075832603834
0.005309606890829807
0.09360847149538765
-0.09067665248375761
0.04842723770775592
0.09417109494443629
0.09691756745515065
0.06621881261640655
0.041285461932304646
0.003139956817999806
0.07076802541670507
-0.06602886212797959
-0.03319960140672015
0.06464241904392315
0.09505581042387312
0.09350704356561271
0.02433108021111298
0.053989902821963115
0.07518771898683577
0.07201576660713957
0.006481524168904518
-0.0899374618765798
0.03164051039333732
0.060884583972834916
-0.09200950565160686
0.06166734871357463
-0.0713347469479435
0.07651164286236725
0.08318359430722033
0.08128043000062948
-0.03558360928012039
0.037661027949671216
0.05725337196709018
0.0344744139060332
0.08409836410556831
0.09123218219467552
-0.06527995226618505
-0.00228186525753242
0.03461057559067873
0.027255651707874695
0.02403120621353158
-0.08916854044524677
-0.004091386375305886
0.050132097991491764
0.0421848023972613
0.06928594426573229
0.07801028425569284
0.01312119289134571
0.03699829583384304
0.05767431393747727
-0.08566414456895112
0.007485967037353297
0.06979169236128918
0.07324642805001924
0.0483057545238324
-0.025619995203570806
0.021999777223962333
0.028730019843305643
-0.02237561166079656
0.07389704237406883
0.026792719128323206
0.056496289666886634
-0.012796946236324422
-0.00641420421239243
-0.05822983811447419
0.09990792276035859
0.04422170756373098
-0.0608445376491103
0.04647934815687299
0.06841196737363872
0.06251591627901598
0.06175748487874355
0.08642642205395856
0.061517360951177824
0.06780513370274027
0.06254759564409654
0.0675532272615108
0.024082851489002646
0.05470467439743673
0.03955746869152349
0.07167485871623736
-0.08969376708955122
0.08293389766217044
0.02537331150790023
-0.08487645502591845
0.08365688904476337
-0.04683200165033304
0.08960047269872481
0.039192804467370224
0.020200110755690975
-0.02733376651824694
0.053037941503469965
0.003217600094556322
0.05044364772362481
0.0999983914495163
-0.008269892369053872
0.061112520564245876
0.0885187240619035
0.08239860043399985
0.080013697119352
-0.016275243010174856
0.051384639380629094
-0.060233952516846316
-0.06497291283569624
-0.04205431868384926
0.005184475670494987
0.009913109789906671
0.06930421316594176
0.07211486944651352
0.027069567550208312
-0.07930823937125042
0.016376192261928782
0.0879535276813111
-0.08712114679698442
-0.01395486049673035
0.022364679329021614
0.06579046315928713
0.021253158561023874
0.08768901486897704
0.03732325166230971
0.05800181729511131
0.06115815399012339
0.06690869901712676
0.02469629027403597
0.011367922998791372
0.0733864819356963
-0.050655020883226924
-0.0748226926760574
-0.0909145357757023
0.015497349749091283
0.03667097499064961
0.06440455562869746
0.01591706813176723
-0.050788158606733726
-0.06651129103324066
0.055509409342788224
0.05119578572358238
0.07085684418360347
-0.06025071544700435
0.08548032874624398
0.03140050157239352
-0.0059526533685143185
0.08982277470545155
0.015931261399784583
0.009654707813455565
0.003875464362330938
0.07674659726522903
0.09371987757782851
0.014342600725874163
0.08064534527781175
0.0437504832978223
-0.07604899629474002
-0.07088801093677075
0.07713506233575901
0.04720285677332145
0.07873819223371054
0.011654298854733347
0.04472225109737368
0.04094451129500318
0.08676509332473051
0.007948536895862335
0.04490220829220151
-0.0540191824757198
-0.01404385047460635
0.03776103276275597
0.061300171546998766
0.09237651416427989
0.00725003413315603
-0.02208712711596135
0.09411376662921025
0.012771115113534251
-0.011920083409436719
-0.0745303896519247
-0.038052545227718115
0.0015603197022124038
-0.06829452379637299
0.09927818357747431
0.041620744905421975
0.041052714121828676
0.09042841319698028
0.07009873153294108
0.02723235217814829
-0.02732700471647749
-0.026668205216101165
0.02308075912175743
-0.09237639231285276
0.08718202211035092
0.008608126737059643
-0.05995254893383549
0.023131084073957295
0.009583727329685307
0.02472550448200915
-0.02336685005265593
0.05029352314853891
0.05218895769460016
0.054214851681110676
-0.06347859761709629
0.040567744502294306
0.07356265171957196
-0.08544348049990866
0.04028405044161787
0.06379183759563126
-0.03309596123620667
0.013013908643991531
0.08324396863879369
0.09314876806504532
0.09735463159183527
0.04137322221894879
-0.058156051729233556
0.0402736582633626
0.03635976116056264
0.005253501000696728
0.09280812611025666
-0.04043719608173347
-0.05931582502766332
0.08855974290115723
0.0016558007324606328
0.07253426100429045
-0.08336328731582318
0.045730203984480994
0.08334743569215333
-0.028853491492499786
-0.03884271094821611
0.05638163413125705
0.0036187939644295175
0.010897135351408155
0.05360173608370575
0.05450908747370811
0.009097129578554047
0.054691986591385994
5.94242991053956E-4
0.05617566540103275
0.08161559044582056
0.0059329959696773765
0.0937324582800739
0.04399984145832039
0.024322395767976374
0.017192206811246016
0.08787548258282807
0.049236994984004606
-0.06081156787905795
0.016620095728479056
0.09563662466154119
0.040990966861077005
-0.025351518391359018
0.07679139136672514
-0.09049389593277213
0.022835930777606928
0.05224707407297405
0.04479477152452749
0.062173546859217
0.024804909117131888
0.046552751918861185
0.062435929461876316
-0.08167324973357849
0.0629137538138815
0.02072523310686937
-0.033214348907695215
0.05256170788590617
0.005358293368676506
0.024340153593152336
0.08609316595975075
0.08578688009063182
0.09271377840559802
-0.062100667514122465
0.07093339487164041
0.01502478761596654
0.06471809647903837
0.043901317631003106
-0.07700854794277823
-0.09231769085301471
0.07997717236952412
0.018343900246333852
0.06540024069863631
0.003396984737666822
-0.05095980805644437
0.008209899741412244
-0.0831718163957894
0.03657701837649857
0.06868166327506808
0.06994383857796779
-0.04812643114613434
-0.0024640022176709853
0.04370660939858417
0.04793145649882283
0.03622798512016501
-0.042089913326639854
-0.06476300622466136
0.00753094970397962
0.0857053184790107
0.02740492557569829
0.03970877244904916
0.009871312889517925
0.0819489374849589
0.04845599488047539
0.042144828375514726
0.08159821630473951
-0.026536523682940488
0.05001701856866994
0.025255361749794064
0.08421748926556688
0.030172204286819576
0.02286176836532125
0.027787152132369652
0.03289352840912771
0.040326504655993134
0.09441590655759582
0.044834880948106254
0.06664534547593653
-0.07438004210771687
0.09104438624655109
0.05448872687229303
0.004153342659497752
-0.012367285737372127
0.09125134305972121
-0.0966512979119799
0.05358787357829728
0.022034438154267477
-0.08976748569794606
0.0944212921909981
0.026904902975081718
-0.08433833630612506
-0.04468133936095689
-0.026965571097725405
0.06568857519356722
0.0241511302696807
-0.024916610170460568
0.0974083567244004
0.06250705334367643
0.0827813096650758
0.06699815083095007
0.07710144378575895
0.05678103183962324
-0.0022946901518075963
0.07728292023031536
0.07891343599011161
-0.08682210690819125
0.0652505064158917
-0.06083922702895886
-0.04260217431063616
0.031000850391169288
-0.014064681625312478
0.05989697864190158
0.02092643863403805
0.05660113489837429
0.03783816719158786
0.034316565031185575
0.034614991188558625
-0.024599362873317418
0.02171605807813408
0.09927672042312644
-5.1083922225567124E-5
0.022116355036488497
0.061731372832110304
0.07909305625833304
-0.09436380674283681
0.06227888180626345
0.029099869391876892
0.05918726554982687
0.032821639217246706
0.03545371909303405
0.033982656018026525
0.07906584599244879
0.09235014254516216
0.08467397412346389
0.09656990625757247
-0.03493538915853146
0.06495644139170201
-0.023658565928434058
0.09118449587228664
-0.02553813416734864
-0.04852260595937392
-0.09213423341759255
-0.07113601479019288
-0.07581523144127476
0.09202905435309758
0.05517601692299837
0.06360061296030961
0.07538418527036905
0.006557910796018446
0.032152030152254096
0.007042239819509216
0.04361844601325979
0.0734091707962928
0.01802547594514939
0.058549668972135455
-0.041741358256310486
-0.025081546799639864
0.013078583503191743
0.02938388472244366
0.05638763865237248
0.07927969628483625
0.0040055902071335775
0.09028881511978964
0.021733399240489906
0.0835775886575755
-0.07359783356763558
0.055030968562956195
0.0723979954282615
0.05364350665231474
0.019526817314609368
0.07632117444605227
-2.2231402781273946E-4
-0.010089197102925176
0.009358894491383288
-0.09529774067345095
0.05070319963889061
0.04574286858626325
0.09014843869656985
-0.021702325611771572
-0.06862832543397389
0.04266877371431438
0.016436857709672306
0.07721506134760342
0.0403866723759585
-0.013692693517199456
-0.026864476651685412
-0.091470289842413
0.077404886453808
0.02607832732351681
0.05116171708072184
0.08626596019627408
-0.09634812652904237
0.02177712358459563
-0.05959458068396312
-0.08518512967050478
0.009693066175573653
0.09049476453625341
-0.032432785407679646
0.05381420705932896
-0.06569824130657623
0.03967102497288458
0.08607257005375404
0.03136609921417921
0.04092134577059328
-0.04454057077724862
0.053663626479595744
0.07883496845188426
0.04208279689221417
0.030007677604335092
-0.005659656007160743
0.09514980059798625
-0.0185929423466987
0.04957378490704223
0.052879938812669336
0.020714965331974117
-0.07460636938062642
0.023020791883437086
-0.09695478191150661
0.04822477206140863
0.06852910227141185
-0.03298380213579566
0.026839683086353372
-0.07682945531996066
0.046384085712133816
0.06671436121299043
0.08141439421166835
0.030944923882408326
0.019204086015019856
0.03065414605357225
0.09207361537518202
0.08937667192604531
0.0680119150826991
0.04194830454149234
-0.04536702247887299
-0.06960441718744295
0.03163121309179534
0.0570702233238084
0.004474304451208347
0.03888218010382674
0.06902187683857433
-0.03652771153522823
0.09995567276856193
0.09281702888351229
0.05495765404496253
0.03745628958944608
0.01808607716611932
0.08072555303873855
0.08560123265401956
0.028050085195516578
0.047625286948798806
0.021154147214959285
0.049406955790376905
0.03690844852596975
0.024451533646423537
0.0873023762105963
-0.02563839896136183
0.06338546308876941
0.07097955234977485
0.036728090112459005
0.09751095621746173
0.021577826247221335
0.012387230456414766
0.09161489318230329
0.015612142456185835
0.05733660412117056
-0.07499139954087532
-0.08309215416485084
-8.017964251210014E-4
0.04626322758990395
-0.09983844560613603
-0.010865068733453165
0.08818918841459741
-0.0017359772718213012
0.022288519820834587
0.059128087432434334
-7.570273268587419E-4
0.04188916101656012
-0.05931794336521479
-0.037329563636889745
0.09494152228862876
0.03735529879721386
0.07400613994392477
0.02595222101431982
-0.045151437941794596
0.050618987250857395
0.029526693727161046
-0.01470531282665867
-0.06572782336681847
0.07321276931579604
