0.0013795055864729011
0.09220824668508573
0.09496505695406574
0.036917134988312034
0.005424965436056847
0.07353365569578393
-0.07863855401990241
0.033675935933237755
0.019081967889128484
0.0021536477319807207
0.0046947982020837525
0.09410944291033807
0.06395416699200587
0.09025553312184892
-5.195915922231453E-4
0.037136021669488484
-0.08762755806182143
-0.03535130488115952
0.06562285062037429
-0.006652951752571246
0.044551557251843316
0.027230381807082316
-0.06783727965328534
0.07509862333243975
0.06756123768640901
-0.0234743479810397
-0.06923051984076838
-0.03606305214150528
-0.098575709579772
0.03375152678248611
0.02321341319601164
0.02497622077376277
0.0443471188226697
0.028720794212005685
0.044824511394497335
0.09927347290348643
-0.05442438117516499
0.09763252323561855
0.06833887732917851
-0.06783361428785377
0.005212652012547128
-0.09691797978974363
0.03932415135352518
-0.01106655943835344
-0.07429143650692796
0.0538262247794086
-0.09463571795343059
0.09142377220013218
0.07442745918595464
-0.01733363115472447
0.06174669236982516
0.04257043283603831
0.02838658957713261
-0.03632915519254404
0.0468711848908015
-0.050105226993498383
0.08326539512969172
0.0993250449160556
-0.07221388309431703
0.020032597479012426
-4.3971462987096865E-5
0.047348148963065495
0.0025882554759212167
-0.010831322888647493
0.05330157408265371
0.03641975288201946
0.05543251490616344
0.04413764591419875
0.043699131920574064
-0.07643512622262419
0.008635907119106043
0.0982488400377525
-0.02161396048979411
0.07596043346884285
-0.04961639967070848
0.07332424415661462
0.037895665920038374
0.03362938625134568
-0.001636873913095832
0.06114428272228023
0.012176453872429688
-0.02862507214070334
0.02501479226189743
0.0031474467798912886
0.011968665449316851
0.07117472098090322
-0.038361682185916776
0.01587048145236386
0.02286215235681989
-0.05380923331444253
0.013227328871407443
0.006288454254081588
0.017118009157412864
0.06342964987142913
-0.021830285544872596
0.04208374750842325
0.015048015792115926
-0.037260325587081505
0.0044705720799670945
0.028472589980072627
0.05585042248236799
-0.047100219316055486
-0.06436185516179478
0.08899356289583318
0.028002899346157156
0.07470943743254185
0.061996656551512985
0.07128367511020181
0.04948616850666329
0.03448157005488084
0.006666913713793632
-0.03756517666741269
0.043451055075049344
0.0750639472728307
0.035501362251737445
0.03449446222072025
0.08759810880951852
0.03302550313841818
-0.04867613800908814
0.053911341095419285
-0.018548704541204566
0.08234720136563325
-0.05714491790043541
0.08167202761684764
0.05239084969216404
0.014806809319817815
-0.08117006816482357
0.042082698152946546
-0.038184650640344125
0.07325214161107052
0.04537147756942925
0.007159145827690422
0.06182591204840937
-0.0864748484072349
0.05390823366573175
0.08448838032738709
0.05364301611807332
0.038166082100994536
0.038164001480940124
0.08804787062499736
0.07452415164207732
0.048236173287314
-0.011797581930545115
0.03437930900905428
-0.08031365523359024
0.004794091350608459
0.09618718099323018
-0.02997689283427335
0.008351582216597597
0.028518493967197273
-0.056404952726519506
-0.04328482738208534
-0.010385975414669554
-3.7742594459767853E-4
-0.07203879994982064
0.048801810291750014
0.060813410073361024
0.044487809845209336
0.08491673660706256
-0.0038368738188866713
-0.021310984445554237
0.0863953123370797
0.020361637221969223
0.03538824879847799
0.001337745413762928
0.020488163987531893
-0.0815526574359376
0.0829394569053038
0.04026726637865133
0.010002967086429157
0.06214052727730243
0.047481283237153754
0.07217249229838596
-0.058546811701820085
0.005812287582175585
0.0045599209848760786
0.09618937555389145
0.08732734610656992
0.07978012571576854
0.014645324780557897
0.010587794394975383
0.06383518423047985
0.008185428924687169
0.06923766522842223
-0.0445208635163839
0.06285104535544195
-0.07778647123116689
-0.046520598934312846
-0.04025422741818355
-0.0023975780063608954
-0.09938970229540853
0.04310408798245077
0.02893382647043849
0.0019755073989674438
0.060652652264756274
0.0847355693338254
0.04109592488460556
0.031796369588573264
0.07521464703872871
0.09983170237373398
0.07548089975909808
-0.06419739660396448
-0.050964387272004356
0.02527846951262816
0.0876009598879244
0.019317490529410702
0.025177471016020525
0.027390775469240458
0.08927315358880009
-0.007110949425511673
-0.04023531887499276
0.03473463251604311
-0.051475601130582624
0.05064176030164999
-0.018582119535587013
-0.005287611562381736
0.038628487050956783
-0.08797320494511347
0.08171574205801257
0.06689593768300814
-0.022657696141654346
0.08510279240765295
0.08479742681604782
0.07908531234521418
0.00653786076023935
-0.00400029500589294
0.04547922248021677
0.029070130815919082
0.05244291904182674
-0.027861794772354925
-0.017351407027007063
0.06299453926600165
-0.04874171699865548
0.01763244331847033
0.0212074941358395
0.07829306005383019
0.05280436778174391
0.031676874958509044
0.09363479398520239
-0.0716160235480402
0.01488114727686235
0.0867868056065276
-0.05672934872082079
0.034322761082611786
0.05168878795388762
-0.07993152279439225
-0.0037002765369702206
0.03748178946572797
-0.09671425787513263
0.09914106501085787
0.04023862309350801
0.08525407839521518
0.014349598430436719
-0.010126199749682097
0.09987666201067302
0.009084335851151731
0.0268343772547891
-0.04245739620821783
0.04602790705171958
0.026112275924988937
0.04222990107703006
0.060751848172859335
0.009779282153544094
0.0948464391431629
-0.07823245955233438
-0.028913010054503988
-0.04986736434020521
-0.07532192784698097
0.03122543487076332
0.08283174176952038
0.029600314400423544
-0.039141319975631694
0.030583269446440742
-0.057317441168072754
-0.007032660957192904
-0.08746392204655012
0.004598452645942594
0.00836593496880525
-0.07653282803597741
-0.038703184436522674
-0.04844802340557738
0.02712399475316668
-0.06994153951585097
0.04262354503432916
0.015516054621297792
-0.09360412596297123
0.07240037230220314
-0.08320591924942838
-0.044819542741199474
-0.0666467591693774
0.0026981241322771854
0.023008477777576752
0.06023216183681804
-0.06534331441179493
-0.0014168114056566927
0.058221040951676156
-0.04753300940514
-0.010813197945821557
-0.042530286711106834
0.0207233712286225
0.08111544762590728
-0.043590635044625646
0.05053890955419946
-0.00832186018620161
-0.07126127688496237
-0.06105491453167792
0.047523707390444675
-0.04528856237786626
0.09131624768213684
-0.043742207986806385
0.0464596162516811
-0.06192614038062851
0.011147212389800196
0.06219480106853578
-0.04046612703488979
0.03802870036425357
0.05925099781455209
0.05356890964507066
-0.054949634537524744
0.05424192370918915
0.07711068780606278
0.03570286076630391
-0.032262979339448855
-0.008929313852788001
0.0791641216898625
0.024838507182172537
0.0032181271797278865
0.09788642862299357
0.014258499866840801
-0.07894837109718092
-0.05583340988427955
0.09032570498409354
0.038632054064588334
0.06152859254423515
0.0649691042134748
0.08244486375009683
0.09126598279513967
-0.005006637106036091
0.08304946634547966
0.08072533181645525
0.08471164416133489
0.01258738503788144
0.01028714550192826
0.04246090520191484
0.07622577855859511
0.07669561825473145
0.06441199015435187
0.07260848162383776
0.05428627940661204
-0.03111107397733441
0.05843467052594298
-0.06580206879277344
-0.006367668442836219
-6.189483114109329E-4
0.08605239710997928
0.01914845519872481
-0.05718043098665207
0.06815665209967023
0.0960494065528383
0.03701318505101123
-0.0902854923827972
0.0033157074860452884
0.045057269962773594
0.05394459038620142
0.015263155683057819
0.029168884372272552
0.007332244496689649
0.028587675961446485
0.048488699369362925
0.0322395186713432
0.0958337033773482
0.04734119815019727
-0.0953489918919414
0.04787535946618429
-0.013602837503425738
0.016243144578561075
-0.09722954300958465
-0.007286626602602653
0.024133114142980652
0.08082798441875877
0.05751097841870881
-0.04904026086960438
0.08127568721172745
0.06247125809632187
0.061760165127947714
-0.09821881212830626
0.014222547596293683
0.07680322394614844
-0.004638268147584182
0.09400511637230491
-0.028747500579954136
0.009062722659842051
0.06261102525882092
0.032953716531038346
0.09941382525922113
0.09069119031090295
0.07582271298271734
0.05441229076581344
-0.03838939685422065
-0.014119606571441637
0.03258797687376383
0.04336561284866078
-0.04737153099717091
0.08146844408057416
0.020537549497364027
0.0430518644009964
-0.09297354314899223
0.06579036892740703
0.08851557975840904
0.04915022618644971
-0.021459237397152595
0.03669107224550783
0.05576621828327702
0.09592785648345234
0.08490426048041971
0.03283301438040026
0.02877692813252375
0.02081138232898587
-0.0217302778794186
0.05321172029033722
0.049719884354301275
0.014784972232926588
-0.07662839392858392
0.0783552546908145
0.03388468154024882
0.06174100159344065
0.021082521126124742
0.023830015639896493
-0.06979693748614764
0.0878816748999054
-0.07899922874787516
0.041189636346044806
0.02284385772002509
0.009989204859519055
0.016177298970073445
0.07135534770827673
0.02477721602180384
0.020244877935061967
0.05333324679249418
0.03510790084625501
-0.07822212373874768
0.011006027077610461
0.0464972344152364
0.028557888392193226
0.08370871776977534
-0.03254413226689683
-0.06513278191322339
0.02989057802187059
0.017202328067276937
-0.037409371244999795
0.08243146051362021
0.027753351282612748
0.0994763017605571
0.053092217736640274
-0.03225672713260133
0.026960823741988937
0.0935775322730622
0.018996847558895663
0.03646187742940854
0.001172007193357305
0.02633535040812654
-0.08178742280886653
0.026126991652456688
0.035731611793844015
-0.013440719892146763
0.09872413048498296
0.03553002571800662
0.099563301936678
-0.09937915205398828
0.07810923507717335
-0.03886704059266591
0.0679412904559463
0.08989842847690796
-0.015120881674209233
0.08977496915208441
-0.07419166906810876
-0.04224521349685749
-0.060403384219825766
0.03372759418524157
0.05484249957265164
0.0971343350874101
0.09354325350619191
0.04988545235304423
-0.06480863826918828
0.03225761817892833
0.0111360968924714
0.06548308915997272
-0.009809175680846466
0.0696146207948618
0.018495148847085155
7.623046379782866E-4
0.03764964781197275
0.09139367375776156
0.034445520340409874
0.06584958264463683
-0.015447290794166013
-0.07716075010790566
0.08952046312425158
-0.08609863082286995
-0.04288471181156447
0.08284063548396364
0.07067229668665748
0.06460444627796066
-0.02150432849336789
0.05895756778723102
-0.06084168904736339
-0.053371850821471827
0.02462043248593425
-0.057541624109108847
0.0684650444235971
-0.056336277116366344
-0.03218704571130383
0.022555329090310813
0.06381364449469062
-0.029723860420724585
-0.09670871369173147
-0.0945211274925773
0.09984154523994163
0.021536766973070956
0.06300637628575922
0.09477672180727642
0.02259112400604274
-0.05991482148375989
0.08310751363058835
0.052555662282386284
0.04241161318841771
0.0023377167438493884
0.06829523087342299
-0.04488192473480484
0.09167470739848077
0.09317181970139729
0.05506242609933154
-0.04059688889636567
0.06415380129982623
0.02368591484233233
0.06797193904040244
0.090756583752232
-0.07522941292306932
0.04839097820623642
0.07447257461710982
0.026507639268203764
0.012146686667346251
0.0650091349222138
0.04474678597323753
-0.06659694398030638
0.03133818550898709
-0.025008185765112684
0.07644032629922323
0.09898280971961523
0.08824852772709746
0.04637308203418139
-0.04094400513547512
-0.09230726579238117
-0.08424582921769383
0.07108487818150128
-0.04337769174096976
0.042708362978015946
-0.060873007468366463
0.0013041592296191007
0.03278046647891886
0.004601742062142228
0.09700137611344223
-0.06912326261988971
0.0729864422371021
-0.01497653454899274
-0.03108170484753074
-0.052532164016844664
-0.01152546100761756
0.06795929773612258
-0.06905751212761124
-0.0932983875698009
-0.022879906316847456
-0.06967105958977797
0.09760551626556727
0.003160539095875145
0.06136057982096971
0.07929664294059668
0.023663290137049098
-0.026677633124387437
0.022690090219971676
5.141099608562127E-4
0.031830079243514386
-0.060375442132089674
-0.04575190253021043
-0.007198076783124938
0.0716169433359963
0.001427609598271165
0.08621120345156291
0.051903486618454564
0.018802936658796746
-0.09314157634919966
-0.06989217439430376
0.03191945509297353
0.05158973063898309
-0.0835096838177937
-0.06819009943134499
0.09492582723973689
-0.06439843074515889
0.010435432815972978
0.006287785046855801
-0.03562958849248331
-0.05724502509565928
0.0459943999052673
0.09575089175065604
0.015737442599839307
0.008224160726545485
-0.0033902880655527212
0.019765401499701588
0.08819742528428115
0.07077273361065323
0.038628528558009745
-0.07983329693654219
0.027034369582089296
0.07494748704086518
-0.046688835920880814
-0.03668710363704064
-0.0455820645692253
0.04821246643138172
-0.09504278904805177
-0.09126075942928119
0.026555134045088552
0.04836506589476025
-0.07554527132835759
0.009034336699258669
0.07051166310705262
0.033433054714349264
-0.024079504816317848
-0.07863003681143399
0.0941991946132083
0.0521404673150169
0.04463082858587947
0.0761020305218171
0.01742032338977148
0.09074412523034728
0.015530335637960774
0.02122785907728647
-0.056583035591470335
-0.06478649989391054
0.08601820735804727
0.06952392715426459
0.027239591561327686
0.03445078789910308
0.019794691922568636
-0.052571623616310785
-0.02762033707569153
0.08319561015448798
0.0022375118738142546
0.036943909558199955
0.09812615966313773
-0.0017850291022129677
-0.04129261551900272
0.08889987450321113
-0.06957161360393802
-0.0634120791798454
0.09176477930545696
0.05515778139607516
0.0343270677175638
-8.039243574371607E-4
-0.0074911955573087885
0.07308520415563838
0.01199471133635606
0.05464855261848631
0.06492893437640038
0.02345246436545527
0.009885274767541266
0.029645658164757283
-0.08626644964549217
0.04060237258887678
0.07495213442883036
0.056757980168816
-0.0471872273813291
0.008903681642423958
0.037384499306197694
0.07620254893996811
-0.09364795647423255
0.026717355001626586
0.0042005044260268465
0.04120169551828004
0.012904962587977284
0.06441620737085982
0.04305987176111553
0.0037141329660044103
-0.08033559388793488
-0.04306379432679631
-0.06266625087586003
0.08330862736896782
0.05329501765653766
0.055617113841707616
0.02199334137065341
-0.08807357900940382
0.02342873701480909
-0.02874456914657901
3.9854222358126634E-4
0.06138718326017667
-0.017648515961829356
0.023657886375483453
0.029461998527332667
0.010459532661263427
0.08219248259891859
0.08052657562455384
0.032949173989686414
0.06752411942459433
-0.07826851045692465
-0.04998304118227766
0.024017841422669772
-0.040231209860094215
0.08834370112948345
0.0726795579279684
0.09572866202698951
0.061526669907803616
0.03981763977136002
-0.024848940777013342
0.08278420192655009
-0.004766684971883622
0.019014884418037725
0.009091577811344842
0.07121556680272237
-0.03237214120120466
0.08647017321690562
-0.013795303951410917
0.026801940827162418
0.024303580847932743
-0.018316600631110097
0.008976384137179494
-0.03656354078466975
-0.05489674718873403
0.08790711355756606
0.09295854920070246
0.0715488875591058
0.08789660273682876
0.06194533205729866
0.04672881493501277
0.09694877787220388
0.02158721970674199
0.03684707471142051
0.07232925901770201
0.0750161908074273
-0.04160744574842174
0.01263270222532313
-0.026975844091864265
0.05885327231177173
-0.003521214096211117
-0.06997531994280785
-0.08755649130160022
0.050300514063101764
0.06522639347507425
0.08750433617341541
0.005982878480110823
-0.09001443592115291
0.05329891532640382
0.04472720905460423
0.0791949687898311
-0.09604648556007588
0.03709474063399021
-0.0864100665903831
0.03381695946510571
0.037507687708288495
0.06849455345567332
0.045517490955439055
-0.09462495087109146
-0.09133459435510097
0.05048075295692972
-0.06982721999941259
0.04809828848051012
-0.07733346372470834
0.04017643576585958
0.08610444299235356
0.02575511199194111
-0.024767184861935104
-0.03334893631189907
0.09459104788375794
0.003128538127010125
-0.03589125450854719
0.02718100194767184
0.05405080303747986
-0.019547558710914917
0.09768173249427539
0.062116204974210526
0.04637271154169714
0.06078891109087933
0.053657908400123966
0.03235955052691475
0.03663356781633481
0.09538712460925156
0.06556672930799012
0.06406150293468627
0.04529328870745636
0.03260085103609278
0.04501322466036842
0.007103404945955821
0.07318928841862807
0.03301162311396352
0.030445046238035817
0.09375900679446311
0.08871829476031629
0.011331558281178836
0.033327022753025015
0.09263159048778596
0.09839788259746704
0.04268494205955503
0.012026188474557623
0.026507695227925676
0.07235861985366826
0.026454468313844792
0.034563113712589355
0.057313098381904515
0.018887353483753408
0.07896673508638205
0.04677097867837032
0.03123354703290568
0.050403327243022156
0.02096957623966511
0.07269550984389472
-0.08408232343292796
0.023165411551060847
0.005651542231632459
0.024328173563134547
-0.059066750530199524
-0.026711755355358316
-0.059645739321073206
0.014005764236913881
0.05154263654947627
0.03755487930301235
0.05566052787934178
0.03137029768288793
0.05294137753199038
0.009054244258565172
0.0294862188632197
0.08047736159344426
0.056726772838606304
0.02701510104957211
0.04170178652704756
0.035582819362778406
-0.02894632052276161
0.05948460949807102
0.020770504772325962
-0.07360095336502614
0.07943359743144948
0.05524308747148743
-0.09640025844113215
-0.027634419003687627
0.09449289797763283
0.08403165415920444
0.05244584050045109
0.012038422770854873
0.031304047582029065
0.06394290722913032
0.06185524848702706
-0.02203623915044063
0.08546776644085374
-0.06711575015549273
0.04762385671688127
0.07033888590711546
0.01366334773429545
0.07760753523428615
0.01208517180766698
0.0892606499666661
0.09593171520348567
-0.07444878250912507
0.0869388869032442
0.08595835920613068
0.06025135278095303
-0.06213662283763176
0.08567863368768994
0.03527680805171249
0.05333561403282577
0.09618730990870625
-0.06490651749957636
0.02315571178195744
0.06508298222880415
0.027941881287328524
0.08381078312068596
0.09927510621295782
0.07510409593009959
-0.09856741718240707
0.016425653628401773
0.065733126750909
0.04591209871268073
0.024346930314165155
0.052953682000244306
-0.0189549123512035
-0.03053135646590152
0.03529436176964337
-0.09894428562313248
-0.07494197742980696
-0.0784127205427479
0.03460655859528869
0.09156544322180271
0.06764781837717518
0.06007716805357094
0.04034285481456021
-0.01326229553340745
0.08499580532962658
0.02883940113145364
0.05400328573974683
-0.010173741052867655
0.03265492416298135
-0.07880965067372561
0.09929591345631705
0.0869668875449233
0.08127057667141671
-0.09899996734326522
0.003729404697450478
0.0074894185127225565
0.07668955349801906
-0.03724284399280772
0.03475539445696188
0.008115565575568293
0.0991669358256338
0.03830214897604731
0.08042764711393519
0.0478005470346512
0.08720883600656607
0.022363338857758805
0.06342900002276333
0.059446991027989254
-0.00314727437879464
0.04537979203968326
0.09557148215593175
0.09727853813490744
0.06137878750946202
-0.04322118284804094
0.03819215544905097
-0.07742534532746334
0.09971874470032804
0.07108324984998754
-7.398228724997402E-5
-0.05873080840486693
-0.07220351078040523
0.074555276691804
-0.07449789529076588
-0.0083643719247775
0.003523327677307231
-0.07940350237094113
0.09348063281219188
0.02293652310917238
-0.08129426866197242
0.014622258049713815
0.05989138736959895
0.024512233117714083
0.03152815238055057
0.0294999715400196
0.04621451040744623
0.05959743249516078
0.07091388679810809
-0.04681896564993989
0.0857221631071616
0.04082063999694044
-0.06628200203190357
-0.05131873220282626
0.06894603773155636
0.04378895336489025
0.04464442605019853
-0.04916698785728699
-0.03400456586577591
0.08738002923060822
-0.049561226202794906
0.08127505903158663
0.03690245900051442
0.022800112159510763
0.0816374525185132
0.08117766715821229
-0.03842059611717335
0.0803986146901797
0.035059528918831795
0.0864570520815291
0.012903104640593077
0.07242779996614648
-0.05454088765823869
-0.043522348243604375
0.029554312092185397
0.010093098382511087
-0.09329250097258826
-0.031076304153616216
0.0036845851667099555
-0.006798344220517907
0.09173924689018192
0.054285739669383076
0.028309104861919954
-0.09863055229822351
0.00892341790571212
0.05850505898353184
0.03803148827985564
-0.0680564306670848
-0.06126949537320634
-0.08195129325678405
0.08082531568784568
-0.07586552338016472
0.07217647834731947
0.07843577277068844
-0.042862871272893184
0.052505173967688806
0.050749016989660806
0.02274321719577295
-0.010016733193627197
-0.022628399742146157
0.09225143044421821
-0.05002898707679374
-0.06454928899828066
0.002366754443784841
0.015664125408860946
0.001146320571197998
0.0369483843510478
3.1348392276232817E-4
0.03183973890691982
0.08325021909584432
0.07237082569389419
0.05198888789727954
0.08898913759102572
-0.07964649810696361
0.08873913956098053
-0.0321507461365477
0.04492066678369672
-0.048399814453564664
0.09589443339880996
-0.09245976901186223
0.01766774531122714
0.07784049837444298
0.05957966140734197
-0.045271478300709954
-0.07751697294195803
0.038812262398596115
0.007860394647203464
-0.08974314879592289
0.09487077126782695
-0.007183079355475713
0.014652982558620353
-0.0877171971018695
0.05447650513556157
-0.06482605346553663
0.035120542598991195
-0.056136272611284004
0.0773659864383009
0.09521555861775252
-0.06502243257004198
0.09652869814636042
-0.024558815610564944
0.04166924934249003
0.049714751266525664
0.017030873702542665
-0.09481820283851883
-0.03793468493221126
-0.031090611727384976
0.012879861612318216
8.929607739809053E-5
0.04221123519959771
0.09831252459003631
-0.06439880956164828
0.052986351656537506
-0.02287384667473555
0.022558306688024554
0.04644459356972755
0.01553279524688038
0.04712447183595214
-0.043929092338779334
-0.05748800248045484
0.007551216788363804
0.02216130259051502
0.06934798300942172
-0.08027844415317943
0.08620588287130546
0.01485841147226298
0.030775788148055344
-0.09890838994120557
-0.011923693069535501
-0.07295364940407292
-0.06400861408099137
0.033168450603001276
0.09727765694339835
0.035030800815720936
-0.06674921451723834
0.09460801180318165
0.05031509737682763
0.028541202168194696
-0.04591762124023984
0.07757103112311786
0.00883508053038555
0.0707854494543059
0.04074814476175942
0.07106639201584594
-0.04562950987288855
0.07206252441465186
-0.04724778921668154
0.0437052271980449
-0.007705389950663943
0.06789580077864282
0.008481767540394203
0.07470238960139636
0.034873575618007
0.003864170433779665
-0.08087631660493864
0.058094032722051825
0.06557346466204383
0.09089771780256192
0.04431676047622099
0.06364416465122702
-0.07002545948630495
0.0016478843741175725
0.07753800753587389
0.09697873656100803
0.03791675138294581
0.07131417491036068
-0.011513811517103734
-0.08126836818703766
-0.037752729487482616
0.04500262026816873
0.08015818785641576
-0.08313442572653015
0.00728679281680604
-0.09404386500869394
0.038797671276580986
0.0025798472169302616
0.0778627856289334
0.095800171411387
-0.0841636683470442
-0.033904192508007136
0.04078001449430971
0.04314985242504074
0.04938369784862978
0.09946399498485817
0.04082191764215995
-0.011539471694563722
-0.05939364298579839
-0.04415396073552982
0.06222304325584582
0.016086385465458042
0.00732427776457803
0.036892297795124485
0.013074650242069552
0.058041906362757245
0.03618556319650318
0.09180414784089666
-0.058741030879193995
0.03144423119999426
-0.0881324031238305
0.09111652758123306
0.052309640531593954
0.06173160639558303
0.05255131958924017
0.047756269262237416
-0.03029649678191934
0.012883345358960366
0.041183742554282254
-0.027099672490135035
0.03930531886230815
-0.07530160015126976
0.020182469654386567
0.08004737683232294
-0.05155822207870502
-0.06763914464999465
0.06844782138996525
-0.047107828354408625
-0.020022167066324426
-0.01248248677102208
0.028850333037910847
-0.012434101305217882
0.04000804333159394
-0.001490707821313983
0.025114700454948957
0.032307805398995276
0.06730433558013393
0.04569103032990432
0.05636036972387101
0.042362858797932945
-0.04019064003779146
0.0974375686058942
-0.1
0.08693009353565836
0.08217640406158216
0.06563840037242888
0.022841199555645217
-0.0742777998539669
-0.04274974824062202
0.018307118185390367
0.0636645775770028
-0.07797017791669807
0.019449387374447152
0.0521464467337977
0.0902236336913867
0.06985302751225878
-0.0965940211446503
-0.013623481567995185
0.08568912972261092
0.05678140044487884
-0.08347837381514372
-0.05241969560070844
0.09393324474807291
0.07042230396528598
0.03501458030775581
0.049008688031509706
0.04366628415997609
-0.08842512948591097
0.03805462478733587
0.032091805728918316
-0.013177930063980409
-0.07001106370726759
-0.06932587470277905
0.05571027279777188
0.02485722021853573
0.09179574502203575
0.040946374541003555
0.09418230949526682
0.028767906005457283
0.06867108351911486
0.033720527432368086
-0.09414793183260642
0.009866444966597734
0.05555600968788488
0.062369979779510754
0.06934633725290668
-0.09563443912853137
-0.009737455597509742
0.09116349925639042
-0.05592358924441807
0.09529819801355185
0.006025082861977657
0.009100165081126793
-0.020271693704593696
-0.019690898947868032
0.059778051611141525
-0.02947552973466548
-0.06192690706460449
-0.023645263780491338
0.04190391137445737
-0.018681811428029507
0.010075692880259765
0.09734876477178281
-0.08423408785134248
0.06803415551825123
0.06630890413003318
-0.00926755321893559
0.0025597900824995967
-0.07809687333907832
0.031725655031130506
-0.020419577764722058
0.006905886701993491
7.286637336876983E-4
0.014766829382423768
0.039961968349268545
-0.06036751410934821
0.09292405684192045
0.06307982136909071
0.0015641471592712508
0.06937743118521042
-0.002874199894706317
-0.00797336918009324
-0.06291336854403651
0.004666299665702617
0.014447160603119277
0.09069531114441204
0.02415656138402089
0.0063236479971467835
0.023932817290969285
-0.06570353727344774
0.017952792143629548
-0.014129477681802088
-0.038463021372606
0.017915756242390196
0.029164919515132753
0.02801433389622135
-0.07384720561908877
0.051193432582990556
0.02688498824629937
-0.012163184939433441
0.04520566369273915
-0.010267578584283427
0.004894797404137313
0.06995618160216019
0.07454775459621105
-0.03561068859537238
0.012833724589448342
0.09584300556777028
-5.100334826210057E-4
0.04880165788404128
0.08505981254333334
-0.046274429961285356
-0.09832065187627259
6.058913146608086E-4
0.027279935085537804
0.015525483531076745
0.0766437968916184
0.004508973124094345
0.06508150961195339
0.021339125187111105
0.02306021294890516
0.05996917786293551
0.09137919204271405
0.02006939090223453
0.01778312371536296
0.006592561081702544
0.013843899366763057
-0.057262523196736186
-0.0026665996295523325
-0.09155582340300313
0.0851181962599322
-0.05647293845994952
0.07616114706938415
0.0653856197589982
0.06583270626513552
0.02910640839710102
0.05071214801115623
0.0865212550566212
0.0011317864189255705
0.028771947594019492
-0.09224169918199923
0.026617260056988112
0.0010183371400049462
0.008695396689626211
3.1120678792263823E-4
0.014851870292793515
0.07523128715272095
-0.03161629213248583
0.010624536055212186
0.06704826114574788
0.0490365700295351
0.05456366629409798
0.09829086713656593
0.048487302529700516
0.053674291687639014
0.072433224533753
0.07672256402389352
0.03212432019764819
-0.09461858639894768
0.07258391819421259
0.0953054665025273
-0.019955492611674452
0.019254528092983128
0.06609884207087013
0.07226568051019419
-0.0718175886250405
0.02800428963016105
0.08413971682882049
0.08650847583157223
0.05541952796644398
0.0934861866300678
0.08376637485436153
0.08754787752996515
0.08349558973834739
0.09466897635243593
-0.03704205212155297
0.05662878052159337
-0.0650238806700208
0.044959887474194854
0.024245465890004328
0.0830163450322507
-0.03392511343818799
-0.06380587847220445
0.023311304854324047
-0.015321352455874057
0.09867353771108411
0.07549675478972506
0.09336202977974445
0.0894332257572546
0.08201714950533562
0.021800937016010546
-0.02971238100160971
0.05070700069373635
0.07759046366641759
0.0708794340729633
-0.014425579790357093
0.03866440704535351
0.08716448313257619
0.0889279221541096
0.09659173677052968
0.06135889409462886
0.021234592816890024
0.04339200145815825
0.04434718095775997
-0.08799500339331727
-0.04720242772323455
-0.0620310517036126
-0.020886651645919158
-0.07810128428532248
0.05634449629489316
0.030391421265214658
0.07357347280239926
0.09537168571913188
-0.04816861708917555
0.07621184558871108
0.013019565142722136
0.02532667555010701
0.03038200097977778
0.048903506624321524
0.08106270850967548
-0.026532358894556463
0.005997201902620541
0.08634118569590646
0.030962808320441543
0.09076927192339987
0.059146090568617665
-0.0029094280198321137
-0.05797789202568486
0.09981189991445255
0.07822453729825063
0.0020861658166408392
-0.04576489492271569
-0.08295542797904201
0.061488910416853254
0.012441033799537302
0.055015229791990194
0.05921349186775582
0.07730237948430552
0.08806727144026996
0.08826886082866062
0.09016722829270907
-0.05709355467837581
-0.005397998475766871
0.08406103644770599
0.05943377493582658
0.02719326547232917
-0.043269756447752564
0.03731664139140242
-0.03839346118676498
0.03199496498320961
-0.09531987287936781
0.04080375649563536
0.017961852665310765
-0.02566139142916697
0.026679303956601785
0.036890036687748345
-0.01560237179356419
0.08117494373913922
0.07316312344800388
0.003032281728234762
0.03121718364445855
-0.006209820228137222
-0.09138043417550862
-0.006787442465769247
0.07384143285515046
0.09024196540626753
0.009536733729872529
-0.015774952355076283
0.05983914973331397
0.049197280774269825
0.06166970624511264
0.06928939212618601
0.0989930640926264
0.09059013711458297
-0.02372348118446839
0.022262035703737942
-0.03539602332195897
0.07736507799477763
0.020000289814422312
0.05118518341872727
-0.09735103811683034
-0.09854323581775738
0.0997808314854767
0.0027832171950001733
0.017645422512654496
0.04406906200979893
0.09070127610498918
0.09086018345829747
0.09339879720387714
0.030575817619905077
-0.033762085659050256
-0.043998985187638714
0.05073419884316607
0.07258812167873188
0.0799156315289889
0.001916942875567637
-0.024999930519234922
0.030186930793881184
0.0014565392962341134
-0.08120719383449893
0.03495699403642438
0.06642424175621456
-0.0010340048449138661
0.08776804850212758
-0.046141951294457126
-0.003731096309447804
0.040609587934351155
-0.05655278499342884
0.07735170654494997
0.06910834379433081
0.07560284212802304
-0.0021213486402903853
0.0723751163977869
-0.004159767607913145
-0.036071268267711384
0.022497133099872946
0.09827343728130383
0.09785128447950914
-0.09987994559170066
-0.09487228288384329
0.09734903754713245
-0.06603951294489291
0.025689520142447297
0.04491504783855166
0.06350436354548808
-0.033840039376245634
0.09868257704183458
0.07074730454077777
0.03288209794471442
-0.07030675350750071
0.0861161300779344
0.06310762311528784
0.007947516501048801
0.012366650032356208
0.03741098067355844
-0.03422642286868381
0.07492112005173429
0.09357342746566988
-0.05446250045179716
0.05910730890313637
-0.07199647328779336
0.010887759369214697
0.08301653996851718
-0.08726670797730664
0.07309028444026486
0.07722510199333624
0.04878714002420234
0.006981396882170268
-0.09043098075415285
0.07953330512167839
0.006722324522498879
-0.06363564747917463
0.06067044667430485
-0.07105805156035756
-0.017310330162553525
0.09658311416518825
0.046299290122236825
-0.09561356771304008
0.051608126206706934
0.0668388160125826
0.0981767792200082
0.03375836518956879
0.07729139805216695
0.029011903273978457
0.09033662621790556
0.0043686665467305985
0.06700390015398514
0.07284710624081392
0.04222624881443107
-0.04175916617442127
0.02403970792222046
0.044532038941371616
0.09694864472160064
0.06904807232132279
-0.05729514162295418
0.06599453582433606
0.06340904145892992
0.05497966741402677
-0.024755024182169544
-0.013026889923075838
-0.056586771942585046
0.04738651364105295
0.0779223637577012
0.02125220250626951
0.04775088802162453
-0.06080383504719755
0.09196773275050876
0.09814683712355401
0.09747478462534778
0.03807892799866627
-0.06858445060558373
0.0845751416616661
0.060596412711785314
0.09940063775093275
-0.07343317846472736
0.08768557956024967
0.06806777803042341
-0.04365672016833177
0.0075701982166754
-0.045977127344876495
-0.06763807111536146
0.03810889597679426
0.034819139978096436
0.03470787910018561
-0.0416535515450751
0.09582122061022325
-0.058089340142437995
0.006859393770707142
-0.06370244583786824
0.08436350274799367
0.03625334509438957
-0.05322011653242165
0.04598485903740296
0.016583645566820127
-0.008203824656380268
0.09034370013896098
0.09331337950577828
0.026726365030925625
0.052064511531094565
0.06099733345254435
0.06528863875593277
-0.09992454920841999
0.09238796298421995
0.021484032066517722
-0.028167661832365132
0.07841325437450256
0.02535148313262725
0.03770295120471723
0.003463083635970296
0.09241637650683601
-0.09746598068323155
0.08130048582415966
0.026463402485164655
0.09963127111863226
0.03229657819271767
0.07047185871079537
-0.03822936195482315
0.0685906964078409
0.09166723466453117
-0.09964682839047004
0.09096988318319749
-0.08318054771587886
0.08049680885562202
0.05766065471311621
0.08154173007691282
0.08112639537349858
0.08361892062999612
-0.03076333020831637
0.03761169330289485
0.05344198926921204
0.07241702037402548
0.07478027953086183
0.05392259184795034
0.09246236154687745
-0.02703446296532737
0.04843850736029659
0.06728225544021008
0.022987936146874582
-0.05537177187644983
-0.09664495169599403
0.05323679043275675
-0.012500372816140748
-0.0012203601745143233
0.09005434333981921
-0.06340459454706945
8.791784220740784E-4
0.09176551317431936
0.05366337310504274
0.03592331933378745
0.037649151256619634
0.0881937230583239
0.06852010577398462
-0.05379764386010412
0.09100967974099047
0.02356631942872338
0.07216091330733332
0.012539980586037114
-0.04071535029119393
5.779664945276264E-4
0.09217275355932786
-0.019342663108151317
-5.154520565598675E-4
0.039629690665963974
-0.028695043465922943
0.024910487419722113
0.09773705890087062
0.04406332023269938
0.08233035670229985
0.05502456166178657
0.011995693392278586
0.014215817676427558
0.09414883937911858
0.09198909888447523
0.05172560176858146
-0.09850311184376795
-0.02194162875589807
-0.02987657098736747
-0.014549639148719248
-0.014247509536285646
0.005992300424078875
0.08051099243780993
-0.0052551365794621385
0.026452290355093083
0.017897775526782553
-0.010166226127793096
0.069400302066499
0.09368956138166515
0.004734199334540348
-0.004002848877456347
0.0721489323157383
0.05353349442185007
0.06905678651949215
0.009236047985302531
0.09320852659116025
0.0451690939557908
0.023164055449711923
-0.0030860988104882
0.019304353809480146
0.04722834993710695
0.01606058947091203
0.08450049399279541
0.09252847862059674
0.06376856522599927
0.08678427539666358
0.04220746043067955
0.07632636240881518
0.029875872545740645
-3.204995163433727E-4
0.08347921864203556
0.08778361392612377
-0.06190798648929605
0.09283458704243569
0.048397838637565
-0.04314054278939861
0.09882402329317133
0.023048800342476264
0.04635134167320995
-0.03306470718809089
-0.041109228385153525
-0.09815801971739417
0.07199138625301765
0.05478340703012252
0.09056056452869454
0.07485918080112466
-0.027946646325806984
0.06080750108758756
0.009033533620123074
0.04204944982549777
-0.048447292855882285
-0.007680845846105427
0.06930763810711724
0.07023753433530391
0.024869660150706102
-0.040669504829430714
0.04495490684350878
0.08660198037205086
0.0929965338498763
0.04958939236543922
-0.024004181085824833
0.08503365844684907
0.023324950017404075
0.008546882089578808
-0.008033147269362773
0.029808243335754714
-0.08888528579222767
-0.027926821215753822
0.0312556105636681
0.01413124003238904
0.09367716291164616
0.05878837217615146
0.06598474779184041
0.06765347968426161
0.006548232999867773
-0.08733434307099722
-0.02334131008910277
0.06250108542892896
-0.09988629971740343
-0.052275115310254
0.05222930322631136
0.022376290501021676
0.047350705129344334
0.0789324555171815
0.010904081024853171
0.004974209326882653
0.010826735122670128
-0.009154029057310373
0.02435508889212261
0.022352016393232005
0.05074079536128162
0.019563175067869407
0.08367793880364435
-0.05451595924368723
0.03669322608652162
-0.07009262827979687
-0.08000158105744222
0.03610883690668043
0.046281525633512205
0.039553477817244886
0.0055511531859628455
0.023124751792606466
0.02210459042929437
0.0201149264768756
0.06962897664587214
-0.04896960007506071
-0.05210506495460643
0.03570632258730014
0.09507472100603456
0.03770995070107819
-0.05271099659839041
0.06775591164850706
0.07447811898288212
0.0682256014463602
-0.09143008237064067
0.02319935682548835
-0.007422008559871865
0.039238387561466054
-0.02375063613594984
-0.0337446735041463
0.025275550071937325
-0.024639699067416143
0.09627480097786872
0.08351610988360034
0.024238129761962934
0.06940566684991042
0.0018737779263925947
0.07248469557688597
-0.004053693713977777
0.08167007663656714
0.019329193401024444
0.058097802805619714
-0.01078541700840667
0.05111719201583928
0.08583755119241884
0.09675349583381748
0.012571791687851747
0.048536553987901326
0.0246422201495142
0.06609682985724222
0.07336343798130743
0.04610879037850435
0.08430722737636512
-0.042865104823359056
0.04225384307520472
0.07069260105691483
-0.0574543456383233
0.023804883299020543
0.06990419017056423
-0.09360064536926226
0.048886726514714984
0.0019042702922996424
0.05101228080041531
0.003011847201181528
-0.07256484485756592
-0.03444511982459035
0.08405428015425204
-0.005911467775618989
0.08576313293836982
0.036611363720414236
0.047963639165601174
4.0886412701474084E-5
-0.0718310642292152
0.08020979858844554
0.07503705639066197
0.021986140978621324
0.08551930101572258
0.0723200318167814
0.0027148613405645894
-0.02007314537384347
0.06090522561058748
0.09710554998555429
0.041955085420883914
-0.062441887390041716
-0.06951239648809693
-0.029586566141833137
0.010081780625201459
-0.08313933582670902
0.03986084646623539
0.07131749457919101
-0.06092237725529819
0.06924483561727396
0.05987470865143288
0.07085877506968172
0.07211538982298904
-0.07808138091843539
0.057261750402734124
0.06609369175724358
0.05530511079619377
-0.09250907873637992
0.06589062838508647
0.03613609706976914
0.01269014859765838
-0.07505467985348506
-0.027744785778008027
0.012051345703766161
-0.0919996807025466
0.05369572625565486
-0.06583583537151444
0.02812112829029631
0.09940211955180861
-0.04623798803772525
-0.08883628678235386
0.020661846913778786
0.08070206344499642
-0.037919955276217436
0.09380692486830361
0.07299307434059205
0.05180610675910882
0.001962761758688439
-0.02809285253094304
0.027101550765976617
0.03600523646206877
-0.09416174878148638
0.07435756492924087
0.08512089228032765
-0.017768837594119832
0.03219994706367843
0.03369976356704746
0.07782105271845874
0.08234539070180205
0.05470406227738195
0.0447734633150855
0.016887249513057867
-0.07935414109820779
-0.08804352856393517
0.008756913308697531
-0.014183224903927816
0.07763538658499369
0.009918937803170144
0.09771480287965242
0.04200965469346479
-0.003976944768469923
0.06426423761644429
0.02979682620613211
-0.05820512183807836
0.07661559179247573
-0.09023112736722351
0.0618112371225637
0.025840062232622918
0.03312638243840735
-0.085338901272256
-0.04441737436047153
0.036734697715035514
0.010366982089576926
0.025039530974244384
0.011146570197993061
0.06622906191160802
-0.0814261014680984
-0.04691905192687541
0.023031347853773018
-0.030628968968316683
-0.04204838641138808
0.044143194274036346
-0.014391341671896804
0.053635349276841604
0.03390223953833593
0.053166866818117636
0.02391627948813585
-0.06877732886240728
-0.02713145964278804
5.6693295443388525E-5
0.08400205338287645
0.07891024709399613
0.045786529279298466
0.050428870803521014
-0.047316471324886464
0.06725763538422169
0.05488364921315553
0.07097962738389696
0.0809937015282941
0.03814866089549368
0.07296180563932336
0.048576512633023594
0.0037791625716207394
0.005137576436097149
0.009024319819555995
0.07508251124001755
-0.07604663127724268
-0.03831469280240785
0.06452132869203661
0.07006420637281241
0.06753734581711174
-0.05547175933124383
0.0973696499790827
-0.03524701484793623
-0.053424686615593804
0.06522027019578636
-0.0443078836694598
0.0783078482293108
-0.031161553387654972
0.001068305640089015
-0.09369671364709896
0.027041320124205098
0.0024826871842654474
0.021241729887746197
-0.05152945821685449
0.041861578725002235
0.009709367075663528
0.06585745388366185
0.05432555844165185
-0.09893404041686223
-0.027309027712408146
-0.08582765496592322
0.036821039972585345
-0.04288565058976253
0.011639102444161123
0.018133546897622935
-0.013025823868893921
0.04548592342857702
0.027966640844087925
0.03121644845351393
0.023879505816187932
0.038914438202600043
-0.09343946606969325
0.05555772469720596
-0.04045830316184734
0.06118088138158859
2.2731057381057684E-4
-0.03784947750831797
0.05606508914541761
0.002823011875600523
0.07503411829327117
0.03170204644621688
0.010859761367664644
-0.07857581917912511
0.0471083324154071
-0.03611577552703883
0.07038636811455853
-0.020306006537915908
0.07120015403016552
-0.06800418222293844
0.0011155588852348741
0.014665019145207375
0.03222207705373639
-0.03687282822782126
-0.06020439110133755
-0.01880255199048056
0.06692984481446201
0.06487084932751674
-0.06476016127183684
0.08200083219609317
0.0820006535736788
0.03307014325269683
3.9074005063048645E-4
-0.05198946903527087
-0.016799442998094494
-0.08542395914042683
0.08353823040896538
0.008337838563386796
-0.0893949178857362
-0.01280360540586431
-0.04615964462759012
-0.09140910733249483
-0.09973946719758654
-0.03694933133444747
0.01586896232986404
0.043295572277269184
-0.03317630646924133
0.059139694479630106
-0.0464239281751656
0.0398919797481333
0.08224142404592016
0.07568316224484722
-0.08171826045692966
-0.05233199012611132
0.07517944088722617
0.031135024405444522
0.007378888714905635
0.036530705991837414
0.019004976238142263
0.009218779997724372
0.06339933582522753
0.05872285254911622
0.05057148040035006
0.08619235472353251
0.011025267607756475
0.08683582107484508
0.06219185404470684
0.07360964463955857
0.09256008494118081
-0.0577163918765527
0.06603846393621238
-0.09364192059222122
0.018962816531872678
9.315894687102616E-4
-0.07096779250012782
0.04279682187289982
-0.07352487635407931
-0.0723708095338416
0.019362674437026065
0.07661682733394493
0.008183735913493556
0.04714591519564018
0.07325610729803589
0.05327332066122972
-0.00475822996244131
0.004332463055031821
-0.03985804047878187
-0.09518949963896209
0.0020379948727637792
0.06208093831264755
0.04474642720747271
0.025726374732148144
-0.06508932066327772
0.06451421602319277
0.046690430950129536
-0.014857250092777857
0.039849101251484526
0.07717200509439084
0.03980900222859615
0.015990188597059668
-0.0024766032014247874
0.01939940204579116
0.09934678284311721
-0.026907674545305613
0.029780722126607567
0.05292585766024596
0.058431205074013975
0.05738884865758234
0.07731776229937246
0.032672242541671725
0.020843767644719596
0.057050241602496
0.004069069314067794
0.06220077071257002
0.08481859108989201
0.030566235573597833
0.055108298445558535
0.05161174660433243
0.09861661073083697
0.0656360899523861
0.04498478575478046
-0.035054632650600576
0.0011322044511046236
0.05275988438657864
0.06264735013413644
0.08451475972243633
0.06557848338245123
0.08429421215095972
0.09292589590694336
-0.08075306566572059
0.037052909115457305
0.058760807458110215
8.171491535539643E-4
0.0988758341625246
-0.0928449080558453
0.002886378163085998
0.08079929694926952
-0.04977239459431778
-0.04485145845584965
0.049877788614856644
-0.07202634261064689
0.023340438617868026
0.04250089771618823
-0.03373409319389915
0.06264779025858447
0.013728178441368866
0.04335836401750093
-0.009110243984659608
0.09900512990420898
0.07904346530141051
-0.028007659090315315
0.04323847738860559
0.08376011945129366
2.716521386970233E-4
-0.01307874208019126
-0.08041499634224077
-0.07072849017969249
0.027550014564143133
0.038014925379800335
-0.07950521947419828
0.07619938594381717
0.024746540061648004
0.0024733482003004015
0.03973548116555989
0.04160297624435305
0.08720949018242827
-0.07144692208104575
0.08488719825947869
-0.04835391990745012
0.0736446407882208
0.009345643401310083
-0.007757947754072722
0.09824295820266726
0.05193127592093777
0.054213319041871516
-0.052084825447925996
0.03699537094184979
0.04142528893829864
0.0011433985064750046
0.06505790220651012
0.09358431502184339
0.03023342860230155
0.0688997764461585
-0.07766634415404763
0.053634242031946916
-0.06804925613377873
0.08807324700246408
0.06979163160223661
0.08691244775832047
0.07705590367773182
0.0849279336381632
0.05269019201643049
0.07585231772532519
0.07871847755833347
-0.010985932839467721
0.09356741775642857
0.03570305735668827
0.02947459004414929
0.09903095457495653
0.040724677971864326
-0.059842074580128544
0.06029510357987225
0.062039204048729035
0.04690462281120239
0.08556247658092034
0.02938411047134859
0.01876989117885501
0.012956271834521194
-0.018215582008937595
-0.051873766186514784
-0.060743920322472014
0.08392114943325316
0.04667189319312584
-0.07707414727154817
-0.08157779327045019
0.023576045661367645
0.0026452181422512294
0.08610363381906053
-0.09004696267568629
0.046585404791657126
0.05309313908726679
0.022999757718583605
-0.05371857751059315
0.07115142748357522
0.01275017733972976
0.006356512008054038
-0.08126657714341312
0.09230776606297655
0.011469037812521093
0.04374168706288045
0.03013756881436022
0.02935440076866494
-0.08743249206773729
-0.07324566375742614
0.08939002759497969
0.03456047977623272
0.07683290153840816
-2.6978477165555403E-4
-0.023479757273024204
0.021533016361953053
0.06829425311103729
0.07177656875367716
0.07409340748328802
0.07004679150536716
0.07807421301634138
-5.60053824659193E-4
0.017719195011832667
0.04065990024086236
0.03141989174223764
0.07295252934663032
0.072262452378755
0.03579335323468638
-0.09286964307964385
0.08475380512532107
0.095713808572716
0.005574358307500707
0.03226722150547748
-0.0043219509240822185
0.067689080658448
-0.08594273251221773
0.029229464291465196
-0.09655848837997187
-0.02866631670964273
0.023077437732022088
-0.09747605132322563
0.0726065520099603
-0.08556453131022164
-0.01700735466084201
0.01135784726376493
-0.029128885614238154
-0.051652247761019766
0.05210744867914616
0.00260398907869
0.04779150560681247
0.03370068539790769
0.03696315652065854
0.03238149250578343
0.04915039111344813
0.06217447547685634
0.036540602186507454
-0.01884353879049526
-0.07198614543724649
0.05147503293784375
0.043005727314542774
0.07413070458296658
0.03048450599049693
-0.09697985969491282
0.026213808483699336
0.07812126235819081
0.03711238302018288
0.0072478200185443625
0.0013564440161539792
0.004071753609433057
0.07829836417111857
-0.061172926232303006
0.06969501083556473
0.08317163741594236
0.036181527661793556
-0.03277458367468887
0.05580635436737916
0.06016123266264001
0.016604946946565696
0.07489592380875917
0.061208947331491376
0.05650587855539396
0.0038490009496266603
0.06438881541555222
0.09378572774273244
-0.009279350905105871
0.06399725965967032
0.0499168138017293
0.01831675009005361
0.0454335916870546
0.0338874847871129
0.013801012625310818
0.05659521686510491
-0.05164088811090739
-0.055594495009619244
0.04449857754641692
0.0493738413914738
0.04095630622484775
-0.07168049469416446
0.06462609186887933
0.05138108401386135
-0.0442991713511663
-0.014153109662460528
-0.005797187244217503
0.017883866583917676
0.08251325878572671
0.08532219786737782
-0.049311885628392574
0.01991150347193915
0.04920106935580193
0.012488889411571627
8.38133311926767E-4
-0.029557928717889217
-0.007473408601939041
-0.0437651306304535
0.021158315313718812
0.010497316749710578
-0.08730228317670939
0.04068590499158059
0.08670184569418526
-0.03465812544876022
-0.06290068357524317
0.062139281376147715
0.05206656016210279
-0.02136685176821254
0.08579140237469804
0.09756885983749869
0.03135449546145963
-0.03206452389236662
0.01844518779154483
0.07737572056589981
0.0422454793030107
-0.09835940696925767
0.0916732966793645
0.05020934192989987
-0.09448009286654241
0.0599564441392747
0.013148269577246213
-0.06226585842137144
0.07765494324695196
-0.04840569485989521
0.0815391160577145
0.01063783542620493
0.08905610621151949
0.09980567249436537
-0.044423992828280204
5.789134877291213E-4
-0.004888364905313358
-0.07439608491587563
0.013153962233943176
-0.017061364728271036
0.06227124155031499
0.05632765177776433
0.03439098949127348
0.03307759272972344
-0.016202607318293205
0.016449729984746364
0.0945837046604292
0.0838168382389308
0.026795113247766095
0.03880482181663303
-0.09536356186045367
0.08411541946723697
0.05847140246413346
0.04498680246722034
-0.014295527932871727
0.011648221614652662
0.013583249471819492
0.016812354948028588
-0.06974532916447138
0.04668236551039498
0.0015413161223916533
-0.0848451223069835
-0.09379115567765073
0.00974698948265268
-0.061935975803004195
0.005805799087410482
-0.04425180376216927
-0.08745782936923333
0.006931106233217479
0.07804696814874185
0.05750231380426202
0.044845198662936236
0.08188311344592816
0.09988324377203367
4.535704886741154E-4
-0.03236118008467498
0.08504239995148363
0.07623679954405818
0.08611363200738428
0.07668049742532479
-0.05153225403564341
-0.017232460005527764
0.07166446083527486
-0.03704225950871316
0.03225927418612273
0.08213307371201589
-0.007194191040368322
-0.05862119108288979
0.08526918037926368
-0.06280441077441218
0.09229255712989862
0.08151190502492642
0.014299403797395596
0.09232266486198043
0.09277476261718876
0.06395375627167346
0.07347578930017398
-0.05829376298888565
0.03309837639283614
0.04081953311423747
0.09101937595427198
-0.09601618328803423
-0.05447134164975362
0.06969431721711092
0.04017634103538992
0.0790145444730739
0.01951256607357714
-0.08302876738076201
-0.04027358962199851
0.06619874387915883
-0.023280608736015465
-0.019442955147881108
-0.03070084840504962
0.05702580126915488
0.045522155291183974
0.08181515863917174
0.09619364640691569
0.010873035876080683
0.017857061751614126
0.04861209921867424
-0.05377861580407732
0.08565961237216954
0.013653513193054412
-0.022815877475224067
0.047092610020515874
0.04638557272281296
0.050223060258123065
0.012955288245763197
-0.023120855388874442
0.0036843874246060976
0.07722322067431772
0.01758878903115206
0.08254294701349363
0.07112993945844762
0.08117556434222784
0.0288477971802307
0.04848577840072221
-0.02325619400343165
-0.09729334741880755
0.0938733249085047
0.013750252403381624
0.06897673972021717
0.08632829146483373
0.01484583244826193
0.02269956352463294
-9.24193572676632E-4
0.029030984682415578
-0.09583710877905666
-0.08026465304338144
0.04770319461021488
0.045500841806513675
0.06354576811496118
-0.09264325096177432
-0.05795356552276921
0.028568475834974627
0.03543813862653075
0.07739458285408815
0.007621729936718627
-0.09407791850401366
0.08353834570470345
0.08901770537349124
0.009438468893924051
0.0972987711090326
-0.027254857420635326
0.039563276222560756
0.06493886669377974
0.05938290048922787
0.004485291401769245
0.004659636106727483
0.06754786273120394
-0.08732856314225487
0.007294971544134429
0.09021851855437385
-0.022242279299366882
0.0575194549904626
0.036268440519921424
0.0845317858684238
-0.07451946260258428
-0.011637477888482337
-0.014967960530942986
0.016082755451526737
0.08446062867603257
-0.02522464390529451
0.0063133909549096395
0.056562998647112145
-0.04094300869606481
0.05069755891375713
0.05763085231340734
-0.09415080465046634
0.08434222643752937
0.047625005469014436
0.03633410109408053
0.06444111857215248
-0.02558188721853727
0.08036273068009891
-0.08269106740395964
0.05230414986776721
-0.07188034243697158
-0.06679810744273304
0.029597923131495257
0.049297046385486515
-0.078291733129132
0.09952435496606196
0.08706173286053126
0.07172983986637135
0.0757117849797018
0.014307617000571718
-0.09455726463857707
-0.027322192046157975
0.04223383184562313
-0.08690502844287074
0.006233655566207724
-0.07961458530532402
0.0011677708481537818
0.029509792017200637
0.042301214984888785
-0.07533085721219589
-0.09309482614021125
0.06526169353593964
0.0544641817123834
0.03269459390097043
0.025800157519373063
0.023669954018540648
0.04055689233808005
0.012205923138719044
0.04129224500304851
0.0395064664474514
0.02125672034078982
-0.09818387784138442
-0.06026316066788829
-0.03761699230135629
-0.023060766486670006
0.049162923853455054
0.008939207092156565
0.05235316918064711
0.0819052740421079
0.06646097488531094
0.07658728783778249
0.0604204312231352
0.008682072035909025
0.04461434827886013
0.038733585899114104
0.057270266066421605
-0.03751124255975244
0.07488723926455265
-0.09305516269379385
0.047378725629124846
0.04876612560645879
0.09746461796425618
0.04342161754800489
0.02004804104306579
0.09981422505463453
-0.048009765600205846
0.04375482791536736
0.05850361220352382
0.025174422101624905
0.019731753005752736
0.05954930316902121
0.00844161738739145
-0.04706440069375826
0.07575883445926915
0.02221628330938477
0.03117717820556168
0.015696486178547922
-0.09169659174305626
0.09263859258087995
0.0870774965230316
0.002985566346292351
0.0538724038389877
0.024497284845150055
-0.054536157860497196
0.0748775493283449
-0.07532954751924723
0.020058642315610498
-0.051893550795327245
0.06906992420328917
0.08596581951505802
0.022263368900331093
0.06379889014890797
0.03496190125405654
0.012602406815205289
0.01802902253780983
0.008303477934011538
-0.07494309161703842
0.07500513576792306
0.06116190699764426
-3.1929034473195117E-4
0.00803900850488097
-0.07592484439216404
0.07103340071080325
0.012212179930856049
0.08854385604215864
-0.07614735301293574
0.037311197891882475
0.0666950974573153
0.09651274332399801
0.050103434384044104
0.07340252966120428
0.09699079283980744
0.015877335312879562
0.015412211275477317
0.008734792578712722
0.0024845658508538815
0.04825980121948403
0.06448232931811082
-0.053520623634218265
-0.02840088540643354
-0.03925193127719652
0.009533337081077967
-0.061230892546793494
-0.0996584691134883
-0.05151187085235257
0.010730105158288275
0.05013693811499437
-0.01003144662294711
0.007560739608891698
0.019918895369606768
-0.09971803536646615
0.0891209428115862
0.0775034746208029
-0.003874431357045044
0.0757186941915503
-0.03329544533250581
0.014156672984883614
0.010496776492369242
-0.07308273073668284
0.044522623692816926
0.02742288434819712
0.07652301596492142
0.04256633767956422
0.048210627612940204
0.003509676437312939
0.00437647230676616
0.06043191167465056
0.037310446009679366
-0.09120535903075756
0.06004276096331071
0.04699230923399936
0.00856544805219453
-0.04032741979996614
0.024270764826282085
-0.025979918514536432
0.04243930268365295
0.09025638922918325
-0.09322555286875792
0.03278333376640338
0.03088969167088018
0.020310440924558082
0.0031103372851013777
-0.09109629462727437
0.06875390912452595
-0.08015067031820909
0.01209861929132848
0.028974150659422826
0.04326617979814784
0.01989204875232052
0.08291089938276419
0.03491714641858748
-0.07167594230834431
0.03875630698989316
0.012183698155205536
0.0862883754897869
0.04631786386090969
0.0947042903596439
0.003773183278556122
0.015992980611871377
0.0311944349848344
0.09772671749618844
-0.06764051279778305
0.05761413085681036
0.025286084103616713
-0.043085979112242746
-0.023825850651520694
-0.061546036767065465
-0.02380355129011892
0.08488463417826936
-9.083152254230065E-7
0.067774248402456
0.07894335130102448
0.016626105656128667
-0.05175731430968113
0.008497356489579139
0.04803730670195275
0.0702683288437563
0.072365391092164
0.06884426552224521
0.004327481563496438
-0.017829377005371003
-0.09318043371575652
-0.05448854615414704
0.01881303075428893
-0.08643115405210862
0.016483781835988337
0.01044651965241812
-0.02289774579908936
0.060546969778734056
0.020610636349123412
0.07698186670042281
0.09381938132917234
0.013009945036627113
0.02861759454303603
-0.06704802495315906
0.03978081183655077
0.006363272288209154
-0.05753597880452385
0.05359072403485185
0.045187997906434685
0.08314977983446484
-0.014856020123073632
-0.04492045699647114
0.028920178367011745
0.017849229893177984
0.08140358697306987
0.08658289326931387
-0.03658080226572448
-0.034647641494414724
0.0900329877282682
-0.0753700419206948
0.0629266330111013
0.06346694354174168
0.03967869964199308
-0.030398849260016514
0.007142417328318218
0.017632347572853063
0.02720092080564815
0.014820320914355714
-0.08448423974263515
-0.033153339420891464
-0.03126274901494301
0.06503917858482491
0.0570993046524057
-0.024432960745472826
0.0854346468352874
-0.08920268252059338
0.011697251957046267
0.04057624862754111
0.005084593937129525
0.0589683738965546
5.348007879110023E-4
0.04010025501784331
-0.032467867824803
-0.046325455400622446
0.07220722331978396
0.0946072994465999
0.03799737903472675
0.09036678881324242
0.042060149666436814
0.020487051092202627
0.06096849720105149
0.03884038961091535
0.08540248237340956
-0.05406013960992819
0.08834597639166628
0.06962096080089697
-0.09734614243488225
0.07745674686019846
0.06413312206636804
0.07222768875741886
-0.06189400258479472
0.05927411330058652
0.07897079413778046
-0.028753245764506247
0.004125624627059163
0.07034922327507412
0.04708596463714387
-0.0402814933143649
0.008029999632889431
0.022164494493335435
0.09357391872115728
0.038717820508031076
-0.08223978496410943
-0.03788809219655805
0.04844067871118046
0.021104739096138886
-0.0632326330774799
0.07918423811073241
0.013167132689358235
0.08195113432106746
0.03700720994942219
0.08763179615422026
-0.0371915685591009
0.054709194838721165
0.058485762325898166
0.08341533515787727
0.07300698921535201
0.04215948811529982
0.0382863762283108
0.020527256585937403
-0.09500853241479788
0.09242953637128332
-0.035080019850154395
-0.027057020557311948
8.802159191004938E-4
-0.03766506620337387
-0.0662214877174035
0.08498299905938178
0.03937294325693225
0.0066323317491638195
-0.09168496766451614
-0.0061655717797381715
0.058770704144811114
-0.03190376639532588
0.030389598584300154
0.046851553689378045
0.05689105828509433
-0.08477970088084857
0.0731975148355393
0.03992707754706712
0.05041058232463183
0.06379517928300799
-0.01825238204078314
0.04935290465619063
0.09558147680004711
-0.02445504498709887
0.048588386781932724
-0.0898512476199415
0.08160646785386869
0.04085160413030631
0.07995725148580962
-0.07660459423534473
0.07533914823222221
0.022620687147342028
-0.021921499973771172
0.023732668072654686
-0.05274250687468976
-0.014180319094428614
-0.0314303746440015
0.030822764866287655
0.0026687603312821467
0.02571071845727596
0.05293124943127461
0.09059641206976704
0.03401869868552368
0.08488806728278825
0.05996664274864219
-0.07630448320275818
-0.09817074563940052
2.1809724011973008E-4
-0.07657092761286942
0.002087161538957133
0.014752665961765915
0.04197423034886302
-0.05505639477909244
0.013890589680470605
0.019256297193803826
-0.077881113377225
0.010569956678134984
-0.048248398226223954
-0.031019588426549297
0.019573157890846724
-0.08758524251780256
0.0951220971506633
0.08195971107910843
0.05421982049957416
0.009541057468195516
-0.046329598581634136
0.09629571162479197
0.005391470008189431
0.03756920729807092
-0.020664492159393977
-0.012793947801333264
0.04925421496223545
0.017826197931952434
0.010856793600628481
0.09861752455973749
0.029017119818550458
0.03186505365531758
0.004003236400427976
0.005848524662242727
-0.08220722280376397
0.023234070932261944
0.05291503999572031
0.015338700365142066
0.0352638354879887
0.02340854973819148
0.09362949264599471
0.0535004854101519
0.04191637039122295
0.05135308312820608
-0.04896352820313056
0.06502448426875507
0.025120873834926755
0.07847446927194407
-0.03816119973733669
0.004307976316528572
-0.061612194343562784
-0.023459517158203255
0.05065397746328437
0.005748974137328
0.03609758595769111
0.032065964947933734
0.06603817787888394
0.06098311390762354
0.051637266143925886
0.05156583251505725
-0.01099914480673439
-5.64310331736928E-4
0.008558652784096857
-0.03864990301327871
0.09813350502048737
-0.07797262482778847
0.049281032328473
0.0038215189406932693
-0.08497531580621838
0.08701350215371775
0.07579472970389761
0.09553033657392654
-0.09335560027801292
-0.009360227377022731
0.027792418638058952
0.05494130346699094
0.04534632310927603
0.01643373422502073
0.020667160493581513
0.08416702235509138
0.04697915515439749
-0.04907326735703475
-0.02641024623934954
0.08459659726927035
0.04592852707044101
0.06516568407695866
0.07272412553540328
0.011607084729160624
0.0398817165285941
0.05863370577274002
0.08622746665383305
-0.09625568873203587
0.0998921234590461
-0.004722299137026237
-0.03537457560456467
0.09684641706059527
-0.037593224655400506
0.07829339642247513
-0.0036637733328953453
0.03676140687272755
0.025506883897459726
0.05523953426599551
0.005919080912484012
-0.08375512765852383
-0.04826289296565609
5.343711903634946E-4
0.004800708771081755
0.047692201862755496
0.026625032996496906
0.005180527770170654
0.044172364883222626
0.013054699565784714
0.04979691922327803
-0.07658286356439825
0.08703883207153679
0.06415239103398923
0.011384373991818547
0.09716749862912791
-0.0012337390728987263
0.0444738144574649
0.06354112490939426
0.05279977373153527
0.010572315854262798
0.033383152945398176
-0.07143973489582717
0.07088362590455488
0.027510828510646734
0.06354833722535908
-0.07933098931028795
0.07156309376499595
0.04464893475882478
0.016368885697716315
0.04964387780377352
0.04439706983667965
0.038082618338194846
0.010085506419936982
0.027925589478663332
0.09319557809622539
-0.07809095876859964
0.02638842385908055
-0.06060887241724185
0.06577636761617542
0.07504714305105592
0.0616618741397974
0.07376934715252992
0.06822287071223726
-0.028213973291798533
0.03239700944130067
0.03828540681675949
0.09637763582533804
0.024754265347173426
-0.024037324360182938
-0.09648201139324378
0.08341638844082774
-0.007368189418378676
0.05786265674322055
0.07839500897639598
0.06267952646281319
0.07667328152724909
-0.06910089223593902
0.036150908296568834
0.013089877427247792
-0.09337449148624946
-0.07474563664217679
-0.062105146172093575
0.08542801226662736
0.050272184943134346
-0.048591087506035836
0.05992551699862381
0.09881244094742453
0.025823636181207116
0.030409453882519505
0.006056448159772854
-0.049733713554365594
-0.027480117305019286
0.09749719347906868
0.062449671997334616
-0.04783494087410009
0.08427862941881628
-0.005693567206464856
0.08290517901238428
0.04083009971644605
-0.08273226604399413
-0.0743210324520667
0.09886299304694934
0.09727813701723126
0.052693280344585175
-0.08094160963899763
0.02065870477342216
0.03935777681274119
0.05692279945424003
0.05205799076541978
-0.06917948518141964
0.007557455763698012
-0.09483958222743073
0.06640892904767781
-0.06761992735962677
-0.06816942594577431
0.013956075040699137
-0.036309705393432715
0.07883540821976912
0.01719078822967403
0.09712462840194491
0.05034352709597123
0.0720478866301271
0.009163317113554864
0.08890092278273007
-0.03247621535290994
-0.01836963259150802
0.0680114139458457
-0.07192084335710328
0.07008659138974871
-0.03214270256369367
-0.08506742467120319
0.05647970963085769
0.022461504936942017
0.08457336633416787
-0.010804977889845246
0.0784637869758796
0.06988085262620841
0.037203091069195726
-0.08724120836504644
0.035679388219811675
0.08145300143256595
0.002322175325043377
0.03252605512591508
0.05177005711906715
0.021862823909761908
0.06435893382338365
0.06836269772036752
0.02376032918415634
0.045019253155005184
-0.07799631993365744
0.020984772852283673
-0.0879770430796885
0.028255819762504714
0.007172750053295415
0.0020514777239691306
0.09810259939166491
0.047341569725218496
-0.03349137775591468
-0.0016249509419374725
0.08588516731792331
-0.02770467064186037
-0.019766441858165076
-0.023989894727082198
0.05624125924802542
0.09116618536316595
0.0985025179064494
-0.033202858650422176
0.027032999135648078
0.004556031457888618
0.056568377873273346
-0.021603377596003864
0.08569656601552153
0.008650875449676562
0.06720629596904187
0.07923547479366883
0.017735632583865873
0.059273983145110704
0.03357494359841126
0.04833002446698778
0.07163985956947466
0.07888542336907942
0.040624040119190186
0.008768227980839705
-0.022923731137705114
-0.007863458337575804
0.060480799238948
0.04606658008864903
0.026171297166401486
0.006453996174089094
0.0590684323488673
0.03738131137015832
-0.014035265710673137
0.04879167994801914
0.0783271608125087
0.05028135792795907
0.0037283132316529993
0.09051779334332011
0.07116655905709354
0.01567714557015802
0.01719357394818262
0.06111911934301345
0.07269993446627557
0.039894779348147585
0.06595964286338973
0.02022352750776868
-0.012131951275776182
0.005871079888191036
0.03388944640774105
0.056562467359748486
-0.04139291758057094
0.06696655475291058
-0.011942581009165829
0.008376236953955493
0.03448334273544293
0.04368777290738504
0.0037922205470420633
0.01099579478309358
0.03615610357244087
-0.01197307456304511
0.02934692003026329
-0.0468769400610728
0.09965692504515702
0.005621751300590172
0.0442315345734845
0.022782016164777735
0.09764036147645999
0.02407293079005869
-0.09710180524952385
-0.056188940293396425
-0.011085688149080397
-0.02455062558901633
0.08088669595987028
0.003073523736522782
0.05819670389357187
0.063502183357451
0.036866059524432226
0.09407476498726816
0.03975897567435016
0.02736187862061959
0.001632790289051153
0.04130382770007604
0.008463026563696366
0.08119401915609911
-0.06825556470451358
0.08808459048309525
-0.02084076477846443
0.012917865996336542
0.05436396703732785
0.060868243522997245
0.0958947980890085
-0.0462284458043189
0.06973623201511522
0.02889727438121692
-0.040732346641423646
0.07263073382302782
0.02994964102452069
0.09890558945351108
0.06647266532648446
0.037592284584856805
-0.051262087798195854
0.04222934644601431
-0.08812499895548451
-0.08945458732445474
-0.0890665757573456
0.06893409890487842
-0.09570199896589936
-0.09364326705284108
0.06166680074585035
0.05705916701487074
-0.08428450902772379
0.0826263814348202
0.09837651328950933
-0.045918956010189964
0.031051144882264153
0.0880973200883989
0.08057697415783921
0.0792712895366322
0.029644347059465892
0.006184994877792657
0.013542862170016975
0.017679519551825534
0.08379709595545601
0.09368080205380475
0.0529805631063929
0.058756082968676016
0.08740057620057845
0.058466183317004594
0.09277854154088591
0.02008176506529659
0.06496895583617418
0.08905501434141158
0.06633578278238292
-0.03189789029966621
0.009175419582606911
0.04623402684272376
0.06502859730557395
0.08594840686299904
-0.03422459453086091
0.05315973289485157
0.03312053019873765
0.07527754214943849
0.048458825389298354
0.07476427406134609
0.04778328879707289
-0.022910039344267857
-0.039028751422452206
0.002476869924989175
0.049587077459992274
0.011048306125227128
0.0050657451804416165
0.015196382575575637
0.07804394908744197
0.09820129457493218
-0.0644559973298619
0.002109004614665136
0.08822691249901127
0.03202565740187313
0.004741257916711719
0.023752508418796406
-0.04070522990489773
-0.02077082468280239
-0.017835433245910706
0.06441177535307904
-0.07057443466614381
0.029585970037698167
0.06554421911948796
0.059332629664134884
-0.07427952184041503
-0.005291818185837863
0.014764197805732515
0.08655305477794548
-0.043912499202535656
0.027404188308965433
0.03631552013451314
0.08826034048662637
0.015750851541518465
-0.05802144528906504
0.03168582303632561
0.0022512138828651163
0.059890886745484484
0.0016596674629979907
-0.08159494643007066
0.054060555328947435
0.032606823673138635
-0.0030545018573522736
0.04199999900508666
0.028606594588419604
0.02895602052626431
0.024756911355635028
4.245488154410587E-4
0.015543162886989384
-0.08456040737782579
0.07184165694433739
0.09403932465443313
-0.022315034485468274
0.054165745015611
0.01869951197002874
0.08607206693141048
-0.06432765534070653
0.08295081951268288
-0.06475402190205468
0.049191004481461936
-0.059777073214828634
0.08832512407082457
-0.06944947120560198
-0.0722890699534695
-0.0027946527105571356
0.07378333239184859
0.03955626089715339
0.018524433345875474
-0.025804691891849807
-0.025948205502630328
0.04235576950653877
0.0418454588533905
-0.059206173498367494
-0.07302439603074329
0.09331964551687005
0.08062180912718594
0.04473136242142475
0.09623493645385725
0.060213045577568514
0.06867838003243606
0.06331495512645749
0.048304325753382504
0.07559939441395605
0.07209956891778388
0.05231742648113932
0.0857536603229318
0.030927396317499967
0.07214019194774857
-0.09367442179587435
0.07089341524266063
0.048946809806621805
-0.014505886406173507
0.005738829144978808
0.014415698035345106
0.06612534071157095
0.060612427873068864
0.09568965015143788
0.07846654023672031
0.07934377546528629
-0.07442850925393404
0.054841518632891995
-0.06641944180360429
-2.3237702200312738E-4
0.04526521168606895
0.03762929522435082
0.044650927316176675
0.07065141462623623
0.09131721297915324
0.041508367580928046
0.06850936275340988
-0.03427176769606184
0.02540719831922114
-0.04677679261161843
0.059215937654058554
-0.08460727980670257
0.09308738254604149
0.09897726379952781
0.040917193116180084
0.0395873670815903
0.043725722045064086
0.07798567876578952
-0.08264906755387344
0.06965244466796344
0.0838886302335885
-0.04111174277050997
0.0018703154283842283
0.02584892023675947
0.03250107708888658
0.08385879338107516
0.07402594349887809
0.07578693858842639
0.08031813112209993
0.008867477883562
0.09772125701766102
0.09894660663000512
0.039997963446441215
0.03178076631626378
0.033207703299865166
0.07101603526633071
0.043656571942918804
0.053195189031709
0.03705620723362979
0.09466378824031618
0.06856954838489493
0.043921774373455874
0.08469857394390393
-0.020296053414334214
0.009618887366613718
0.09940954897041748
0.03881771922046867
0.09723169426558834
0.051907706502426404
-0.04561352834427598
0.021634569089289485
0.045342497997474446
-0.027751322003653836
-0.011814239479070801
0.009692730618993325
0.02823984417434569
0.008818084346978297
0.0913847421415313
0.08689569557955171
0.08049897868300412
0.08335714007360107
0.04271307275473013
0.08945666111410272
0.00266990140056704
0.029950262279817313
0.03647300809767104
0.08397669175558575
-0.08464724994262407
-0.06568413586363955
0.015091234186227612
-0.04443266003281645
0.09709260302576292
0.07920234095735595
0.04304442699016453
0.07774322155046826
0.0031776500866979446
-0.06627161156171704
0.0809138681929551
0.07313520875248616
-0.09503391168162274
0.07570206693045317
0.026140289983908688
0.04072110469975754
0.07374914725112622
0.07186274550780938
0.04431217704386328
0.09306736179739175
0.050280407757875345
-0.07690907593291665
0.06609920005037576
9.043421178548117E-4
0.039402169799501896
0.07056655158005376
0.0019532254849954495
-0.041086218346950094
0.06935723917766165
0.05123879234561851
0.04471089920012042
-0.08990014759401926
0.006060506635737914
0.06356746774223662
0.08664038107927294
0.0860573801148447
0.07652624785017956
-0.016989522939647755
-0.027214057262946373
0.04353401978552951
0.016776642563662472
0.028110180271629676
-0.07753044329084524
0.07439039709116427
0.02397817042631803
0.014110845609990263
-0.0785109786096232
0.047131441493163534
0.012424948695464552
0.08169078780672642
-0.054769955147571214
0.02617553354383989
-0.09350225401671541
-0.09935506761915114
0.031025454569014038
0.03866787110392353
-0.06907032457563497
-0.004600202206091017
0.016868219291845746
0.0876307681075251
-0.0772348685192081
0.04506110737613189
-0.03671327552473058
-0.03293533462450765
0.009721644460447432
-0.0732326720362695
0.009054193576831196
0.03588472561934222
0.04226125002551037
-0.025352030227744488
0.09621081582347668
0.06675101965254104
0.0668709028181794
-0.01735334279778611
-0.03770520171479381
-0.05149272692239624
-0.08094088156139426
0.04068410813178777
0.03670592757401686
0.03883778890510722
0.05903358592827371
-0.06270008405006637
-0.05979025480432247
-0.08605947622538992
-0.022198286765955033
0.026374231796245318
-0.05316627484297349
-0.01777962706461414
6.922812527319633E-4
-0.07306249801159476
0.05967813701687333
0.02661988396749107
0.08085159382073168
0.0716940850744896
0.05049857117361162
0.050953211079497934
0.06754877670313036
0.0814600632288314
0.09807420980616904
0.028944638729258565
0.06440319748286022
0.011889240669993972
-0.005809911144435173
-0.09686367244436456
-0.061752939490027754
0.06325291244131406
0.0951276787549335
-0.08418730502805993
0.01125524543053319
-0.07181163670746704
0.0018351252503931298
-0.04479285994299975
-0.0353481780154611
0.06771243412688635
0.03732646421681379
0.06115086076959142
0.006498966375071122
0.00505309522565113
0.08012062855818358
-0.0067783626974469435
0.055625789085756605
0.03999613261183896
0.006226370934705114
-0.04532500004544826
0.06313716850353848
0.06130119740817555
-0.040608511303763306
-0.045002827739311975
-0.06533319861337497
-0.014012828636972965
0.09447412675858902
0.007552675727556496
-0.06607932410315576
0.019440548074616065
0.016732646813512872
-0.034399291503633606
0.08675461653262104
-0.049023360777957485
0.018756054787669216
0.010885385734778597
0.023344898332666647
-0.05683639824582998
-0.09755461576739889
0.030910766940918377
0.09265270714351326
0.0830269210449372
0.06217606167829187
0.08411864007963096
0.053695807674034535
-0.044879220909646106
-0.051369047562303684
-0.028242318711522524
0.031398344371323605
0.09011515957144431
0.06338746467719211
0.08609192806561913
-0.09844887303820524
-0.09984192568003444
-0.06000409097114797
0.021294715810760284
0.0018451665274059476
0.07723955324371976
0.02427828360584315
-0.08584379350541525
0.06273503683375295
-0.05136042253816727
0.08656092713932068
0.0764696486068438
-0.02798823153808859
-0.018859679779085176
-0.06872832420633199
0.0407785069943202
0.04685104974198542
0.08773897864256594
-0.004404142302233113
0.04809602440153582
-6.057513286348432E-4
-0.0625005337775871
-0.055431952713545264
0.015206320321022981
0.00875982575651782
0.05837125080784383
0.0048908321569954005
0.0573584917443459
0.09602964679139062
0.0796371216537963
-0.05194590872661889
0.013678241550174025
0.03135500299448779
0.03623047383267741
0.01712542641893497
0.0625465396503724
0.008691797946781127
-0.09273718662895754
0.04128713469160608
0.055022244969205575
-0.07547683433130328
0.06492674731591808
0.058891217924468664
-0.018507123523299543
0.06961085724160249
-0.058381268899822536
0.05120029353736624
0.0824433268223411
-0.06725564444839803
0.06872600019475955
0.06974436023552993
0.07093931212267443
0.04962751358007189
0.040365908532863926
0.09445811267625467
0.05354990070988591
0.07900188589860616
0.04252080592933696
0.03350198011152264
-0.08760668718972657
0.049011402220891065
0.028049187408927728
-0.03990395891788174
0.05713235695041777
0.048893521498353076
-0.037725950904315075
-0.001911158883330974
0.012062598984983255
-0.011621124568210753
0.046418458793576395
0.010756755097731885
0.044392650308316545
0.09977465352893197
0.007912943339715331
0.09043579917724018
-0.030070583185520236
0.04894095846887178
0.01817278817481892
0.03417337965906092
0.003996403631732398
-0.03325515467876705
0.06321014089455029
-0.012528203864546977
0.003225479607122092
0.06886106008386778
0.016124100594488794
0.061162749048273374
0.03956616519630435
0.03981593907196765
0.09002347568385391
0.04315989968990028
0.07313132971720937
0.09072714677637764
0.03701825019634347
0.05214041340304454
0.047766557152058714
0.012449648702309676
0.011459018733764509
0.05639931451668609
0.07494345851882792
0.04260141855290023
-0.09151484553869278
-0.06612333058330655
0.09025949146936482
0.06775436765059664
0.0885974893472029
0.04855149718031196
-0.07675292690000801
0.001920342491608995
0.013194392578315645
0.06441105880776987
-0.034608047993170965
0.0445728444873883
0.04108677690358978
0.0026446586340262562
0.09966238833742463
0.08628415699872968
0.016703606396996168
0.03076214224046145
0.033719129852245816
0.0785600263528142
-0.03638676965418766
0.08728920761281167
-0.005655745538031942
0.003066615653242649
-0.045900118601697945
0.04966143618882754
0.05932263668596874
0.0723831718286558
-0.040600332708513855
0.045058741229173666
0.07132091373360422
0.014279877246748188
0.050436784906393806
0.04506061915658621
0.036184566178353944
0.0706678457592628
0.041600568948040206
0.05321400494904957
-0.07713311566862902
0.048988323107134246
-0.060299597276002925
-0.016128632178911126
0.06753008391799786
-0.011396784006404842
0.050581228315433935
0.07767911563632945
0.02111238827820114
0.09027154034192611
0.012767766494742094
0.03746446845273971
0.001334532355576623
-0.08070348864613874
0.043435374847526936
0.05606317716673315
-0.03993340832757264
0.05872035283480628
0.01519986567887413
0.09926264548625263
0.003932178351587726
3.757611481116224E-4
-0.09364973425140788
0.0029275940586759447
0.0639032628182308
0.06728090197261649
0.03703324521948992
0.08984085040677861
0.02545748574245571
0.016872136065530716
-0.012603153995348948
-0.01710683852048163
0.02549755936097642
0.023588278908289156
0.02965282646518222
0.062034253483712665
0.019230362220147332
0.01936806530934125
0.0964405940412586
0.03289572602925944
0.05277912833691445
0.09780970781574733
-0.09343264011726138
0.03991534915780648
0.09354233158754327
0.04947045747010456
0.04345385104861668
-0.07479498774193648
-0.07427522784001514
0.04200569798748982
-0.030610667126120913
-0.09474977324552492
0.016078079463031095
-0.01886219256430434
0.03621124876205689
-0.023472899391843313
0.04408146916628394
0.016674820988389266
0.06375999771198512
0.034638683082444416
0.09650052661817599
-0.056831630602690704
-0.09344598142595374
0.055110759337434645
0.00533933596688195
-0.09362025861469592
0.03434540116744947
0.03177837145133064
-0.05407744724376383
-0.08450385746122044
-0.08650280274577367
0.07846945345368195
0.09488702624603707
0.005639905415444263
-0.015668011163520137
0.09705853367180356
0.049143085029883654
-0.0797840514921227
0.0669305829026289
0.03718499961235289
0.0718087644454643
0.026506965570232216
0.07633473185453166
-0.0996987651985588
0.019783436474867633
-0.06507133203053475
0.0038373736732588287
-0.03474609670634139
0.031966576069996144
-0.014268737766101186
0.03360027028473195
0.06170747829169945
0.023937145573868585
-0.05623751204366362
0.07252380146409382
0.0645566878598956
-0.03935122813215457
0.07615192802573936
0.007591705221364625
0.06659221367993198
0.008336084979906275
0.09441390581029632
0.053669426542618415
0.0643166126995032
0.08092069095804905
0.043626792357654876
-0.0010994237126111667
0.06460745670807505
-0.09055828666878145
0.07173796379965244
0.031909450271901174
0.03994926681133981
0.04147776901378891
0.09007524722599403
-0.06263611571903938
-0.02264081995027349
0.08453922330166894
0.0679426306366519
0.04487524968246406
-0.018908636593325603
0.084931100830335
0.062139364598537306
0.07057218653923805
0.09408239573885241
0.08687974707244173
-0.007243958265535463
-0.05165210084215612
-0.011658705030621191
0.056531044416891496
0.06560361161793507
0.09657661771408654
0.01354396582130804
0.05345383494233322
-0.06923713624042617
0.05651407075260928
0.05418107388595417
0.06275375672716554
0.01996254269631842
0.01178981193029889
-0.011876198313126737
0.0065632725455727625
0.07362070401153717
0.005013861093252955
-0.06862510038424918
-0.029529408654832917
-0.012553942125172954
0.04586587252760202
0.061703582373310084
0.08616657632619118
0.08530971312750166
0.03867613003381218
0.038493666666492954
0.0031639709279970563
0.05086042079737349
0.06940478126630625
0.07558415432632448
0.0852130094251215
0.034428402196312685
-0.029855991526695352
0.09114713833239019
0.016047897517258755
-0.09274888597108372
0.010068700134396147
0.07429844142722086
-0.02706418610754932
0.026352580934668496
0.027612726271622562
0.058469863603873046
0.08692163187647528
0.04600071963339994
0.09109853286940575
0.03189123684204609
0.003900648166775142
0.0024538416542440045
-0.015196563820675635
-0.09588658298930561
0.033839077564765896
0.0014647952997437486
0.07925298306526993
0.0419755997271796
0.02232523952387616
0.03403740798341262
0.018390216870153422
-0.024272102341218765
0.06707946189229519
-0.004303233912808707
0.07100643091650027
0.08802765223439324
0.06683004006311802
-0.03465266382887744
0.012202170788459324
-0.05497521305741303
0.019016165634416424
0.07518983291495102
0.05612286718411483
-0.014605148532737408
0.04413786590345617
0.022342158933048972
0.0795852506556754
0.011138677957230267
-0.06599374389879356
0.009300062429853512
0.09554287729530875
-0.07510727647217265
-0.0023852832848421657
0.05271727607813892
-0.07007137995455379
-0.03602156515603119
-0.0040708282975894655
0.06792460861528776
0.016754092040793978
0.09305884972911979
0.06126898775557582
0.086673120954709
0.0760050827355846
-0.09702178050340335
0.017807155000210045
0.031265551118377394
-0.08679859865315186
0.02274630839472283
0.06609331284533349
0.007761273984196737
-0.08050409353671771
-0.0016292111916116486
0.08097498732664205
-0.08214414202103237
0.04660718834355171
0.048387209383549956
-0.019905135151939146
0.08472847084748308
-0.03947130604337997
-0.09513515689638824
0.0028434919489437327
-0.014834311013623522
0.03869120303931428
-0.04478807459513614
0.08098462155347971
0.08187571674283078
0.04093773981105786
0.027864809042878608
0.08521054454585558
-0.06096797867751814
0.043319323741993515
0.03940629698567419
-0.030546351480446945
0.01028619907668435
-0.06533358309015865
-0.029509955467800608
0.07899835733109692
-0.08901660822055142
-0.01625120329143194
0.06733275655690679
0.06395422204328521
-0.03182848453664648
-0.06496501028277889
-0.09448865022798869
0.05537710437471352
0.0730574753774205
0.09178037959073507
0.07903591394902015
0.05593863049894343
0.06975309138346153
-0.05170330232912806
0.07108053399820427
-0.01935084965797558
0.015750566561121046
0.035878293620825646
0.08319189450039402
-0.05589753198119811
-0.07634670376106181
0.06621247582647094
0.0817554706039606
-0.049932515710169156
-0.02419166337027935
0.09700751127885401
0.08114391209127086
0.03531792435459866
0.07791624968598415
-0.002609202200103397
-0.06248071732513712
-0.014539154899285159
0.0689386722396639
0.06355893459489567
-0.09275106487882738
-0.08124718003610436
0.025680599572027618
0.07514909159978092
0.06672119462673595
0.055389515967538994
0.0648184933873461
0.08793694465933455
-0.00797789921926327
0.09991655305409461
0.06307704773067069
0.07640962363883208
-0.04364771482387328
-0.025584047503855623
-0.09724362026656387
0.02150651956872368
0.011134707331606514
0.004993315364209994
0.08048155834079823
-0.008267610364021169
-0.08064077313346585
0.021362601543027382
0.09746822580125328
0.075062248220742
0.07794182311888609
0.051060080899762605
0.05460109545370115
0.04324504199973553
-0.020604341986526678
0.008090681889970641
0.022673980026431048
-0.054922229724894224
0.05654899511078815
0.08220163755204038
-0.07161372921404854
0.0868777243877332
0.07994154001243331
0.060840549002224825
0.0751209414015113
-0.051011844845851285
-0.052586237071134856
0.0557848381694544
0.07228285762756684
0.05266659352508596
-0.026629261394502085
0.011604970872411469
0.0768587819756972
-0.0430803495222779
0.08838867105564233
-0.05751675961704697
0.08563387767764868
0.06956463575000485
0.045030800870195536
0.09884958821634626
-0.04579219371449026
-0.09806120698352606
-0.07796694629857748
-0.027330181770441997
-0.006244506732152863
-0.0013503067608966607
0.08142065690794964
0.09191795976291356
0.043496019944802955
0.05625859229090538
-0.012472333599900562
0.028199668405703593
0.048801057962081645
0.04642403846346069
-0.03939473344987394
-0.023246700758189243
0.07659043880215799
-0.05296435978559132
0.07870796803123017
0.05677823495816123
0.05985627759708445
-0.055435886367559674
0.029317316013844574
-0.054030669030829495
-0.021734322494743316
0.0585263487049808
0.022713047374375267
0.004080893237209282
0.06452322304588343
0.06546548939998698
0.009889482889704093
0.06530582371350657
0.02953219002573995
-0.05806876042828851
0.09991141593398975
0.08398491727132668
0.08662079760726141
-0.01472918032675967
-0.04598354914093774
-0.09146648438055294
4.229989049669841E-4
0.06285008801345102
0.09051689387713147
0.06888478453262256
-0.07504819965762702
0.08065648730628183
0.0011340093801511103
0.06811800943928778
0.06439370841352102
0.0709566870164964
0.01508585906087849
0.06336031005849435
0.008453902587533105
0.0025160383380339463
0.03350978979616112
0.05853374615468354
-0.015495763018061048
-0.051553466210362664
0.0403188297704041
0.05912228395355226
8.540231765834794E-4
-0.015901686852322447
0.08945232110249768
-0.0470349022363767
-0.08922724562700741
-0.08752424441781922
0.030064030667879243
-0.06841840855998044
-0.033405126141730065
-0.036589080447681874
-0.02298726307692059
-0.02190751362300676
0.04577421201274076
0.04212459765010507
0.06769600752549246
0.004256138148499455
0.04968882732342128
-0.02654617096163385
0.06698254009723051
0.055617371139483895
0.060989948774496955
0.02279504316634816
0.09785463986309709
0.07860061550300676
0.09071191560912512
0.08467241722050028
0.079913367242407
0.0833159568833203
0.026585904155523032
0.06884778365087141
0.021055064202065335
0.08043857129716628
-0.05479352509349758
-0.026182449092351512
0.006820497148945448
0.0012433932551472182
-0.0691091081111199
0.059432408500578654
0.036039960546150634
0.011212067591077596
-0.05709837685023243
0.0317612516538712
-0.06895279945001613
0.007248306077106123
0.09289860581593043
0.034896360299416396
0.07957442461982109
0.03658583477657673
-0.07740939464066737
-0.00927145759500976
0.05379509644233449
0.08137928830063956
0.08261268965122498
-0.09467885105807045
-0.03161063453547554
0.05806541561814943
0.015397089401488762
0.04337041635158198
0.025584768964491883
0.09317775453371732
0.04152272517841643
0.0641761629632902
0.07104365573112587
0.045721926107845534
0.09873159066487999
0.07499055042813396
-0.021349361592363753
-0.04837278609981945
-0.08336239227875468
0.08144028109983559
0.035588938040851364
0.007213840473952987
0.013707512717857293
0.006355179761033225
-0.09546487180113117
-0.033761741700875994
0.008000630158377459
-0.0841869681906007
0.04186075303045986
0.07553840005364074
0.015530764268774769
-0.014431561365891563
0.07225491967135722
-0.03590050558883451
0.0650236243567889
-0.0490058508905892
-0.011243474942887174
0.012024567457662491
0.05448309274745122
0.04436730437144984
0.03838963567171577
0.021473763897735865
0.008260873567520116
0.08526299400528897
0.026330776524942395
0.0815933609623943
0.07875759128172469
0.057075160236754574
-0.02380745658325882
0.0978413898027703
0.008526890458497277
0.0953532975804782
0.06613613941968091
0.018264003695317735
0.07197591334871595
0.09824381728678527
-0.029313555842992015
-0.05146770074460698
0.0908523521613675
0.006846643768104982
0.07905648234961873
0.0851392073714134
0.02087557608700824
0.0407946622958707
0.09281565067819081
0.030050455610352522
0.05775802965064544
-0.06423082490769802
0.007003701009445973
-0.08578585602798562
0.04976196214275436
0.008977959184944817
-0.04332646279658831
0.006937171103813242
-0.05011984745811256
0.09723274110471075
-0.08338085376177926
-0.048948066981203145
-0.0576940441005936
0.010870389533200811
-0.005749432156693823
0.017127220961531853
0.01208283305939245
-0.0838047684774979
0.0982077918564827
-0.05303287211299132
0.06038592722746122
0.0843264248134232
-0.05317384070623564
0.09561992878185863
0.07583530693254759
0.048855159441610424
-0.018068134850606446
-0.0952474322720989
0.09538830796937386
0.06029055307730208
-0.0918206478569556
0.027554126983318744
5.7997810032309194E-5
0.08827252182730658
0.023376241792937902
0.008375421194347477
0.0818327463165408
0.04269263591671962
0.042405142576758065
0.05194643854270889
-0.04156419090343332
-0.032519868950606295
0.065498187254207
0.003753807506719123
0.09045780990137606
0.06069814352506889
0.08479614771070723
0.0762139559171702
0.010910382895092524
0.020248168188686896
-0.04624384777721449
0.09973491327611081
0.007331841744453435
0.06562724903566775
0.07078438484504979
0.09941205430112149
0.09569163275853257
-0.07957350023201669
0.09380190708124914
0.03637190030519252
-0.031806902836976944
-0.04548920714446558
0.050984319934752304
0.025860365312427247
-0.08757319144340883
0.0368016556585134
-0.09896010437280739
-0.08511486396079587
-0.05470454402848896
0.06632164710859084
0.06799346607850584
0.039058888323863394
0.04647267180500811
0.018383514022448005
0.06123854135020576
0.011984696409181178
0.051723900304413345
-0.003258730445370117
0.05172122392096759
4.939483502711117E-5
-0.021623455235639216
0.07418118815080066
-0.0033195070750908495
0.01146923964776464
0.03674250142343416
0.09437046327889839
0.09499963976220063
-0.012909456218484383
-0.07678981266438548
-0.0032486578031810515
-0.04794559783573261
0.020205506382397778
-0.03815135571165119
0.05059656547870489
0.03715571503750534
0.006906383904019514
0.017496348486563854
0.014224824828245775
-0.011997557442397278
0.00765719801190036
0.07030686000004577
0.01488736792049386
0.02470964085533406
-0.055279617101311365
0.011932481131651865
-0.0730194006433339
0.08688959361678036
0.006372541976141732
0.08553737111659124
0.04085785984374021
0.08417582426914905
0.08313964684201042
0.0889111796319551
-0.0755191427792131
0.08078741912098875
-0.07271957054457744
0.01151950290736671
0.0161950386496761
-0.060294541348239125
0.07006618232309375
-0.03269353752359691
-0.05636365518372412
0.03992812714983218
0.060176346863707625
-0.006335689660787153
0.00865161002394857
-0.016486581897604297
0.0031423598208687037
0.0794348119290148
-0.07155630714932355
-0.016262476720742672
-0.03242619211657276
0.03038251119643315
0.024950844620875504
0.03217138883552062
0.056971240327752
0.07861548511881733
-0.026012331082129594
0.05570549652531645
-0.030495572555986616
0.0242667252533475
0.08198723233424668
-0.03314139938378073
0.07606906679814845
0.016977011162802064
0.06719337573546524
0.019570609161248656
0.015467732823794975
0.06454314110122578
0.007845332618585152
0.022510903297702042
0.025558281310320313
-0.08686895583029824
0.07101834646446126
-0.09894746464182623
0.05843310824756984
-0.09306573310887553
0.058703029029112536
0.0517657997873279
-0.05253762907676766
0.011924916861108734
-0.044200698794358596
0.014947492462399542
0.04190417188210918
0.03277835549248351
0.018499873863296754
0.01610324436527663
-0.08770932459436949
0.08817507124164015
0.04918744371058831
0.07994762489512874
0.07592133318948202
-0.007255778362044052
-0.08053581189487788
-0.007344856961701507
0.022303539910848116
0.04774866136994102
0.03801293097256875
0.003892355320515184
0.0721563647867624
0.09136154753476916
0.037127960358104145
0.058574189712182256
0.0984272042109931
0.03237516639977406
0.02877019061914632
0.030337279322049132
0.04226018013530605
-0.09037742291102975
0.082820826235694
0.07501575675223698
0.03004520007265779
0.05245908897695381
0.09935839491425122
0.09222066911112498
-0.06657235045929535
0.058987246326576565
0.08083801128212564
0.01450964875195955
0.05885688690549104
0.08049101447739876
0.0322922783417505
-0.07785970587019919
-0.08241537951119932
0.023621933361160044
0.06748108990670099
-0.02055931272293586
0.07654398435757839
0.059476222944182866
-0.03913061757546047
-0.030495565377306105
-0.06023884552089098
0.07410325384920416
0.0853633229804753
0.06298338600995368
-0.05141173120359854
-0.0890651235760024
-0.034449360280177185
-0.07656616695288508
0.08104502784742465
0.027043395663734954
0.04709938403837671
0.0636739778689426
-0.07656629683049332
0.025637364748843622
0.05908572243872531
0.07051399422573343
0.08741048188496525
0.028921735913366275
0.04590803185528142
0.0833588686705328
-0.005210046660301559
0.0897768544928646
-0.03810437653598989
-0.035042173633822296
0.07723261268690193
0.09819187800743714
0.08745351601174015
0.014168762773931365
0.08704550309072984
-0.06714791933728986
0.013675287957808313
0.016169555713787462
-0.021720481314974213
-0.07804942571037077
0.07213806192917782
0.07456808478944627
0.06864013417514414
0.08319140229954156
0.04163831637664728
0.04745807601158558
0.07039860615498353
0.026129576273149296
0.04111862140566222
0.08395851322381909
-0.012595462209548297
-0.03598868343012818
0.012725563177956742
-0.08496324983906542
-0.04562427954045421
0.05442719234584256
-0.05078240529807408
-0.09198371736353157
0.026032388799861222
0.05802450440527984
0.09943966094634007
0.08120695997288097
0.07121978447857272
0.09088484530722407
0.04990941049425349
0.07136446019729065
0.09771233952975628
0.00598143230783825
0.0379039898047695
0.021274449304132206
0.09649151656419155
0.05055599137199293
0.012302655222388229
0.042964833874219094
0.04443311288815782
0.004348587613406396
-0.07788498300745236
0.05759356656306566
0.055523532720141516
-0.03767299843424402
0.026188151045447722
0.011892792083151582
-0.04623731384062554
-0.07473758457684787
0.08479090203758377
0.07401668482942189
-0.016208983476065364
0.08010306828012675
0.07172404766304533
0.08124007086198021
0.007295927250796169
0.04575057785635386
0.006143268282944134
0.012286966089713108
0.06761829742072448
0.055542041889518945
-0.012689551063345725
0.04597117289148764
-0.08842128065021845
0.08169671918962543
0.07286443313588933
0.08891124615750168
-0.020987704801551793
0.009362129346131579
0.09542551209501321
-0.09380938111705654
0.06168992617838104
0.09046107725644062
0.057675901348775704
0.09173274042154586
-0.03752041053186319
-0.06594483434316212
0.007736808911214463
-0.09463408349862944
0.03704854547833955
0.07333181382740381
0.03060614912195081
0.009542995188533118
-0.023184479253802626
0.04064853745196828
0.027267373131447448
0.020845766136136867
0.012982256437438083
-0.03961244382758058
-0.050242650870738606
0.0282187274217707
-0.09237760294836864
0.02169272922955183
0.07307427404400654
0.018072394827940708
0.08536294577239772
-0.08424344390646625
0.08793572069646458
0.07936297330942121
0.05737507850396378
0.08330986306261576
0.04282520975651544
0.0761911007021108
0.004050840308138681
-0.06975461612303398
-0.06838547126903452
0.06362785718142813
-0.06036767615825847
0.061543451120883136
-0.016556669304296084
0.09814603520467768
0.05615046799141557
0.024621147010793945
-0.013949561909859742
0.03764807330324202
-0.011876295435226503
-0.08927908033284697
-0.04643577830930967
0.03371652142454498
-0.09024996495631196
-0.07124460093914894
0.054278392322059665
0.03965632742755015
-0.03691059051223669
0.0902105719396693
0.011035968887851702
0.009666419159625877
0.060302422361138475
-0.024100194538781844
-0.0702704395760175
0.08674634703294082
0.06488287195163783
0.07530772796793245
0.06557764586040846
-0.016336175630530428
-0.06187592101260185
-0.0016367288804720742
0.0450442372664612
0.07530083655053799
0.012290618469465664
0.07261052432444945
0.036008924585111096
0.07474288829014283
-0.07713076804511518
0.04061401540384632
-0.0806247963484723
-0.05550513741936606
0.05724106037740287
0.05597791681785402
0.02973687921236709
0.07065346161909741
0.08398897648208623
-0.014339204328494712
0.09542515249783598
0.020702079962140907
0.07480193892607301
3.729789731890809E-4
0.04637472476150839
0.0668759136309682
-0.0638744628517987
0.08038326359537068
0.09077178044534123
0.049815888151783116
0.07449389246640087
-0.0685525004827243
0.042784481806298014
0.023245728486149864
0.09956340980238365
-0.03914351157450189
-0.07244733853707243
0.08807628537082637
0.08965985632432721
0.08713955964647307
0.07830381083369231
-0.06091352299650226
0.05728446066915249
0.07971080418530377
0.04195370683462671
-0.0557807007134864
0.014573778184780395
0.07024448810330883
0.06563514215712024
0.06884540369456932
-0.09133640967573887
-0.034330135049497376
0.06353365281738144
0.05643617847890911
0.09337985595216547
0.0052571308741241884
0.02064450753674739
0.09903550865435656
0.0977257691958282
-0.07094453413281866
0.008054887078116899
0.08274476521731508
-0.046668190418611956
0.04619285459770567
-0.03209500686537485
0.021019779442691663
-0.05551199838590561
-0.06286311641303796
0.001994552750300388
0.0993011330047468
-0.08319210033385603
0.07661092806039951
0.06667404394756513
-0.08124321057049129
0.01279507035899946
0.016528364032669093
-0.060176649454929225
-0.04530621680300476
0.0489565553548475
0.02899835538413678
0.06552969751179438
0.09841513631460744
0.009321827026575788
0.07675793572099732
0.048875858478654666
0.06685269900903992
-0.010452160905165236
0.0868912582341933
-0.07516313637843272
0.07238833906683767
0.02843822253400652
0.0839335674431673
0.03571645958644676
0.09300319210555369
0.03952073706714321
0.03193036436112617
0.01934740641412988
0.07131282478161413
0.08692718389710663
-0.0016894883813176331
0.06317636427158435
0.06742867889608128
0.03591048425229579
0.01921752932418838
-0.0347746728912906
0.05010818390786867
-0.022674691808651462
0.02533726781002421
0.06866547146520496
0.09389903808173583
0.035871814719276
-0.08694649611660718
0.08381171050469532
0.08466285717489666
-0.09062459882211356
0.04700636872549521
-0.07391692270630584
0.013640412478752736
0.021505548635986527
0.09077749385233569
-0.08744512241743103
0.06804875551548531
-0.09037095651120734
0.022648562935924377
0.0648297621118353
0.03367516504248885
0.06093827701560672
0.05881118527693868
0.03577571150560108
0.06623237419940503
0.08395460612480132
0.08134531170359563
-0.045138719405440966
0.021217393909215884
0.019143744371250618
0.04697911773457955
-0.01856327897954632
0.08510021375206941
0.0115474502395599
-0.08016567669921476
0.040017600842062406
0.0028362100952305652
0.025686216575627335
-0.022267962397293062
0.0802140303520146
-0.009391485333720015
0.017828972485453842
0.06896174004308628
0.0562334748286919
0.015727172524534858
0.02263728668937151
0.08068929932893065
0.07780473558525774
-0.01607640220971175
-0.040855660960908674
0.06303123602991773
0.07219647163760864
-0.0029509784538830075
0.08707474639320664
0.013044501362847988
0.03578857034442082
0.04181986804499757
-0.011994583108912715
-0.06095626286200828
0.05242164020405607
-0.07742726036091754
0.06638531571492323
0.08238674724840575
-0.02341844543666155
-0.06818707259313661
-0.01765034560888329
-0.04950935229763723
0.01505435271718332
0.011699706123745837
0.03842689221854645
0.0839606545674147
0.08669373990595128
-0.0346204350788718
-0.09601184683155298
0.0016429554385733458
-0.024052948276618483
0.07128807433523121
0.09082262582122463
0.04032701610799136
0.050806048613361715
0.013470332380321873
0.0100957656264061
0.05500073784333917
0.0713370663635571
0.05310616109791788
0.09003369705587977
-0.057082738335998646
0.042085988967600435
0.030945645541694572
0.007145751695455921
0.09456343299201914
0.024241620747822226
-0.07807736893788292
0.07220324924765603
-0.05810113380154924
0.05981858772994275
0.07636187001099135
0.06555710608439025
0.08858636918730556
-0.050978631723549495
0.0844185280246417
-0.008955312250828018
0.014999439352006719
0.041239800919398356
0.07989535775901227
0.06815020436130498
-0.0033875592345921773
0.03150319695463563
0.07145581831564038
0.013893761114042655
-0.006820427465973555
-0.0958910154028137
0.025598517421629524
0.033241722226275305
-0.022340557066110905
0.034514964258934744
0.06972755033343986
0.0698766808707984
0.02977800655373472
0.0649162869892714
0.028873208394843364
0.06054720952650322
-0.03115662050772039
0.0881409789061543
0.02205921301199043
0.023322158636029794
-5.406305306801806E-4
0.05742886846311676
0.07186582086623644
0.035477904257680354
-0.01264842400618757
-0.02663564658351386
0.04137492355185032
0.06422647065449807
0.09008590488387377
-0.02500411627289513
-0.017641773318774853
0.028672048795981064
0.023028252317247602
0.09512378132764202
0.011895308184994208
0.039301756611089034
-0.02921689116902902
0.06704436308802603
0.09041088414783491
-0.053295994484518494
0.001360944694505803
0.08944519890002414
0.0121228084487804
-0.06917512280507315
0.03835668249540769
0.03264867164868196
0.010546958700550613
0.0018295166806569368
-0.042717634798930836
0.06836090421105293
0.07892418877481502
0.07516850794745214
-0.034123780038341475
0.006098504036141733
0.018657754672133264
0.09078564144136253
0.01306251099771498
0.07935294202635768
0.08467044510357952
-0.08779281559239324
-0.061421071927413244
0.08294391174168994
0.060660053665330976
-0.05523154992255072
0.04715726685310928
0.01458494586258989
0.042653614681272184
-0.05597583976894606
0.015114188914322493
0.0022377305754824883
-0.06817118657157507
-0.07743420070014914
0.03280237044793624
-0.05922433665227444
